1020 100
.|. 0.272455 0.218653 -0.094651 -0.001077 0.005494 0.286124 0.215680 -0.420150 -1.087461 0.697675 1.393608 0.927727 0.265650 0.655530 0.994562 0.124528 -0.561614 -0.327403 0.235656 -0.654013 0.081251 -0.251042 0.435305 -0.350114 -0.026802 -0.684060 0.155897 0.346360 -0.124691 -0.004725 0.938657 1.108396 -1.109232 0.420687 -0.212451 -1.891296 -1.205358 -0.438713 -0.113324 -0.930141 0.225239 0.064893 -0.177226 0.945752 -0.038839 -0.445712 0.262407 0.452478 -0.395922 -0.239006 0.341066 -0.716677 -0.257892 1.217123 -0.129974 0.948885 0.108589 0.063789 0.197311 -0.329652 0.689323 1.157800 0.317849 0.674615 -0.442278 -0.424250 -0.665985 0.326664 0.723620 0.981039 -0.074707 0.276112 0.498836 0.984116 0.641399 0.244487 0.677565 -1.666110 -0.507999 -0.919813 0.210592 0.068451 0.226038 -0.583752 -1.054719 0.142894 -0.157689 0.409228 -0.790709 -0.694722 -0.311796 0.130382 -1.178022 0.211980 0.210688 0.119827 -0.681143 -0.501351 -0.682906 -0.891668
,|, -0.638095 0.766555 -0.775108 0.063512 0.555179 0.435261 0.009889 0.479194 -0.539647 0.932040 0.119527 0.432251 -0.418328 0.806145 -0.509351 -0.470481 -0.776836 -0.621523 0.493842 0.426915 -0.570721 -0.664592 0.663149 0.836071 -0.658366 0.037913 0.633860 -0.373646 0.291808 -0.040070 0.479549 -0.208601 -0.969130 1.111488 -0.409710 -1.956382 -0.096173 0.425298 -0.682364 -0.526732 0.936592 -0.392049 -0.097509 0.060076 0.143779 -0.781352 -0.377725 0.084865 0.054529 -0.211213 1.338518 0.035827 -0.509875 -0.265858 -1.240115 0.468426 -0.231399 -0.666410 0.750549 -0.608924 -0.733300 1.656277 0.482584 0.876251 -0.307288 -0.048665 -0.455441 0.255890 0.744946 -0.523229 0.639868 -1.344484 -0.150809 0.525297 0.072544 -0.484880 0.344286 0.554744 -0.107777 -0.013272 -1.414627 0.398590 -0.328067 0.272293 0.637995 -0.105714 0.910343 0.725133 -0.844838 -0.280146 0.699126 0.272601 -1.053919 0.399440 0.330537 -0.680998 -0.674888 0.653183 0.341374 0.192925
I|PRP -0.154342 0.413386 1.064775 1.032297 -0.017718 0.864866 -0.588296 -0.644854 0.622821 1.014013 0.006048 0.871321 -1.026075 1.095216 -1.033148 -0.433595 0.151430 -0.589460 -0.925209 -0.528255 2.107232 -0.289170 -0.348743 0.292247 0.302594 0.021335 0.171840 0.071904 -0.654001 -0.805770 -0.411748 -1.608992 -1.898891 0.297572 0.608292 -0.031894 -0.501589 -0.605458 -1.408401 1.484051 0.159194 1.084833 -0.199341 0.261559 -0.088396 0.985011 -0.750664 0.452424 -0.562371 1.185161 0.665551 -2.186139 -0.593869 1.560010 -0.913633 0.711626 -0.708786 1.351508 0.340677 -1.391107 -0.075351 0.927262 -1.023781 -0.154598 -0.282384 0.563195 -1.222561 -1.243816 -0.212485 0.801129 -1.353464 1.571251 -0.203585 -0.966402 0.476847 1.116084 0.001306 0.206238 0.811855 0.354143 -0.422620 0.915574 1.791861 0.105209 0.390872 0.975369 -0.583886 -0.143097 -1.743589 -2.454703 0.988302 1.147008 -0.866696 -0.069543 1.557130 0.808594 0.287901 -1.252053 0.435099 -1.323962
it|PRP 0.038060 1.188201 0.019603 -0.588757 0.834459 0.408826 -0.574520 0.599195 0.481325 -0.522045 0.431697 0.617864 0.677112 0.706178 0.622347 -0.838655 -0.063041 -0.037654 -0.752758 1.013928 0.891269 -1.459873 0.583721 0.448474 -0.759207 0.472865 -0.940555 1.645782 -0.226215 -0.847667 -0.158046 0.058103 -0.317704 0.088522 -0.291418 0.175005 -0.750602 -1.670053 -0.329675 1.478385 0.135891 0.227217 0.944083 -0.361302 0.044711 0.078128 0.178078 0.420719 -0.012313 0.360714 -0.548768 -0.689871 0.398614 0.529122 -0.587163 -0.058028 -0.820578 0.745912 -0.181389 -1.565553 0.524921 0.975813 0.044913 -1.820434 0.458368 0.003408 0.071840 -0.116825 0.102238 0.789856 -0.855831 -0.390095 0.046333 -0.800384 0.577064 0.031677 0.629035 -0.289057 -0.461817 1.459063 -0.453390 0.679175 0.592107 -0.018045 -0.796082 -0.691819 0.242230 0.345275 -0.326544 -0.615466 -0.196276 0.358956 -1.302325 0.401200 1.267383 1.391585 0.572519 -1.049094 0.975957 -0.425116
to|TO -1.043366 0.821352 -1.162608 -0.998797 -0.389659 0.330542 -0.536337 -0.354924 -0.742434 0.407369 0.134157 -0.607982 -1.276845 1.557222 0.051668 1.603164 -0.342118 0.399643 -0.501318 0.505398 -1.546676 0.502916 -0.495366 0.628390 0.299572 -1.035314 -0.722243 -0.212425 0.351960 1.779288 -0.530883 2.459460 0.208044 -0.411663 1.682319 -1.252151 -1.342296 -0.380509 -0.651666 1.532002 -0.077660 -0.105385 0.315263 -0.598358 -0.075651 -0.060327 -0.608016 -0.033274 -0.781068 0.766475 1.420900 0.179845 -0.968783 0.500770 0.928442 -0.580555 -0.940621 1.971050 -0.449347 -0.969810 -0.199710 0.583209 -0.167263 -0.553714 1.371121 0.637195 -0.891153 0.128770 -0.085354 2.916860 -1.326935 1.567758 -1.043574 -1.272140 1.161692 1.163261 1.635163 -2.301610 -0.213774 1.573392 -0.009046 0.501906 -0.013448 -0.105267 -0.432134 -0.436672 -1.840631 -1.650121 -0.265286 0.160520 2.152073 0.376222 -0.799376 0.751767 0.708482 0.669135 -0.444935 -1.310300 -0.323179 -1.241106
?|. 0.297415 2.035795 0.338548 -0.128052 -0.682508 1.523188 -1.410894 -1.413512 -0.441196 0.555118 0.548369 0.536313 -0.394990 0.548285 0.215131 -0.584790 0.326383 0.532573 0.498430 -1.054193 -0.477010 -0.840293 -0.622160 -0.202304 -0.856334 -0.902861 -0.632412 0.840195 0.001697 0.600574 1.315110 0.423077 -0.385726 0.608055 0.374603 -0.993430 -0.909391 -0.108530 0.588255 -0.224883 -0.608083 -0.459624 0.140090 0.829612 -0.711152 1.463824 -1.214916 0.958749 1.039227 -0.613871 0.406016 0.779615 0.082129 2.008115 1.162754 0.013108 -0.543404 0.172041 -0.934101 -0.614899 0.171801 0.025804 -0.908002 -0.796214 0.532015 -0.545118 1.248895 -1.906397 0.855670 1.012561 -0.172841 1.263651 -0.233868 0.713710 0.509008 0.143063 -0.295013 -0.802682 0.477382 -0.060715 0.013188 -0.090528 -0.372209 1.385737 -0.461619 0.173669 -0.462064 0.069317 -0.534246 1.228081 -0.964922 -0.520724 -1.352293 -1.290575 -0.282800 0.344444 -0.710616 0.780180 -0.379447 -0.095304
's|VBZ 0.962773 -1.628700 -0.608212 0.723962 1.012355 -0.713975 0.286692 -2.043711 -0.176758 -0.590535 0.026296 -0.628774 0.555373 -0.084587 0.387989 -0.329728 0.781608 0.168305 0.158868 1.347279 0.573405 -1.358215 0.136871 -0.495963 1.180954 -0.686126 -0.252523 -0.044523 1.676919 0.626769 1.277445 -0.173455 0.826823 0.680836 -0.104008 -0.273642 -0.956606 0.052093 0.522039 -1.739765 -0.062045 -1.158812 1.372408 0.688765 0.022488 -0.664537 0.076742 -0.650363 0.240969 0.629488 -0.288879 -0.434735 -1.261597 0.333818 1.281770 -0.571901 -0.049870 1.080874 0.057569 0.292188 -0.898826 -0.722460 -0.021977 1.206178 1.079953 -2.573206 0.333423 -0.063189 -0.260075 0.192682 0.109722 -0.255228 -1.439458 0.711533 -1.035411 -0.844275 -0.272176 -0.855672 1.133114 -1.372957 0.028066 -0.602320 1.460885 -0.931861 1.224075 -0.385887 -0.531805 -1.553896 -0.533252 -0.604249 -0.670169 2.052919 -0.158445 0.744420 -0.948972 -0.919366 -1.381956 -0.116871 -0.734681 -0.693826
the|DT -0.641482 -0.534012 -0.911666 -0.428936 0.472609 -0.453054 1.272715 0.567667 -0.769206 0.269999 -0.396302 -0.859862 1.624157 -0.533269 1.154886 -0.565637 1.864779 0.150775 -0.560747 -0.109478 1.602989 0.183806 -1.107148 -1.737842 -0.520548 0.324430 -0.218167 0.731459 -0.900907 0.495544 0.087654 1.042397 0.127918 -0.415277 -1.127160 0.465972 0.280106 0.387172 -1.161735 -0.342073 0.773889 0.124221 0.978193 1.012863 0.395191 0.067263 -0.589635 -0.347075 -1.047580 -0.487493 -0.446372 -0.082996 0.546678 1.338111 -1.582333 -1.642523 -0.228821 0.270159 -1.091333 -0.057423 2.385422 1.035042 1.187339 -1.246894 0.180206 -0.954987 0.584869 1.379091 -0.952190 -0.600912 -0.950248 0.112291 0.119296 -0.441544 -0.130826 -1.258601 -0.642414 -1.504257 -0.306858 -0.041049 1.645419 -0.673009 -1.849907 0.170129 -0.064286 0.020919 1.236279 0.817960 0.344605 -0.119113 -0.172959 -0.033255 -0.890025 -0.203106 -0.520674 1.370085 0.620803 1.481020 -1.437730 0.597349
is|VBZ -0.401045 -1.140314 0.678430 0.856697 1.331852 1.352409 -0.717441 -0.752098 0.023898 -0.251090 -0.505981 0.171178 0.762419 -0.838368 0.486105 0.238505 1.608430 -0.231008 -0.264639 1.822365 0.206668 -1.072477 -0.412463 -0.597494 0.593205 -0.756787 0.042192 -0.891312 1.657802 0.240060 -0.129046 -0.468322 -0.036276 0.090715 -0.280101 -1.113981 -0.103503 0.524371 0.367332 -1.518243 0.196596 -0.546498 -0.137895 1.973822 0.083204 -1.109209 0.388612 -0.561249 0.084195 -0.611082 1.121944 0.409219 -0.830229 -0.496771 1.366290 0.180061 0.460752 -0.162573 -0.452665 0.987525 0.007103 -0.623479 0.613592 2.160133 0.509943 -2.626717 0.390945 -0.530369 -0.058579 -0.187144 1.284829 -0.859509 -0.906060 0.230726 -0.790430 -0.384058 0.056047 -0.089606 1.606736 -0.902083 -0.267937 -0.328125 0.941281 -1.215646 0.095330 0.487250 -1.308556 -0.996099 0.289709 0.998834 0.672983 2.558365 0.293339 0.592216 -0.300366 -0.598202 -0.075868 0.103371 -0.340859 -0.209700
nt|RB 0.020228 -0.373427 -0.421693 -0.652598 -0.594283 -0.062871 1.198238 -1.182364 1.594250 1.095742 -0.742997 1.095694 0.058582 2.331734 1.137819 1.307688 -0.350164 1.028344 1.191784 -0.834327 -0.745581 -1.378502 0.443633 0.553204 1.513776 -0.102628 0.016383 -0.163140 -0.572890 -1.152284 -0.397613 0.992876 -0.616190 1.278127 0.716738 0.156746 -1.452426 -0.887897 -1.805345 -0.400818 2.124667 -1.405528 0.265959 -0.281239 0.893378 1.706473 -0.484414 0.733500 1.264407 -1.066705 0.101668 -0.912380 -1.421821 1.545387 2.324023 0.820431 0.306568 0.131617 -1.027127 -2.692532 0.742451 0.045365 -0.303465 -1.049511 0.365564 1.400407 0.476163 -1.049236 0.827572 -0.146032 -1.221374 0.929464 2.169820 -1.593542 1.467141 -0.546987 1.189162 -0.585139 -0.660695 0.899407 -2.145707 0.233566 1.528713 -1.061937 1.429542 0.258825 -1.023358 -1.072962 -1.055975 -0.262852 -0.040943 -0.721107 0.665681 -0.319574 -0.419839 0.522126 0.961863 -0.368867 1.028210 0.163093
he|PRP -0.693101 -0.544835 -0.173520 0.853562 0.400258 -0.498722 -1.209759 0.188073 -0.356108 1.787358 0.094754 0.366722 0.155640 0.546491 0.365383 -0.898176 -0.722053 -0.060455 -0.877183 0.289726 2.099568 -0.593908 -0.213777 0.166914 -0.199012 -0.572549 0.453595 0.445893 -0.041711 0.008023 0.809326 -1.494442 0.090924 -0.294774 0.409609 0.389872 0.530277 -0.500307 -1.079987 1.058410 0.602966 0.092578 -0.134097 -0.912317 -0.796347 0.753274 -0.035762 0.723660 -0.892533 0.038872 0.347973 -1.087221 -0.026434 0.484545 0.273985 -0.110524 -0.105257 0.194732 -0.057031 -0.740863 0.905893 0.771243 0.684092 -1.129625 0.401497 0.603841 -1.172482 -1.229935 0.599020 1.404492 -0.541693 0.718514 0.872303 0.467062 -0.299629 1.308385 0.979141 -0.611607 -1.139383 0.356746 -0.265111 1.230916 0.206713 -0.437179 -0.484693 -0.176393 -0.401962 -0.452145 1.420980 -1.541527 -1.159453 -0.564439 0.056214 1.885589 0.219493 0.662073 0.905626 -0.443158 0.949842 0.488637
do|VBP -1.394072 0.677666 0.258209 -1.112647 0.901172 2.056728 -0.758130 -0.793241 0.228231 -1.153115 -2.276978 -0.283119 -0.967117 1.037716 0.409648 -0.324298 -2.473903 1.377788 -0.975206 -0.245583 -0.387188 0.357389 -0.081271 -0.439727 1.073430 0.170410 -1.480374 -0.535747 -0.480728 1.733934 -1.076006 0.459085 -0.828025 0.090185 1.171124 -2.267931 0.263841 0.000315 -1.338952 1.132822 0.675180 1.025822 -0.813402 -0.777144 1.863359 -0.975487 -1.194303 0.386196 0.780767 -0.869265 -1.533373 -0.363749 -0.429473 0.209030 0.854785 2.634648 -0.322911 0.989293 -1.427633 -0.215048 0.007982 -0.019422 0.735045 1.264439 0.011524 0.470295 0.848538 0.316833 0.291344 0.745415 -0.194916 1.551187 -0.709163 -1.856014 3.087675 -0.258090 0.487811 0.207567 -1.165594 0.342560 -1.479328 0.966130 1.071024 0.074628 -0.186168 -1.356754 -0.622968 0.029928 -0.506940 -0.129801 -0.079947 0.993200 0.739466 -0.381460 -0.313895 -1.027102 1.102506 -0.233796 0.544483 1.569705
said|VBD 0.611911 -0.688548 0.208025 1.097543 0.326179 -1.079001 0.314977 0.137517 0.247794 -1.018531 -1.359320 -0.525222 -0.041720 -0.660666 -1.404972 1.637172 0.145652 -1.248923 1.650372 -0.813068 -1.024073 0.273642 -0.053318 -0.928588 -0.562794 -0.744174 -0.524539 0.366992 -0.762761 -1.120816 -1.021942 0.631306 -0.785984 0.704859 0.645154 -1.161882 0.480239 -1.433174 -0.623518 -1.640732 0.685251 -0.480625 -0.209346 0.968283 0.926491 -0.607230 0.414444 -1.020453 0.057867 0.568095 -0.815250 0.579347 0.165488 -0.373474 0.574078 1.475257 0.302300 0.388118 0.711984 1.166601 0.554572 0.546927 0.771595 1.259693 0.090979 0.364820 -0.089118 -1.742532 0.471596 -1.404751 0.250612 0.881589 0.362209 0.793076 0.395171 -1.716176 0.536090 -0.758904 -0.768462 0.626439 1.593822 0.058542 1.888629 1.359160 -0.401874 0.016018 -1.476453 -0.506605 -1.688508 1.083961 0.016306 0.128445 -0.798550 -1.820944 1.228204 0.910965 -0.918390 0.175291 0.329146 -1.090948
not|RB 0.398475 -0.718766 -2.026423 -0.896236 0.047533 -0.557534 0.149392 -0.124529 0.549894 0.780079 -0.044411 0.572274 -0.314760 1.170387 0.558999 0.978499 0.617300 -0.047931 1.029276 -0.375747 0.299470 -0.222269 0.091959 -0.081530 -0.291809 -0.022544 0.770726 0.182284 0.027226 -0.778733 0.055608 0.634213 0.407589 0.539848 -0.068073 0.367314 -0.623995 -1.250622 0.151705 -0.582434 0.755924 -0.421718 0.220529 0.386152 -0.045233 0.209353 -0.277668 -0.178272 1.858128 -0.729120 0.378657 0.031037 0.437230 0.785875 0.316235 -0.488730 0.656242 0.263577 -0.110802 -1.074366 0.231488 0.011814 0.454518 -0.669275 -0.272092 -0.613384 0.487160 -0.814127 0.203724 0.383025 -0.250239 -0.641623 0.908854 0.463444 0.793294 -0.056270 0.856524 -0.806462 0.245928 -0.308198 -0.354011 0.078126 0.218807 -0.854322 0.275722 0.081829 -0.915253 0.756188 0.666774 0.100472 0.761722 -0.847023 0.186633 0.793915 -0.402401 0.307128 0.109939 -0.552154 0.460748 -0.312618
It|PRP 1.130812 -1.075826 -0.236515 -0.160153 0.139624 -0.307063 -2.390903 -0.254690 -0.585998 -1.423086 1.976084 0.791500 2.123418 0.963412 1.820225 -0.730108 -0.275798 0.272731 -0.142023 0.124150 1.747745 -0.206272 -0.499507 -1.747299 -0.328976 0.734309 -2.130001 1.609934 -0.672574 -1.049693 0.635040 -0.706995 -0.199705 -1.921127 -0.221635 -1.519467 -1.057690 -2.110216 -0.136980 1.197446 0.715209 0.092667 2.599928 1.181056 -0.724411 -1.157446 -0.153643 0.510330 0.521774 -0.036860 -0.847494 -0.763872 -0.395242 0.338573 0.442378 0.022962 0.429545 0.600483 0.904358 -0.414891 -0.959512 2.209194 -0.135617 -1.347652 0.259043 -1.291434 0.153610 0.738957 0.332577 1.462618 1.257406 -0.092670 0.555317 0.582605 -0.073369 0.838318 1.145267 -1.885055 -1.255181 0.010877 -0.564316 0.339504 0.681342 -1.360482 -1.620586 -1.222530 0.124722 2.059136 -0.543207 -1.158475 1.430506 -1.244097 -2.128198 0.126006 1.353703 0.914308 -0.481804 -0.435021 0.545512 -0.536375
you|PRP 0.500819 1.560768 0.497464 -0.280382 -0.640258 1.080541 0.216060 -0.523638 -0.136025 0.772896 -0.562606 0.271077 -1.123474 1.291998 -1.754574 -0.192112 1.162954 -0.465179 -0.757645 0.397922 1.412150 -0.805888 0.885461 0.992689 -0.916610 -0.209553 0.283399 0.324000 0.063897 0.167464 -0.302698 -0.709780 -0.130323 0.032267 -0.005965 0.410103 -0.199420 -0.158133 0.059167 0.757559 -1.238805 -0.205656 -0.192911 0.114753 -0.460658 1.636556 -0.888540 -0.233673 0.109021 1.187851 1.133934 -0.779400 -0.031267 1.434313 -0.525687 0.387392 -1.097568 1.396510 -0.829768 -0.397806 0.523648 0.728104 -0.960164 -1.017400 -0.299027 0.623173 0.043044 -0.930938 -0.641917 0.021700 -1.566388 1.125460 -1.071155 -0.803635 0.071213 0.233535 0.100746 -0.186283 1.599602 1.760906 -0.649539 0.330309 1.425105 0.789236 0.384477 0.541988 -1.505175 -0.302085 0.145117 -1.587388 -0.005544 1.090796 -0.711981 0.645909 0.267817 0.844189 1.040893 -0.696572 0.708701 -0.281606
But|CC 1.153084 -0.073101 -0.277341 -0.435805 0.627865 1.070225 -1.124651 -0.093902 -0.113058 0.006076 0.952998 0.710090 1.130098 0.962345 0.668850 0.452962 -0.700488 0.299666 0.064327 -0.672611 0.135512 1.505475 -1.046545 0.131301 0.993762 0.273161 -1.451612 1.242885 0.446097 -0.036308 -0.645678 -0.133018 -1.756777 -0.089328 0.697266 -1.112167 -1.398264 -0.374812 -0.051932 0.005768 0.493361 -0.866836 1.618177 1.115066 -0.850654 -1.944300 -1.361369 1.020980 0.444658 0.219938 0.154339 -0.900815 -0.155433 0.377515 0.290594 -0.243225 1.171231 0.026765 -0.003469 -0.630680 -0.218248 1.653293 -0.786642 0.459231 0.139321 0.431447 0.987844 -0.328085 -0.178623 -0.056267 0.441662 1.827169 0.438362 -0.187355 0.603213 -0.366754 1.387913 -0.515104 -0.798701 0.028254 -1.627854 0.638344 1.798488 -0.844144 0.023161 -0.856607 0.588435 0.696407 -2.489350 -1.769598 1.944174 1.329847 -1.419068 -1.128968 1.830334 -0.039272 0.434868 -0.359875 -0.176963 0.679813
was|VBD -0.249343 -1.383490 0.875125 0.681917 1.012615 -0.369559 0.022363 -1.010833 0.106909 -1.295958 -0.907674 -0.592150 0.818507 -1.421644 1.001713 0.177817 -0.705363 -0.463939 -0.227999 1.634024 1.776949 -1.387911 -0.484241 -0.562651 0.707016 -1.049961 0.146381 -1.185854 0.653702 -0.086612 0.994523 -0.738155 -0.365593 0.147442 -0.199118 -1.123527 1.137333 1.123149 -0.850060 -1.374847 0.176005 -0.780236 0.547118 1.209663 0.312844 -0.883186 0.595667 -0.636163 0.667237 -1.173216 -0.706152 -0.276756 -0.755430 -1.116606 1.914655 0.631101 0.342378 -0.610030 0.073538 0.795434 -0.154309 -0.675719 0.435818 1.872794 -0.098166 -2.902853 -1.409482 -0.135864 -0.583066 -0.357405 0.622792 -0.057370 0.028727 0.103389 -0.181261 0.183278 -0.449995 -0.591324 0.367670 -0.921593 0.193394 0.210381 -0.280081 -1.379516 1.213727 0.136643 -0.557186 -0.324956 -1.823499 0.477142 -0.234324 2.012418 -0.578419 0.402203 -0.385058 -0.423592 -0.787680 -0.219276 -0.653404 -0.754889
do|VB 0.335647 -0.562125 1.633401 -0.566692 0.924508 1.132545 -1.107523 0.395618 -0.130008 1.177357 -1.207354 0.116086 0.514044 0.129277 -0.888440 0.083703 0.781817 0.086705 -1.495324 -0.473313 -0.063779 1.967335 0.214092 0.595742 -1.096494 2.383051 0.318756 0.105905 0.906308 -0.653074 -0.615472 -2.064437 -0.772349 1.315898 1.621869 0.211652 -0.457874 0.551140 1.467955 -1.709612 0.664137 0.864406 -0.258540 -0.113184 -0.147972 -0.161380 -1.354602 0.617127 0.027535 -0.163495 -0.371137 0.348003 0.045074 0.650868 -0.018646 0.122885 1.194105 0.495258 0.095530 0.580025 -0.851924 -1.018585 -0.650339 0.258191 0.350891 -1.332469 1.224003 -0.969072 0.485327 -1.013127 -0.631164 1.172635 0.398095 -0.597928 1.552907 -0.948758 1.536550 1.624477 0.897963 -0.899411 -0.855362 -0.482391 0.745125 0.592754 -0.162510 -0.935610 0.455855 -0.158558 -1.244150 -1.378129 -0.937596 -0.884333 -0.505778 -0.313083 0.585309 -1.229198 -0.246891 -0.524972 0.939088 -0.807464
that|DT -0.156865 0.974285 0.099351 -1.310512 0.661315 0.539631 0.791327 0.100184 0.545375 -0.451921 0.369943 0.488837 0.577910 -0.071089 0.787739 -0.860145 0.245826 -0.219406 -0.819614 0.328991 1.325908 -0.940685 0.560277 -0.131364 -0.825266 -0.111408 -0.526546 0.955993 -0.249322 -0.469097 -0.416793 -0.098875 -0.126815 0.054872 0.276026 -0.441768 -1.314586 -0.762745 -0.239496 0.538898 1.064043 0.009569 1.088616 0.169992 0.751833 0.090740 0.384534 0.124992 -0.011778 0.782562 -1.108292 -0.468053 0.380312 0.529988 -0.483474 -0.050382 -1.140388 0.525721 -0.066809 -1.403781 0.241709 0.382015 0.439279 -1.488780 0.543291 -0.297418 0.961606 0.438761 0.054946 -0.027350 -0.449008 0.634409 -0.359070 -0.999601 -0.277350 0.255627 1.163736 -0.212042 -0.189058 0.945976 -1.380799 1.223023 0.033980 -0.130302 -0.700121 -0.700481 -0.178971 0.935655 -0.069037 -0.551286 0.586617 -0.088333 -0.933894 -0.188434 1.448890 1.647740 0.002839 -0.253938 1.028255 -0.277213
did|VBD -0.802025 0.603856 0.035888 -0.305089 0.387332 -0.130576 -0.002251 -0.184450 -0.400605 -1.319817 -1.847486 -0.441989 0.043086 0.367584 0.461396 -0.465157 -2.091280 0.351929 -0.714229 -0.146742 0.479239 -0.231854 -1.275867 -0.456412 0.854780 -0.825630 -0.571050 -1.005726 0.046003 0.541304 -0.296810 1.530502 -0.980954 0.652716 0.956462 -2.242350 0.778551 1.449359 -0.888403 1.285758 0.056105 0.366307 -0.303556 0.434031 2.644461 -0.958664 -0.038938 -0.289372 0.500755 -1.058532 -1.389326 0.106790 0.126959 -1.063245 1.098141 2.349926 -0.233187 0.139367 -0.019737 0.052069 -0.066863 -1.231805 1.966999 1.411254 0.407189 -0.181935 -0.852924 0.334833 -0.139993 0.001783 0.146515 0.749147 0.263299 -2.207893 2.425605 -0.004416 -0.027814 0.277070 -1.504405 0.593152 -1.313750 1.827745 0.229005 0.740436 0.463860 -0.710087 -1.458190 0.106596 -2.155900 1.139489 -0.707619 1.147681 -0.540331 -0.392831 -0.275496 -0.428514 0.607010 -0.246273 -0.034632 0.296928
are|VBP -0.785063 -0.108664 -0.758250 0.633584 1.052861 2.879461 0.897599 -0.999160 -0.484573 -1.122802 -0.090210 -0.784644 0.256604 0.340571 2.449391 1.104561 -1.645345 2.443154 -0.093758 2.473614 -0.413888 -0.604030 0.666193 0.291290 0.152322 -0.672713 -0.985492 1.141457 0.458716 2.500119 0.315105 1.326499 1.122224 -0.350374 -0.291051 -0.878237 0.444869 -0.409587 2.289519 -0.930634 0.801953 0.253267 0.185821 -2.142294 -0.701144 -0.741813 -1.479412 0.274813 -0.359344 -0.067189 -0.474126 1.032707 -0.155720 -0.396891 1.390339 0.167859 -0.102114 -0.389397 0.061838 1.527110 -0.744716 -1.716463 -0.356884 0.287777 -0.250080 -1.940695 1.386198 0.493887 0.103380 -0.790095 1.124822 -0.332373 -0.775778 -1.518782 1.031019 -2.269734 0.088329 -0.924193 -0.249728 -1.106980 0.217076 -0.234418 1.511079 -1.509421 -0.907527 0.097712 -0.698585 -0.255836 2.136458 2.042911 -0.550953 2.339655 0.144869 -0.286273 -0.980244 -1.870999 -0.186329 -0.393340 1.263184 0.671728
what|WP 0.270747 -0.468122 -0.461718 -0.920318 1.228365 1.215900 -0.627207 1.183674 1.099009 0.749365 1.167114 -1.133704 -0.856660 -0.348364 -0.437293 -0.056863 1.043255 0.705572 0.374294 -0.074724 -0.336076 1.331991 1.569832 1.236005 -2.283919 1.021263 -0.904932 1.172035 0.355117 -1.112567 0.400324 1.667946 -0.631563 1.323108 -0.364201 1.606038 -2.534760 0.878235 -1.352121 -0.514846 0.310101 0.762024 -0.214305 -0.786677 0.169245 -0.142682 -0.607647 2.317230 0.305254 0.833320 -1.238232 -0.652730 0.660717 0.836886 -0.810152 0.866893 -0.933845 0.614338 0.395356 -1.020773 0.378356 0.459613 -0.194882 -1.486587 -0.013965 0.285837 -0.130464 -0.227310 0.087373 -0.652897 -1.353715 0.796028 -0.094885 -0.426109 0.490436 -0.983283 0.082004 0.357192 -0.515023 1.094897 -1.012717 0.161463 1.390934 0.598688 0.074203 -0.666440 0.952885 -0.119392 0.837375 -0.754106 1.763130 0.087782 0.337988 -0.018170 2.118484 -0.487025 0.483886 -0.468720 0.592932 -0.548329
we|PRP 0.244708 2.039908 0.602073 0.159849 -0.190469 0.456527 0.783072 -0.963896 1.189905 2.216502 -0.148063 -0.060067 -0.645124 1.464537 -1.114125 0.002419 1.921416 -0.167334 -1.119287 0.381220 1.201264 0.548746 0.984981 0.722915 -1.017291 -0.809560 0.130735 0.794346 0.585382 -0.046440 -0.301865 -1.443717 -0.892141 -0.594412 0.674760 0.434611 -0.198347 -0.697555 0.647688 1.007990 -1.119413 0.515937 0.119205 0.002375 0.101312 0.116056 -1.796512 -0.760289 -0.315927 0.941790 1.614982 -1.711384 0.564748 1.288941 -0.409993 -0.886035 -0.491799 0.871145 -0.595367 -0.378457 -0.312892 0.093920 -0.409398 -0.693501 -0.457832 0.436942 0.508361 -0.681612 0.894376 -0.326220 -1.555373 1.779115 -0.642056 -0.749322 0.737189 0.820792 0.153327 -0.719521 1.410774 1.178392 -0.417175 0.344257 1.263414 -0.678523 0.060498 0.526318 -1.205150 -0.594732 -0.003171 -2.110848 0.672141 1.356392 -1.239006 0.465705 0.416614 0.328867 1.153223 -1.277480 0.455183 -0.647892
a|DT -0.658379 0.855317 -0.237137 -0.499073 0.491952 -0.633127 2.610711 1.216902 -1.644301 -0.719849 -0.216538 0.099334 0.369252 0.509967 -0.379742 -0.498912 -0.346365 0.537383 -1.381795 -1.810958 0.143768 1.078861 0.109734 -1.126382 0.384654 0.050453 -0.117026 0.159703 0.971460 -0.345342 -0.120880 -0.452478 -0.819052 -2.229215 -1.683256 0.665096 0.408099 0.327884 -1.559863 -1.521087 0.989575 -2.049529 0.352864 0.248567 -0.241146 -0.619994 1.550576 1.182953 -0.270497 0.473004 1.729895 0.563722 -0.657598 -0.246839 0.259103 -0.860150 -1.287153 0.385707 -0.242156 -0.042314 1.586774 0.322667 -0.851539 -0.364888 0.565493 -0.990620 0.985339 2.173708 -0.191859 -0.446814 -0.160841 -0.124823 -0.609747 0.943812 -1.227820 0.281806 1.635519 -1.498861 0.076662 0.549272 1.905828 0.352122 0.046280 -1.469943 -0.395521 -1.460296 0.208624 0.524743 2.355220 0.762021 -0.362410 -0.759155 -1.483664 -1.243087 0.720840 1.541245 0.873583 -0.127099 -0.289733 -1.022518
be|VB 0.749189 -2.334564 1.416022 -0.171165 1.221686 0.233627 -0.403328 0.308970 -0.845106 0.485518 -0.903268 0.453913 -0.598373 0.002093 0.922842 0.824036 0.429668 0.833991 -0.995667 0.937276 1.596303 0.661240 0.178938 0.355300 -1.663807 2.177265 -0.066185 0.240229 0.132412 -0.386007 -0.491110 -3.368676 0.106319 -0.622442 0.615530 1.274136 -0.464128 -1.843405 0.924160 -3.379530 0.726200 0.716888 -1.433753 0.500610 -1.802718 0.311988 -0.827983 0.537238 -0.158855 -0.281752 0.014003 0.488862 -0.098554 -0.776954 -0.611756 -0.285469 1.727964 -0.870024 -0.421335 0.100166 -0.936774 0.889442 -1.328712 0.924857 -0.634157 -2.770316 0.468206 -1.242845 0.644853 -1.474660 0.066810 0.579898 -0.634953 0.538030 1.394960 0.243097 0.853591 -0.073078 1.717482 -1.871547 0.556202 -0.542294 -0.900355 -2.126336 0.864188 -0.477407 1.580521 1.806539 -1.402741 -0.673970 -0.877366 -0.041823 -0.211610 0.360899 0.234446 0.749633 0.309223 -1.219473 0.198373 -2.028827
they|PRP 0.682496 1.646064 0.047715 0.421159 0.011966 0.557977 0.884012 -0.955254 0.088103 1.764850 -0.105974 -0.012416 -1.292009 1.846114 -1.006284 -0.135373 1.159875 -0.471174 -0.851351 0.105417 0.969934 -0.220036 0.983646 0.607589 -1.806604 -0.276789 0.507734 0.459037 0.344597 -0.060245 -0.340767 -1.649919 -0.408840 0.089056 0.149595 0.131750 0.109402 -0.459942 0.099121 1.947807 -0.683464 0.373576 -0.530689 -0.532972 -0.124072 0.487678 -2.023550 -0.488677 -0.398548 1.235714 0.883562 -1.447707 0.504941 0.435223 -0.523316 -0.141459 -0.276254 0.958240 -0.651142 -0.344481 -0.140015 0.323686 -1.126481 -1.305317 -0.865521 0.839546 -0.112032 -0.949824 -0.327609 -0.702802 -1.697700 0.840190 -0.794758 -0.820334 -0.078227 0.943438 0.358845 -0.453102 1.511656 1.460819 -0.211722 0.624158 1.014652 -0.220243 0.334304 0.961833 -1.383969 0.139761 -0.526265 -1.957476 0.288767 1.782007 -0.617282 0.831331 0.202213 0.157115 0.920669 -0.705872 -0.154264 -0.151384
And|CC 1.048918 -0.260467 -0.650512 -0.267263 0.875492 1.170581 -1.312781 -0.041094 0.101262 0.721032 0.901610 0.113184 0.747719 1.038408 0.533352 0.738351 -0.838504 -0.140003 -0.038587 -0.269738 0.553096 0.664928 -0.747415 0.177537 0.600649 0.387694 -1.272022 1.159967 0.751138 0.346775 -1.085242 -0.403392 -0.938987 0.570741 0.093203 -0.882134 -0.722659 -0.389174 -0.047027 0.140295 0.746946 -1.107715 1.237094 0.162974 -1.500622 -1.660299 -1.533304 0.877785 0.948631 -0.025137 -0.071272 -1.287114 0.307640 0.711270 0.133917 -0.144820 1.389701 0.001251 0.065559 -0.150283 -0.478851 1.695129 -0.370505 0.598350 0.159438 0.469402 0.450294 -0.782692 -0.392442 0.403034 0.121269 1.297554 0.338498 -0.239632 0.665121 -1.005356 1.421600 -0.302583 -0.837635 -0.219182 -1.653840 0.337131 1.695099 -0.573352 0.346888 -0.695415 0.293680 0.260309 -2.714948 -1.346204 1.582798 0.973324 -1.034514 -1.192678 1.636902 -0.376701 -0.101889 0.173492 0.026893 0.800619
of|IN -1.580325 -0.681541 -1.053336 0.053005 -0.589006 -0.688123 -1.045796 -1.091573 0.775663 -0.673756 -0.507056 1.390087 -0.278189 1.411273 1.402864 -0.116328 -0.096337 0.045113 0.997659 -1.349985 -1.008253 0.313344 0.187230 0.211041 1.165441 -1.348462 0.686244 -0.764003 -1.070938 -0.944315 -0.024144 -1.571013 1.455334 -0.776529 0.366050 -0.442273 0.185061 -0.911162 1.056382 0.283989 0.073058 0.202829 0.962016 1.428276 1.080716 -2.279086 0.269841 0.338344 -2.398373 -1.122995 0.893506 -0.142417 -1.111246 2.083752 -0.490748 -0.523784 1.874633 -0.509002 -0.424845 1.254089 0.134709 -0.821062 -0.779985 1.341334 -2.138493 1.177299 1.528573 0.045289 -1.592554 1.128452 0.912669 -0.876657 -1.076532 0.303773 0.127556 0.608698 0.593307 0.208398 0.079540 0.937827 1.385137 0.706307 -0.417221 -0.034250 0.288178 1.882136 1.376435 -0.166642 -1.730476 -0.239858 0.467477 -0.431271 0.572447 1.270473 0.081149 -1.703298 0.507441 -1.333600 -1.721554 0.123104
We|PRP 0.929962 0.838513 0.462584 0.783287 -0.570214 0.527491 0.090618 -0.856455 -0.374331 1.260385 0.978081 0.589794 -0.567577 2.465733 -0.987614 -0.337641 1.117158 0.589380 -0.834303 -0.277292 1.548834 1.882008 -0.727234 0.103022 -0.422051 -0.510773 -0.285077 1.044527 -0.659533 0.553782 -0.394338 -0.479562 -1.643610 -0.614881 0.498012 -1.078645 -1.477411 0.127585 0.685149 0.408400 -1.029619 0.062998 0.259887 0.039946 0.317453 0.321594 -1.973756 -1.123946 -1.525825 0.366184 2.107810 -1.624599 -0.630623 1.369254 0.305325 0.338318 0.612658 0.822582 0.682782 -0.045243 -0.662744 1.880721 -1.872113 -0.396260 -0.845185 0.498043 0.277505 0.424714 0.513931 -0.651668 -1.178714 2.613775 0.540685 -1.450453 1.087260 0.493683 0.435215 -2.164896 0.522116 0.588185 -0.123428 -0.156269 2.217982 -1.673806 -0.093747 0.916057 0.213382 0.064600 -1.748351 -3.074966 1.404942 1.608437 -1.919539 -0.037803 0.838408 -0.043691 0.857540 -1.710012 -0.292278 -1.995012
this|DT -0.232166 0.262766 -0.016310 0.059555 0.797327 0.260754 0.702790 0.354926 -0.576198 0.134660 -0.309958 0.733853 0.968391 -0.142668 0.485055 -2.017933 0.454485 -0.202582 -0.147849 -0.556213 0.992400 -0.702480 0.700206 0.405107 -0.427703 -0.526684 -0.067345 1.379563 -0.146163 0.124262 -0.684159 -0.606689 0.505211 -0.289026 -0.070897 0.129940 -1.235533 -0.399402 -0.170161 0.331455 0.302941 -0.504108 0.963345 0.145400 0.592482 0.134630 0.898841 -0.234069 -0.456053 -0.014009 -0.549573 -0.018366 -0.022613 0.421065 -0.316867 -0.186955 -0.991925 0.332195 -1.190835 -1.052258 0.465872 0.786323 -0.029821 -1.611786 1.053100 -1.011122 0.957274 0.322005 -0.833752 0.169877 -0.521947 0.953816 -0.470493 -0.883106 -0.800528 0.533492 -0.287736 -0.539924 -0.407582 0.996022 -0.087934 -0.696878 -0.752021 0.325869 -0.887864 -0.462130 0.333399 0.181847 1.136902 0.290683 0.041556 -0.695461 -0.994468 -0.601440 1.205822 1.895452 0.095601 -0.190986 0.236885 -0.389659
know|VB 1.070894 0.800179 0.574704 1.027794 0.938292 0.739082 0.097883 0.612382 0.191077 1.604963 0.787740 1.062083 -0.410265 -1.177720 1.212867 0.242591 -0.100372 -0.126229 -0.210016 0.465394 -1.038701 0.784886 -0.469364 0.482081 -0.700117 2.888157 -1.476574 -1.071378 -0.368156 0.425757 -0.375459 -1.958590 -0.635265 0.165139 1.569698 0.066696 0.429136 -0.466753 -0.684212 0.235228 1.269588 -1.516298 0.217311 0.954833 -0.524715 0.364774 -2.300857 0.158648 0.552935 0.401338 -1.187151 1.111363 1.634106 -0.747124 1.340779 1.178897 0.488104 0.439547 1.949643 -0.401305 -1.709397 -0.874856 -1.467021 -0.113661 -0.015724 -0.501809 2.477826 -0.826025 0.199545 0.848629 -2.298810 0.515314 0.893495 -1.494253 0.447188 -0.976481 1.810931 1.104871 -1.724126 -0.939444 -2.095334 -0.033279 0.881600 0.465286 0.964806 -0.393515 -0.172676 -0.319512 -1.347687 -1.760873 -0.240145 0.485106 -1.088891 -1.882868 0.767499 0.813243 0.186348 -0.941539 0.946548 1.679495
for|IN 0.135391 -1.749972 -0.474051 0.403773 -0.375265 -1.062283 -0.807134 -1.038183 -0.309814 -0.121424 -0.598982 1.431723 0.306488 0.170219 0.019745 0.495279 0.419818 0.278221 -0.603979 -0.248856 -0.659548 0.811034 0.925645 -0.010835 0.539485 0.756085 -0.254404 -0.018664 0.033450 -0.157103 1.156024 0.041221 0.320720 0.649506 -0.480406 -1.218600 -0.169064 -0.570856 0.265497 0.727211 0.041004 -0.087902 0.899345 0.933335 -0.384288 -1.345678 -0.290796 1.047008 0.351522 0.571439 0.657071 0.756566 -0.942877 -0.369172 1.057502 -0.929818 0.252841 0.842507 -0.396580 0.521534 -1.136441 -0.633155 -0.849068 1.728139 -0.517184 0.226109 -0.375738 0.930986 0.403727 0.783280 0.715143 -0.688515 0.428349 1.858402 -0.804391 1.184477 -0.179050 -0.569919 0.108972 -0.160303 0.673385 -0.098024 -0.602396 0.491074 -0.798610 0.465577 -0.774220 -0.134420 0.841058 0.776265 1.636513 -0.756755 -0.062139 0.760084 -0.659461 -0.819012 -0.338534 -0.067652 -1.343246 -0.455323
They|PRP 1.521855 0.594948 0.132386 0.639099 -0.377400 0.353246 -0.131231 -1.009385 -0.510874 1.049416 0.776772 0.645548 -0.692932 2.771936 -0.747006 -0.572031 0.730544 -0.103482 -0.334042 -0.311815 1.075973 1.288932 -0.060335 -0.315578 -0.999634 0.038593 -0.487180 0.715011 -0.449944 0.306372 -0.370853 -0.783598 -1.084508 0.087700 -0.068133 -1.612986 -1.363561 -0.347998 0.596430 1.352743 -0.627191 0.366417 -0.362772 -0.534518 0.121117 0.468459 -2.000273 -0.638501 -0.938537 0.838176 1.466753 -1.211803 -0.725777 0.603615 -0.352715 0.744008 0.469654 1.073601 0.859457 0.221090 -0.554961 2.214358 -2.224025 -0.660153 -0.955028 0.714439 -0.613704 0.398345 0.420556 -1.030163 -0.631979 1.617523 0.083169 -0.987882 0.450454 0.782227 0.296857 -1.876744 0.593490 0.953879 -0.486613 0.116682 1.979119 -1.237666 -0.069424 0.839042 -0.151777 0.497157 -1.749710 -2.468879 1.365025 1.597245 -1.631886 0.452420 0.885520 -0.179443 0.357736 -0.810256 -1.104412 -1.842755
just|RB 0.256683 -0.587744 0.204635 0.044497 -0.685357 -0.317110 0.913207 0.335284 -0.114348 -0.420761 1.066255 -0.043907 -0.203464 0.709471 1.435884 0.603922 0.028849 0.380121 -0.226866 0.265698 -0.043859 -0.258743 0.057032 0.711880 0.281739 0.155721 -0.195558 -0.897075 0.108385 -0.373497 0.691895 0.485901 -1.236419 0.096596 1.490543 -0.487764 -0.611491 -0.277105 -0.049064 0.845975 -0.220568 0.355920 0.727231 0.978962 0.964615 -0.839067 0.097828 0.230523 -0.198220 -0.066012 -0.706143 -0.325754 0.357267 -0.102164 0.187891 0.406140 -0.504435 0.229337 -0.490883 -0.249387 0.365009 0.790236 -1.379849 0.036587 -0.198100 0.329993 0.035471 0.164506 0.355794 0.547231 -0.309595 0.860434 0.249241 -0.345728 0.503088 0.767767 0.829913 -0.520533 -0.547884 0.992190 -1.066001 0.505649 -0.153014 0.322449 -0.316878 0.138015 -0.457396 0.501991 0.407927 -0.710762 0.523609 0.328932 -0.446275 0.503564 0.527093 -0.097637 -0.061512 -0.022445 0.037163 -1.014232
all|DT 1.249522 -0.863914 -0.997445 0.082618 1.034274 0.348082 0.375777 1.923662 1.009968 -0.074788 0.692544 -0.397908 0.134038 -0.174021 0.539571 -0.836513 0.321393 0.721671 1.607327 0.216294 0.527353 0.632238 0.666373 -0.067330 -0.029670 -0.012741 -0.588137 0.135891 1.522583 0.859535 0.609580 0.536797 -1.103670 0.524380 -0.922770 0.785332 0.099253 1.185896 0.435613 0.398779 -0.031685 0.393796 0.132813 -0.686068 0.603473 -1.048738 -0.342499 0.313630 0.864827 0.188556 -0.100307 0.629241 1.117674 0.935535 -0.458322 -0.524501 -0.897534 0.130306 -0.110674 0.878642 1.439718 0.242137 0.252287 -0.886078 -0.970366 -0.180083 0.818897 -1.013427 1.075075 -0.047410 -0.774806 0.760243 0.590583 1.203701 -0.868381 0.226087 1.021304 -0.323547 0.375769 0.431058 0.617533 0.144866 -0.142643 0.419848 -0.208655 -1.245245 -0.017780 0.136369 0.604154 -0.386022 -0.006070 -0.067469 -1.762154 0.318170 0.828778 0.323490 -0.536963 0.838521 0.099852 -1.229966
That|DT 0.532792 -0.949245 -0.929571 -0.401354 0.365445 -0.109280 -1.344166 -0.891584 -0.207035 0.140820 2.372692 0.512742 1.758143 1.204822 1.710576 -0.120085 0.165473 -0.255586 -0.160683 0.028442 1.154351 1.426217 -0.404484 -0.806368 -0.001462 0.219690 -2.043112 1.015784 0.341169 -0.295167 -0.089489 -1.093845 0.016189 -0.495336 0.379526 -1.264135 -1.497981 -1.913092 0.215127 0.227493 1.288698 0.183507 2.225486 1.903987 -0.551078 -2.110022 -1.417237 1.218599 1.003413 0.819437 0.096754 -0.426914 -0.365682 0.782153 0.015776 -1.002613 0.169425 0.556841 0.986667 -0.516966 -0.484926 1.814544 -0.009060 -1.454544 0.397200 -1.210685 1.323079 -0.032430 0.443819 1.172549 0.819812 -0.204074 -0.354248 -0.188501 -1.110783 0.254207 1.620476 -0.685638 -1.019008 0.323850 -2.079292 0.789151 0.490614 -0.154037 -0.227925 -0.978080 -0.734334 1.091262 -1.251483 -1.106849 1.762023 0.014714 -1.845636 -0.248526 2.234974 1.427281 -0.403813 -0.391234 1.262389 0.476202
going|VBG 1.637771 2.424362 -0.528830 -1.882362 0.135400 -0.189728 0.371090 -1.598580 0.114024 -0.016574 0.575719 -0.872057 -0.540649 1.484614 -0.157889 0.553004 0.256222 0.917544 1.637228 -0.681443 -0.324935 1.322657 0.523901 -0.852910 1.222140 0.176495 -0.504712 1.410661 1.854596 -0.534613 1.306927 2.428438 0.010247 -0.960604 0.620320 -0.523738 0.013030 1.124208 0.987660 0.673430 -1.667302 0.669475 0.523672 1.180484 0.373606 -0.701028 -1.190623 -1.391223 0.785012 -0.939960 0.140456 -0.191916 -0.869678 -0.364636 -0.298789 0.714644 -1.538491 -0.366467 0.202997 -1.184746 -0.370996 0.737216 -0.697632 -0.264298 -0.170627 0.477269 1.177318 1.870402 -0.322558 1.202771 0.207247 0.490207 -0.123851 -0.824057 -0.981705 -1.201073 -1.295601 -1.747401 -0.943508 1.399708 -2.092398 2.229899 1.884766 1.703601 -1.154916 -0.714843 -1.192833 -0.015456 0.925603 -0.210411 -0.486578 -0.466625 -0.288892 -1.247380 -0.514887 0.694884 2.541087 0.187442 0.641596 0.953896
have|VBP 1.457034 1.052222 -0.104871 0.859518 -0.037567 1.105880 1.095953 -1.781409 -1.328007 -2.011795 0.974343 0.002666 0.454098 0.196367 0.394529 0.324176 -1.165381 1.567943 0.828133 -1.293682 -1.017398 -0.928808 0.391538 0.576529 3.094752 0.468129 -1.131955 1.283759 -0.771790 1.078423 0.596321 -0.139345 0.459831 -0.239410 -0.694400 -0.396870 -0.597124 0.281149 0.868877 -0.653021 -0.793454 1.444312 1.058488 -1.290569 0.683368 -0.660252 -0.179757 -0.921466 -0.257884 -1.305064 -0.754424 -1.118381 -1.690889 -0.011478 1.604621 -0.533230 -0.391142 -0.000726 1.201079 0.869615 -1.314101 -1.947936 0.509417 -0.264799 0.462119 -0.509130 0.243930 0.901596 1.590075 1.065879 0.023589 -0.727751 0.622958 0.107041 0.583735 -1.097873 -0.128026 0.509863 -0.344431 -1.588382 -0.237754 -0.250639 1.408673 0.881102 -1.496099 -0.488770 -0.226485 -0.069874 0.797099 2.191703 -0.324533 -0.127698 0.958819 -0.462733 0.078696 -0.857537 -0.591557 1.092743 1.006214 1.784482
He|PRP 0.052087 -1.150164 -0.238221 0.386359 -0.044209 -0.257386 -2.474157 0.443691 -0.648923 -0.079482 1.420523 0.275627 1.320410 1.377827 0.847934 -0.555392 -1.222103 -0.109656 -0.501010 -0.004740 2.239854 0.038376 -1.413813 -0.466807 -0.046261 -0.524692 -1.176575 0.600297 -1.011254 -0.807235 0.699112 -1.456007 -1.366980 -0.669167 0.482965 -0.918184 -0.708057 -0.661460 -0.879599 0.998829 0.386830 -0.534748 0.842643 -0.380790 -1.044662 1.087782 0.207502 0.711883 -0.608151 0.109970 0.195227 -0.377811 -0.178785 0.363733 0.392023 0.321905 0.586834 0.193601 1.294568 -0.943858 -0.377016 2.089308 -0.379018 -1.719566 -0.108392 -0.178405 -1.319896 -0.125708 1.363138 1.843141 0.086614 1.277544 1.460385 -0.348771 0.594308 0.944859 0.900703 -1.683537 -1.133048 -0.103015 -0.263761 1.322868 0.561776 -0.485920 -0.800389 -1.064024 1.111835 0.572168 -0.883656 -1.374750 0.288035 -1.532832 -1.452676 1.222705 1.200064 0.758516 0.527622 -0.215747 0.608961 -0.243271
time|NN 0.111622 0.737024 -0.340433 -0.306059 -0.255965 -0.379338 -1.513725 1.410312 0.570865 -1.362053 0.500042 2.588940 0.081517 -0.915197 -0.054333 1.341949 -1.539476 -0.159262 1.491543 0.916033 0.709649 0.122135 -0.320270 -0.979129 0.547768 0.175697 1.023931 1.146767 1.440196 0.826788 -0.621683 -0.257120 -1.086099 -0.871669 1.243395 -0.686110 -1.179123 -0.545137 0.163033 -1.560642 -0.818523 0.615606 0.366559 0.137588 0.242267 0.050518 0.071930 0.762022 0.872080 -0.797062 -0.280841 -0.163167 -1.523948 1.246134 0.420167 -0.730799 -0.187445 -0.814309 -0.075292 -0.605150 0.473534 0.975038 -0.784855 -0.353582 -0.688130 0.928968 -0.942793 0.458783 0.755452 1.025786 -0.495294 -1.094779 1.957134 -0.285315 -0.492284 0.970669 -1.563964 -1.525836 -0.436578 -0.398653 0.242801 0.057293 1.335626 -0.476794 -1.292846 -0.421853 0.749548 -0.146782 -1.170702 -0.582426 0.403383 0.604584 -0.376916 1.131125 -0.326222 0.125955 -0.489135 -0.120770 -0.162469 -0.376988
can|MD -0.951667 1.863263 -1.320404 -0.888089 0.469244 0.749884 0.313136 -1.494262 -1.519186 -0.586496 -0.790088 0.242856 0.589744 0.785430 -0.163333 0.308310 -0.736178 0.798728 0.719235 0.961702 -0.440029 -1.026453 -1.054983 0.274117 2.718405 -1.550902 -1.009624 1.222207 0.462913 1.758788 -0.552525 3.038523 0.461896 0.221213 0.348329 -0.579294 -0.579496 0.500146 0.704584 0.109270 -1.307252 -0.059812 1.467932 -0.305877 0.439228 -0.302519 0.300451 -0.416571 0.680438 -0.114511 -0.099194 -0.061441 -0.713945 0.137714 0.051414 0.005302 -1.002114 0.685158 0.170394 0.810500 -0.172187 -1.633850 1.492017 0.450339 1.131105 0.496519 -0.825240 0.400951 0.071473 2.805850 0.765164 -0.847516 -0.989542 -1.106089 1.249883 -1.524697 0.459075 1.481704 -0.866200 -0.222669 -1.208287 0.362281 0.967792 2.079529 -1.136893 1.099341 -1.170896 -1.011425 0.712143 2.161742 0.927678 1.647135 0.514598 0.234524 -0.181343 -0.032642 -0.371863 0.402661 -0.226189 1.396632
in|IN -0.604608 -0.039779 -0.072156 0.403561 -1.419717 -0.757636 0.672714 -1.590023 -0.881277 -0.135535 0.155049 0.060335 0.295968 -0.111035 0.865045 0.110299 0.988087 -0.386648 0.613589 -1.170474 -0.868206 0.662641 -0.582402 0.047467 0.408811 -0.878667 0.215367 0.145950 -0.887786 -0.049920 -0.855611 0.731353 0.275433 -1.229759 1.035335 -1.356561 -0.279260 -0.451373 0.357490 0.367016 0.240331 0.604858 0.371237 0.913987 -0.219432 -1.377340 -0.142288 -0.372018 -0.664239 -0.210230 0.854750 0.805041 -0.229809 0.487896 0.871875 -0.757009 0.921961 1.192324 -0.392649 0.867353 0.349274 -0.477372 0.198116 0.475841 0.299453 0.050745 -0.500214 0.052133 -1.050511 -0.311366 0.792527 0.412878 -0.244186 0.188219 -1.092790 1.000294 0.345170 0.211074 0.484767 -0.267136 1.118508 0.038594 -1.351397 -0.893992 -0.453189 0.909577 -0.617281 1.060917 0.003540 -0.095953 0.300286 -0.596338 -0.030331 -0.283176 -0.508959 0.226029 -0.196962 -0.105394 -0.923055 0.215638
way|NN -0.417246 -0.364803 -0.479860 0.254088 -1.500242 -1.502647 -2.053767 -0.239477 0.993526 -1.324518 0.767436 -0.002840 -0.461592 -0.614199 -0.112175 1.874655 -0.411208 -0.014291 1.802450 -0.108473 0.569870 1.281684 0.417784 1.445356 0.551191 -0.424240 0.390869 0.478282 1.959422 0.334916 0.126781 1.586850 -1.322841 1.693342 1.785375 0.516354 -2.303957 -0.736145 0.253445 -0.837815 -1.755225 1.213651 1.039470 -0.550588 -0.639290 0.562907 -0.584402 -0.130545 1.105414 -0.828139 0.550672 -1.341558 -0.129182 1.169831 -0.639323 -0.780222 0.864575 1.170803 0.533284 -1.579661 -0.616820 1.271515 -1.199604 0.545709 -0.492368 0.191659 0.195215 0.317189 1.100171 0.737461 2.117081 -0.781744 1.151161 -0.503352 -0.004866 1.579370 -1.462945 -0.502639 -0.844794 -1.045125 0.161913 -0.455092 1.538417 -0.847663 -1.707331 -0.677137 1.671148 -0.776833 -0.826187 -1.773657 1.167472 0.481614 1.017533 0.085457 -0.714926 -0.665428 0.701625 -0.272777 -0.182732 -0.526189
You|PRP 1.154426 0.572157 0.533614 0.770395 -1.230227 0.779451 -0.664673 -0.735934 -0.496059 0.811887 0.137090 0.515333 -0.809130 2.241621 -1.668075 -0.052020 0.687597 -0.215188 -0.286594 -0.028943 1.157528 1.510241 -0.244324 0.719753 0.344857 0.342171 -0.262482 0.804823 -0.896602 0.074574 -0.432150 -0.536753 -0.714743 -0.051692 -0.013898 -0.537233 -0.878538 -0.071966 0.230979 0.250712 -1.427842 -0.025073 0.191580 0.365885 -0.147392 1.214168 -0.901570 -0.400127 -0.667546 1.511054 1.527151 -1.443850 -0.916886 1.606105 -0.605120 0.536006 -0.369607 1.642990 0.588467 0.235289 0.333639 2.175890 -1.715260 0.055727 -0.768956 0.719725 -0.506177 -0.397124 -0.318440 0.068465 -1.075662 2.151841 -0.552287 -1.315324 0.414533 0.182963 0.024018 -1.077698 1.196047 1.045828 -1.341024 0.093726 3.039850 0.237671 0.576864 0.138124 -0.520829 0.016934 -1.250416 -2.759860 1.199200 1.339196 -1.514533 -0.219764 1.206638 0.167365 1.124653 -1.269254 0.245438 -1.468109
she|PRP -0.757086 -0.645369 0.262511 0.588605 0.244864 -0.356407 -1.160786 0.477340 -0.289960 1.568533 -0.132379 0.461622 0.266747 0.468119 0.325543 -0.874652 -0.524231 -0.393345 -0.974897 0.278450 2.076780 -0.728925 -0.028025 -0.014188 -0.017076 -0.219983 0.240722 0.419151 -0.399202 0.021494 1.178075 -1.384911 0.266927 0.410956 0.347503 0.063893 0.630857 -0.423264 -1.433561 1.019117 0.676189 0.190312 -0.366560 -0.892445 -0.173812 0.699348 0.054952 0.713708 -0.919699 0.440611 0.042810 -0.989329 -0.248197 0.339460 0.229867 0.120140 -0.208342 0.075965 0.398076 -0.276961 0.922193 0.711815 0.491716 -0.799375 0.044540 0.841861 -1.488385 -1.415203 0.452484 1.228269 -0.598347 0.964809 1.235923 0.644480 -0.542682 1.019013 1.003019 -0.215262 -0.980209 0.000228 -0.378886 1.205930 0.147397 -0.191462 -0.322307 0.423312 -0.342647 -0.356540 1.066089 -1.397577 -1.273433 -0.392196 0.249327 1.946140 0.075411 0.410506 0.853785 -0.129974 0.915219 0.347598
What|WP 0.751431 0.416856 -0.361458 -1.416649 -0.128619 0.211222 -1.429402 0.992699 0.025840 0.685884 0.908253 1.155075 0.305407 0.502208 0.913066 0.466422 0.095894 0.864654 0.381220 -0.274381 -0.557225 -0.265042 1.524134 1.201645 -1.715106 0.519645 -0.701172 1.957418 -0.032451 -0.357788 0.069324 1.148574 0.073996 0.415678 -0.434218 0.937238 -3.055219 0.882997 -1.569113 -1.278723 0.805994 -0.268951 0.662733 -0.925098 -1.526438 1.135386 -0.666700 2.724577 0.763012 -0.272274 -0.618675 0.925548 0.704540 2.371939 0.328448 0.702531 0.017213 0.135728 0.163970 -0.907062 0.370828 1.193092 -0.742634 -0.845494 -0.467858 0.344189 0.636543 -0.831787 -0.595211 0.070141 -1.384047 2.144495 -0.859063 -0.037242 -0.626833 -1.820646 1.167879 -0.577603 -1.805651 0.870162 -1.077089 -0.329300 0.965956 -0.237368 0.231094 0.035478 0.650543 0.168273 -0.816247 0.007519 2.000813 -1.083331 -0.184258 -0.203469 2.275439 1.164219 0.542195 0.286856 0.590619 0.427503
good|JJ -0.504971 0.356288 -0.581571 0.391037 0.171277 -0.626634 0.142112 0.132251 -0.878121 -0.159413 0.759065 -0.559552 -0.202734 1.060963 0.338662 -1.799151 1.500823 1.036011 1.347031 -0.287613 0.095742 -0.044057 0.902563 -0.951691 0.134735 -0.526379 1.052072 0.022356 1.058553 -0.301329 -0.341726 -1.017821 0.262127 -1.202778 -0.224404 -0.215871 -0.440917 0.785659 0.747796 -0.570733 0.268259 0.167119 0.570650 0.774373 0.123248 -2.033951 1.143755 0.481572 1.416305 0.325865 -0.382510 -0.419609 -0.395311 -0.717744 -1.113502 -0.233191 1.628294 0.079897 -0.025327 -0.391389 -1.791758 0.415536 -0.409485 -0.125638 -0.901686 0.909675 0.305237 -0.918832 0.416693 -0.041352 -0.264049 -0.484138 1.159255 0.446009 0.407976 -0.498895 -0.063762 -1.173963 -1.703544 1.844430 1.046217 0.231806 0.512884 0.110124 -1.231467 -1.410190 -0.958445 0.726866 -0.014043 -1.189378 0.042515 -0.728533 1.091588 -0.053270 1.302279 -1.190246 -0.567994 0.547358 0.070708 -1.008469
know|VBP 0.173461 -0.133103 -0.677007 0.431730 0.514146 1.711959 0.879395 -0.357331 0.344244 0.764694 -0.049240 0.288455 0.236522 -0.536944 1.900229 0.854723 0.124111 0.371508 0.282981 0.839590 -0.893186 1.439821 0.722805 0.456396 0.940248 1.607263 -1.911639 -0.058996 -0.115861 0.635702 -1.229062 -0.138384 -0.228643 0.409774 0.859655 -0.663523 0.197249 -0.328582 0.903454 -0.530467 0.187645 -0.782742 -0.131731 -0.291902 -1.265907 -1.322592 -0.718477 0.163623 1.033071 0.735456 -1.432332 0.193571 0.234986 0.440322 0.268903 -0.231776 0.488647 0.265318 0.344921 1.285022 -0.772488 -0.434834 0.241087 0.170872 0.430666 -0.778211 0.443468 -0.529205 0.580632 0.373821 0.015916 -0.161680 0.207457 -0.350161 0.495067 -1.612333 1.331318 1.088444 -0.540573 -0.103285 -1.689610 0.482902 0.717652 1.094856 -0.208023 -0.068659 -1.267867 0.105734 1.094524 0.013804 -0.107554 0.296872 -0.371773 -0.634878 0.987398 -0.725624 -1.023476 -0.657823 1.029251 2.639694
go|VB 0.733871 0.123450 2.496150 -1.415916 -0.728401 0.541065 0.215378 0.361059 -1.031865 0.415470 -0.654338 -0.145343 0.544206 0.093242 -0.215270 0.894323 0.671683 0.835098 -1.146964 0.827173 0.620359 1.132103 -0.245811 0.110449 -1.130607 1.975380 1.507607 1.045867 0.443491 -0.840929 -0.469106 -1.207208 -0.319795 0.082551 0.957419 -0.184628 -0.611550 -0.183529 -0.651062 -2.024566 0.912539 0.531840 -1.016434 -0.413065 -1.323610 0.275020 -1.197726 -0.363640 -1.146413 0.008396 -0.424002 0.468530 -0.454699 -1.145871 0.573700 1.978801 0.513799 -0.282803 0.838662 -1.527887 -0.291230 0.995489 -0.209868 0.036449 0.314954 -1.520470 -0.494276 -0.140174 1.432118 -0.433018 -0.294031 1.143468 0.416851 -0.610512 0.161617 -1.027519 1.829283 0.226837 0.653493 -1.570278 -0.180860 -0.686134 -0.837122 -0.784170 -0.470036 0.181601 1.567622 1.101623 0.308264 -1.863755 -1.552766 -0.293119 -0.270967 -2.290911 -0.181017 0.969325 1.267814 -2.159608 1.967924 -1.671187
have|VB 1.122721 0.217213 0.683771 1.929670 0.693988 -1.134426 0.010194 -0.015422 -1.540609 0.058312 0.750773 1.615156 -0.136752 -0.514638 -0.643583 -0.548222 0.346913 0.881192 0.193962 -1.442740 -0.601846 -0.740820 -0.211662 1.048335 0.065783 2.365273 -0.290461 0.228202 -2.038042 -0.357199 0.768681 -1.990973 0.417339 0.937447 0.755446 1.329615 -0.940234 0.258966 -0.626141 -0.545874 0.438923 1.010576 0.675138 0.188666 -0.352462 1.435764 -0.749870 -0.763875 -1.752623 -0.211359 -1.372909 0.245048 0.918603 -1.107081 1.193808 0.114728 1.237553 0.284540 1.629262 -0.404639 -2.747974 -1.917094 -1.081476 0.568986 -1.280895 -0.590586 1.111496 -0.211952 1.370071 -0.893484 -0.827966 -0.547375 1.006483 1.293274 0.887588 0.362347 0.943469 0.361952 -0.472654 -2.139884 -0.011290 -1.126658 0.266425 -0.465569 -0.014961 0.104529 1.684014 1.653792 -1.461112 -0.504248 0.079509 -1.110416 1.127143 0.278365 0.434119 0.619855 -0.556702 0.707933 0.174534 -0.252861
want|VBP 1.366670 0.250967 0.065688 -0.688598 -0.171885 1.278936 0.319332 -2.486314 -0.831255 -0.114390 -0.558113 0.895679 1.277442 1.453177 1.545213 1.223661 -0.498606 1.852141 1.805232 -0.033744 -1.398488 0.755354 0.511253 -0.616124 2.518802 0.464409 -1.204065 0.266107 0.272658 0.722850 0.324761 1.998286 0.195425 -0.401634 -0.515344 -0.757862 0.148707 0.519974 0.834540 0.109430 -1.055322 1.284775 0.706220 -0.497314 0.808933 -0.485746 -1.380456 0.136106 0.154891 -1.099436 -1.335902 -0.599494 -2.258281 0.474823 -0.503993 0.924918 -0.945826 0.347441 1.228620 0.574418 -0.403336 -0.667059 0.824969 -0.496177 0.620854 -0.347907 0.319599 -0.304260 0.757379 2.332578 0.141778 -0.908399 -0.501067 -0.710579 0.784798 -1.723985 0.905593 0.071216 -0.015234 -0.199152 -1.574574 -0.747013 2.631800 1.629714 -1.430417 0.709318 -0.857212 -0.404419 1.282932 1.466558 0.494750 -0.103609 2.306506 -1.042190 -0.297152 -0.064838 1.291352 -0.370055 1.161351 1.813518
will|MD 0.892791 1.158661 -1.448680 -0.221791 0.513876 0.879746 0.148651 -1.545377 -1.347529 -0.148696 -1.424370 1.082630 -0.256292 -0.016269 0.542711 0.563254 -1.112933 0.629423 1.530023 0.662152 -1.458647 -1.182751 -1.345730 -0.324243 2.722674 -1.146569 0.096215 0.949214 0.534538 1.613611 -0.739950 3.275350 0.364378 -0.904029 -0.646585 -1.020778 0.334015 0.698699 0.971477 0.709184 -0.699652 0.011561 0.843749 0.680274 0.467163 -0.374371 0.789744 -0.294991 -0.209956 -0.576232 0.816219 0.295088 -1.517149 -1.339869 -0.208412 -0.576484 -0.746746 -0.096441 -0.599859 -0.068249 0.708579 -1.001016 1.072063 1.166845 2.011504 0.640983 -1.189737 0.366080 -0.525595 1.970150 0.517818 -0.384459 -0.864561 -0.721306 0.741886 0.111032 -0.948423 -0.926568 -0.644865 0.653478 -0.753425 0.983608 1.052584 0.623261 -0.971778 -0.094166 -1.403901 -1.170853 -0.252287 1.894866 0.261958 1.669360 0.831003 -0.124626 -1.044128 0.362829 0.213548 0.699064 -0.458790 1.607168
would|MD 0.349780 1.431956 -0.717430 -0.166576 -0.040516 -0.280406 0.158249 -1.989151 -0.900081 -0.377843 -2.535703 0.501891 -0.974264 0.925987 0.356481 -0.343050 -2.650698 -0.610838 0.859026 0.182122 -0.523508 -1.515261 -2.010572 -0.941094 1.943749 -1.054414 -0.451772 0.481828 -0.396174 1.166418 -0.635877 2.272516 -0.500102 0.733617 -0.758493 -0.783084 -0.465116 2.202234 -0.372261 1.279113 -0.711400 0.238729 0.888277 0.448746 1.788887 0.892107 0.860442 -1.057968 1.307122 -0.287075 0.509415 0.140080 -1.517558 -1.428282 -0.308844 0.365227 -0.252992 0.469817 1.242593 -1.081290 0.489593 -0.805819 0.563810 0.761273 1.491802 0.183322 -1.198263 0.000778 -0.242728 1.697865 -0.260387 1.166606 -0.830553 -0.396399 1.313191 0.283067 -0.042985 -0.856386 -1.932975 0.624911 -0.473768 1.539273 -0.046969 0.820025 -0.065288 -0.560155 -1.214186 -1.200332 -1.048656 1.632807 -0.650862 1.030138 1.196645 0.753514 -0.498650 0.195531 -0.221428 0.869980 -0.535260 0.914511
and|CC 1.875012 -0.258821 0.122681 0.199628 -0.890355 0.402899 0.070749 -0.402151 -0.576508 0.484584 0.585086 0.070771 0.561787 0.900305 0.946568 1.079175 0.124016 0.053593 0.845135 -0.242533 -0.103362 0.038407 0.586442 0.722548 -0.168773 -0.361941 -0.199500 0.336042 1.008238 0.622042 0.350861 1.016195 0.141600 0.147543 0.494215 -1.191236 -0.212685 -0.933112 0.769782 0.492729 -0.708058 -0.287954 0.441652 -0.454776 -0.930040 -1.678641 -1.053308 0.158974 -0.666269 0.546987 0.585614 -0.760791 0.287172 0.076654 0.280900 0.328648 -0.033674 -0.160723 -0.420473 0.717315 1.115733 0.444406 -0.666086 0.480039 0.027363 1.116217 -1.070112 -0.187985 0.708604 1.676462 0.200050 1.194757 0.360010 0.667914 0.965143 -0.205311 1.011978 -1.085760 -0.082228 -0.771867 -0.032459 -0.299966 0.720577 0.511897 -0.379230 0.461111 -0.849080 -0.813675 -0.666640 -0.474301 0.187612 0.606796 -0.848158 -0.791563 0.004152 0.706800 -0.688632 0.361230 -0.189846 -0.834425
get|VB 0.450548 -0.689533 2.046884 -1.107238 -0.796670 0.644132 -0.649087 -0.818658 -0.190281 0.309132 -1.193878 1.352819 0.449535 -0.825938 1.359376 0.484761 0.463169 1.347244 -0.558507 1.268273 -0.314341 1.171322 0.157579 0.819611 -0.448019 1.806507 0.858328 -0.207231 -0.652483 0.611444 0.466451 -1.291838 -0.362567 0.703640 0.929675 0.279302 0.355090 0.320027 1.088352 -1.859622 0.409642 0.343482 -0.038235 -0.242907 -1.395507 0.637721 -1.602713 -0.905735 -1.330021 0.883831 -0.536726 0.500027 -0.570698 -0.438362 1.064605 0.895221 1.177071 -0.507468 1.231286 -0.412053 -0.830792 0.564435 -1.086157 -0.054249 -1.478038 -2.136803 0.526394 -1.288537 0.952846 -0.551997 -0.362574 0.321941 0.680229 0.379463 1.147600 -0.832307 1.837200 0.978183 1.294554 -0.742796 0.120743 -0.226930 -0.490406 -0.172113 -0.280326 0.532801 1.760877 1.358547 -0.486248 -2.516999 -1.064782 0.499380 -0.328458 -2.499900 0.133106 0.184935 0.706558 -1.421992 1.449789 -1.308062
there|RB -0.410885 0.786723 -0.577131 0.231176 -1.061097 -0.216261 -0.846148 -0.546183 -0.419638 -0.809897 -0.184764 -0.006291 0.205479 1.465967 0.674179 -0.236699 -0.240507 -0.024694 2.204372 -0.174641 0.014741 -0.632429 0.289795 0.842236 -1.203412 0.475590 -0.218349 0.330778 -0.253269 0.483776 0.745099 0.180600 0.344143 -0.048666 0.247120 0.250412 0.244534 0.035021 0.201507 0.443329 0.300374 -0.347392 0.658941 -1.192143 -0.954860 -1.516483 -0.536407 -1.746252 -0.857292 1.214088 -0.416729 -0.592124 0.498853 -0.015771 -0.576338 -0.048691 -0.012758 -0.033243 1.306895 -0.590191 0.712953 0.305586 -1.041532 -1.709020 -0.971731 0.547083 0.131621 0.864323 -0.184833 1.413302 0.511087 0.718144 0.656147 0.231076 1.004740 -0.133587 -0.624281 -1.085055 0.812398 1.030121 0.326645 0.902311 0.156083 0.097342 0.056098 -1.178266 -0.210738 -0.103372 -0.435937 -0.886121 -0.123010 -0.652490 0.253438 -1.158871 -0.297969 0.131874 1.358013 0.191690 -0.558729 -0.134880
them|PRP -0.427321 0.905484 1.147119 -1.070710 -0.098930 0.867627 1.043307 0.389132 -1.133295 -1.108615 0.579671 0.581273 -0.970101 1.292397 -0.905378 -0.071625 -0.515715 0.756552 -0.151984 1.152217 0.868248 -1.431072 -0.844439 0.427234 -1.417127 -0.331455 -1.188444 0.577216 -0.571568 0.677462 -0.245684 0.757307 -0.679994 0.308369 -0.525448 0.220008 -0.687338 -0.570379 0.424886 -0.510061 -0.481007 1.651634 1.076881 -0.770232 0.439390 0.372930 1.127170 -0.345058 -0.255269 -1.109282 -0.342583 -0.596839 -0.064667 1.060431 -0.060059 0.514452 -0.270591 -0.541811 0.024520 -0.553367 1.437573 1.879497 -0.583570 -2.203894 -0.089091 0.417698 -0.451233 1.415265 0.013386 -0.446935 -1.555375 0.258804 -0.153268 -0.389188 0.029667 -0.310833 0.147158 0.824433 0.102109 1.212664 -0.430563 0.297605 1.376200 -0.422895 -1.247842 0.010584 0.195066 0.122821 -0.489851 -0.940102 -0.215308 0.204844 -0.922006 -0.604907 0.334097 0.549693 0.167974 -0.888891 -0.090658 -0.824814
like|IN 0.214304 -0.486228 -0.033288 0.368465 -0.537607 0.211811 -0.750392 -0.744825 -0.138342 -0.798364 -0.083943 0.103871 -0.316696 -1.234100 0.382514 0.445959 0.566300 0.795139 0.887793 -0.777142 -0.780277 1.077188 0.399305 -0.708633 0.048214 0.422027 -0.802306 -2.088873 0.274359 -0.456928 0.976012 0.301257 -0.470942 -0.446309 0.422926 0.061270 0.616595 0.957232 -0.707778 1.775538 0.285588 -1.091131 -0.168215 0.936968 -0.394005 -0.596566 -0.329643 0.544394 0.807908 1.271145 -1.029067 0.201016 -0.095819 -0.537164 0.366868 0.339297 0.993317 0.660017 0.228863 -0.076558 -1.598856 -1.035052 -1.252965 1.617606 -1.363459 0.578826 0.899918 -0.365138 0.071731 -0.353901 0.320699 0.320588 1.010273 0.331424 -0.837997 0.147484 0.777496 -0.648767 -0.374472 0.142740 0.456385 0.325726 0.982683 -0.055466 0.072275 0.457225 -0.518865 0.422009 -0.491102 -1.607889 -0.089620 -0.790542 1.412272 -0.334602 -0.000805 -0.943690 -0.725982 0.150284 -0.484733 1.517465
one|CD -0.386051 0.253080 0.437766 -0.541509 0.150864 -0.412350 0.325776 1.024825 -0.807454 -0.278254 -0.419974 -0.093787 0.399242 -0.613083 0.408208 1.066265 -0.432387 0.385153 0.409547 0.987058 0.181507 0.441116 0.563667 -0.041372 -0.837450 0.587203 -0.610874 -0.242510 -0.530748 1.059735 -0.571448 -0.240422 -0.552856 -1.235561 -0.830485 0.849471 -0.816280 -0.175884 -0.829938 0.634841 -1.494253 -0.582885 0.811040 0.458382 -0.455076 -0.528274 1.768897 0.455118 0.236495 -0.253634 1.374116 -0.462944 -0.067304 0.910388 -0.151682 0.103095 0.106881 0.562162 0.265373 -0.594193 1.384577 0.317623 0.335711 -0.660546 -0.131919 0.625263 -0.062966 0.064919 -0.270207 0.140807 -0.199779 -0.945648 -0.059305 0.297780 -0.340151 0.250021 -0.514149 -0.057123 -0.607159 -0.684498 0.533063 0.998192 -0.014581 -1.488056 -0.688750 0.569229 0.628783 -0.187178 -0.037516 0.293679 -0.153705 -0.945549 -1.307115 -0.147202 0.396029 0.012784 -0.047783 -0.388404 -0.304795 -0.422416
me|PRP 0.309013 0.117392 0.730577 -0.900367 0.012082 0.640301 -0.334210 1.039116 -1.066846 -1.567354 0.480258 -0.254681 -0.867509 1.075659 -0.569803 -0.840958 0.285308 0.221074 0.933391 0.023890 1.706121 -1.576524 -0.278020 -0.511138 -1.745579 0.012176 -1.214929 0.191933 0.675484 -0.661927 0.996236 0.453116 -0.199247 0.276298 -0.221853 0.271435 -0.730435 0.718566 -0.250992 -0.536625 0.120651 0.522070 0.203694 -0.443132 0.104327 0.259774 0.980628 0.327599 0.224389 -0.143022 -0.754846 -0.190151 -0.150700 0.352063 -0.668560 1.237935 -0.687724 -0.069783 0.121594 -0.373515 0.807177 1.149137 -0.732123 -1.800209 0.499651 0.033134 -1.186295 0.328385 -0.482025 0.307739 -0.886697 0.517861 0.101666 -0.054284 -0.213485 -1.076093 0.019884 -0.097415 0.103433 0.971427 0.412915 0.058170 1.970439 0.174927 -0.307542 -1.052307 -0.235393 -0.230124 -0.288783 -0.626531 -0.957484 0.033519 0.145035 0.504615 0.019064 0.452565 0.372546 -0.059410 0.178784 -0.287202
about|IN -0.555178 -1.687263 -0.568451 -0.216972 0.779490 0.562980 -1.967448 -1.025145 0.864198 0.545207 -1.164461 1.121310 0.182273 -0.960570 -0.561128 0.284942 0.949113 0.174674 -0.593991 -1.055786 0.418550 0.513134 0.854888 -0.456316 0.932319 0.395893 -0.351402 -0.721715 0.137586 -0.147302 0.083481 -0.044107 0.104552 0.185641 0.161978 -0.623272 -0.490997 0.540485 -0.331218 0.884328 0.588981 0.211121 -0.345891 1.366691 1.281473 -0.905540 -0.479042 0.840145 0.031315 1.181345 -0.470689 -1.103533 -1.059748 1.089018 0.325883 -0.064335 0.110267 0.364048 -0.855833 -0.365671 -1.350836 -0.643062 0.212330 1.368031 -1.342324 -0.128274 1.346920 0.065381 -0.760484 -0.278556 0.978389 0.317758 -0.079011 -0.100964 -0.511026 0.485156 0.010519 -0.095850 0.631135 1.111813 -1.098202 1.125436 0.757015 1.596757 0.454837 1.373483 -1.376199 0.237352 -0.424313 -0.812738 0.596590 -0.638805 0.727693 1.394540 0.816321 -1.552419 0.066827 0.705569 -0.243778 0.922535
people|NNS 0.607142 0.281642 0.221417 0.566131 -1.094459 1.374625 -0.040609 -0.560093 1.433409 -1.202042 0.576714 0.716490 -2.361875 1.467938 -0.506745 1.170439 -0.172217 -1.071911 -0.465417 1.009496 0.630839 -1.191805 0.152619 -0.250455 -0.228891 0.157696 -0.062664 -0.404289 0.512747 1.071607 -0.312611 -0.388904 -0.115912 0.756516 0.003985 -0.555691 0.192065 -1.749041 1.840132 -0.853210 -0.586055 0.730165 -0.659042 -0.506706 0.273717 0.654065 -0.833925 0.345486 0.630886 -1.345205 -0.052499 -0.174398 1.610712 1.095202 -0.500282 -0.314713 0.727627 0.130721 0.349456 0.222084 1.298139 1.124994 -2.181292 0.306048 -0.502739 0.930622 -0.017029 0.578057 -0.238596 -0.443583 -1.035331 0.529320 -1.910470 -1.520803 -0.345563 1.262990 -0.315657 0.430782 0.582662 0.580689 -0.716756 0.037416 1.373462 -1.113293 -0.064545 1.532085 -0.930885 -0.157244 -0.080282 -1.576294 0.023346 1.343153 -0.184707 0.533313 -0.066576 -1.088266 0.936373 -0.753314 -1.540395 -0.764360
here|RB 0.255832 0.654487 -0.661643 0.247397 -0.644708 -0.121220 0.544997 -0.383776 -0.353051 0.065499 0.371886 -0.123941 -0.589833 0.780257 0.267257 -0.747673 -0.028291 0.210682 1.288052 -0.241488 -0.532088 -0.309410 0.395428 0.599026 -1.000508 0.024504 -0.637033 0.430848 0.334755 0.861254 -0.137489 0.074262 0.530774 -0.315732 0.068302 -0.243433 0.117997 -0.067281 0.067158 0.642573 0.621550 0.058961 -0.061877 -0.448595 -0.429835 -1.529838 -0.266801 -1.299344 -0.100464 0.686285 0.071977 -0.284925 0.408115 -0.017801 -0.855515 -0.285368 0.033051 0.293637 1.127311 0.016409 0.393119 0.466811 -0.484774 -1.008364 0.174909 0.451730 0.468980 0.694151 0.373289 0.097417 0.055979 0.694693 -0.050249 0.741473 0.795426 -0.044682 0.151149 -0.707028 0.187449 0.507610 0.254344 0.249305 0.581593 -0.111212 -0.280835 -1.366712 -0.343516 0.026843 0.353054 -0.763824 -0.048225 -0.195044 0.467509 -1.191672 0.221450 0.542488 0.261549 0.584899 -0.234776 0.081165
This|DT 0.402814 -1.343037 -0.057619 0.894051 1.214573 0.311754 -0.701973 0.098527 -1.790825 1.355774 0.541370 1.666969 2.454515 1.258984 1.217187 -1.000796 0.382117 -0.426519 0.927944 -1.180995 0.521436 1.034611 0.200017 -0.834709 -0.209275 -0.243494 -1.243399 1.107093 0.289720 0.782629 -0.534132 -1.598166 0.393162 -0.739676 0.965006 -1.309927 -1.695614 -2.346885 -0.147324 -0.019306 -0.199635 -0.984855 1.860502 1.157059 -0.121632 -2.088720 -0.643627 1.031048 -0.484529 -0.534799 -0.580365 0.130793 -1.093107 -0.173956 -0.204109 -0.314026 0.518014 -0.003172 -0.153465 -0.553536 -0.550756 2.646357 -0.338411 -1.420550 0.944736 -0.936847 1.082505 -0.218615 -0.972785 1.101392 0.722290 0.620321 0.183257 0.156016 -1.580283 1.064321 -0.366546 -1.312142 -2.110630 -0.428615 -1.243878 -0.952284 0.064016 -0.490915 -1.076775 -0.380078 0.065700 0.736455 0.238437 -0.325500 1.123315 -0.213962 -1.502843 -0.653432 2.021337 1.326747 -0.300149 -1.052065 0.391145 -0.167399
now|RB 0.311790 -0.133610 -0.016710 -0.241398 0.478212 0.770640 0.049723 -0.032819 -0.256638 1.554030 -0.005298 -0.130051 -0.265888 -0.496341 -0.968224 -0.375396 0.237789 -0.974004 1.328305 0.227057 0.220306 0.460743 0.138887 1.054369 -0.132125 -0.589144 0.431931 0.703040 1.011356 0.456889 0.550666 -0.017594 0.248807 0.333732 -0.604611 0.026047 -0.402605 -0.092822 0.153262 -0.707457 -0.193113 0.149651 0.508981 -0.601221 -0.131934 -0.694162 -1.129275 -0.563811 0.158550 -0.365282 -0.739736 0.376002 0.438764 -0.208326 -0.597312 -0.468412 -0.163424 0.613412 -0.219151 0.786661 -0.036644 1.040634 0.243963 -0.095682 -0.178227 0.139185 0.099129 -0.482887 0.110523 -0.327840 0.238120 0.760026 0.277184 1.062954 -0.138423 0.443310 0.514949 0.080609 0.599548 0.820963 -0.915070 0.199485 -0.003545 0.667397 0.497999 -1.856349 0.522159 0.675072 0.928561 0.128659 0.725828 0.406611 0.213466 -0.842274 0.459795 0.192827 0.037902 -0.421053 0.940540 -0.728999
could|MD -0.743397 2.446475 -0.687903 0.061072 -0.346866 -0.719599 0.389701 -1.778952 -0.834378 -0.125229 -2.134910 0.444600 0.058665 0.218132 0.462095 -0.297634 -1.947925 0.233345 1.348305 0.301067 -0.313849 -1.288322 -1.789128 -0.811369 2.425364 -1.348241 -0.805384 0.172706 -0.151568 0.951981 -0.417318 2.637852 -0.834963 0.501800 -0.370677 -0.164836 -0.652217 1.901429 -0.188994 1.388329 -1.342962 -0.148521 1.980649 0.261423 1.226843 0.490099 1.005656 -1.200364 0.905933 -0.154527 0.462296 -0.229180 -1.172748 -1.263620 0.114428 0.321483 -0.227694 0.179320 1.094393 -0.717969 0.210953 -1.759357 1.042311 0.533526 0.924442 0.376928 -1.159898 0.273870 0.284462 1.998821 0.595194 -0.393033 -0.221832 -0.392005 1.250938 -0.196640 0.264605 0.286223 -2.254029 0.754427 -0.334745 1.554629 -0.210073 1.013980 -0.381914 0.439712 -0.803579 -0.868127 -1.378599 1.481065 -0.153284 1.161166 0.357696 0.244093 -0.217478 -0.004640 -0.538320 0.265261 -0.420001 0.877499
that|IN -0.908612 0.063238 -0.266042 -0.349755 0.602090 0.626348 -0.642404 0.342295 -1.034773 -0.407820 -0.114626 0.820875 0.988841 0.309461 -0.170628 -0.832841 -0.217591 0.026206 -0.629948 -0.246934 0.318035 -0.310410 -0.053610 0.703780 -0.520713 0.008560 -0.898296 0.474269 -1.043914 -0.132822 -0.087392 0.715357 0.262191 0.364411 0.438902 0.490227 -0.616059 0.140903 -0.728390 0.335666 -0.065105 -0.719207 -0.485461 -0.356978 0.130439 -0.876732 0.470710 0.977665 -0.156946 0.908033 -0.259414 -0.168317 0.848928 0.253476 -0.164479 -0.541073 -0.382787 -0.539140 -0.180991 -1.397406 0.503091 0.177793 -0.554574 -0.522150 -0.500826 0.711671 0.508348 0.145506 -0.453002 -0.459158 0.355420 0.622294 0.580034 -0.000023 0.203012 0.985390 0.084866 0.287783 0.463585 1.333905 -1.131482 1.000426 0.061768 1.088781 0.547481 0.552722 -0.128765 0.769308 0.211290 0.043285 0.083078 0.069222 -0.389857 0.324402 1.159306 0.206695 0.061816 -0.381154 -0.452250 -0.240110
think|VBP 0.024350 0.548673 -0.825592 -0.535765 1.348496 0.111365 0.680443 0.202468 0.549517 0.700773 0.382234 0.175797 0.423446 0.026064 1.412499 0.803610 -0.021628 0.371691 0.685754 0.386175 -0.753787 1.534557 0.059992 -0.691212 0.668676 2.218344 -2.033655 1.023474 -0.468819 0.320386 -1.269143 0.187536 -0.513839 0.451031 0.415112 -0.163534 -0.527079 -0.554880 0.136373 -2.132506 0.547703 -0.141846 0.854587 -0.694305 -1.460336 -0.926469 -0.340861 1.058946 1.430726 -0.295001 -1.898605 -0.443689 -0.131234 1.129966 -0.212950 -1.141684 0.231445 0.303428 -0.129682 1.302100 -0.900434 0.022141 0.004148 0.030802 0.644049 -0.323570 0.303875 -0.851949 0.730417 0.249507 -0.218639 -0.525577 0.144727 0.955297 0.396169 -0.618785 1.272131 0.784346 -0.180504 -0.136730 -1.399273 -0.875671 1.182624 -0.288965 -0.341981 -1.134974 0.153031 0.841914 -0.022381 0.340458 1.020015 -0.217242 -0.762180 -1.392685 0.660328 -0.850872 -1.532629 0.191325 0.112624 1.030725
on|IN -0.772516 0.052356 -0.453653 0.376895 -1.721943 0.074130 -0.818118 -0.110508 -0.025697 0.377621 0.456095 -0.301010 1.017414 -0.150379 0.083384 1.182914 1.094462 -0.327654 0.514377 -0.606968 -0.873669 0.373240 1.173801 1.169021 -0.319600 -0.253021 0.415448 0.006614 0.720969 -0.132720 0.731131 0.375704 1.364821 0.395822 1.647923 -1.468679 0.341201 -0.329475 0.525783 0.157166 0.838588 0.806863 0.498076 -1.038848 -1.219619 -0.530827 -0.619043 0.230281 -1.235841 0.394481 1.070829 -0.208885 0.685726 0.306919 1.355223 -0.195625 0.517027 1.033834 -0.181082 1.200539 -0.005836 -0.860516 -0.550363 -0.444585 0.999918 -1.134185 -0.779243 0.515571 -0.009104 0.992446 0.376047 0.342038 0.311296 -0.362140 0.418345 0.406763 -0.356399 -0.600077 1.044096 -0.473594 0.017740 -0.426280 0.394688 -0.472434 -0.500950 -1.498560 -1.337336 -0.796767 -0.776801 -0.100707 0.433584 -1.334992 -0.868165 0.261414 0.102377 -0.649121 0.282474 0.744885 -0.445701 -1.758415
does|VBZ -0.570238 0.390608 -0.172197 -0.248448 -0.180944 -0.437200 -1.117599 -0.336770 -0.237355 -1.110023 -1.386636 -0.077419 0.412786 -0.038983 -1.322451 -0.299166 -0.047350 -0.519103 -1.513781 1.104509 0.492531 -1.691614 -2.038313 -0.587184 1.090073 -2.183690 0.875841 -1.798268 1.035859 -0.297288 -0.440298 0.928868 -1.575372 0.442365 0.405569 -2.641599 0.571332 1.250408 -1.035604 0.846123 -0.673907 -1.733243 -0.693188 1.607349 2.652990 -0.405487 1.092024 -2.347474 0.275345 -1.517302 0.390779 0.900902 0.445837 -1.446227 0.664720 2.390552 0.003788 0.052720 -0.568301 -0.292578 -0.175946 -0.856089 1.417145 2.245162 1.766291 -0.057922 0.279653 -0.650667 -0.313331 0.021638 0.260451 0.367062 -1.014228 -1.009755 2.042649 -0.031777 -0.354553 -0.847203 0.342786 1.084169 -0.681705 1.342538 1.255698 1.825116 -0.413276 -0.949044 -0.945715 -0.597798 -1.711063 1.051893 -0.405483 1.078149 0.422339 0.076120 -0.718193 -0.449914 1.263946 0.017563 -0.471817 -0.071464
had|VBD 1.449975 0.952844 0.062860 0.815613 -0.339430 -0.880190 1.267444 -1.611225 -1.820156 -1.912072 0.154680 -0.018423 0.788087 -0.306113 0.215967 0.755690 -1.333521 0.153579 0.502864 -1.249454 -0.347522 -1.318134 0.017417 0.585625 2.182831 -0.378257 0.272588 0.329435 -0.931355 0.128739 0.902282 -0.006461 0.135641 -0.144120 -1.149232 -0.325864 0.239327 1.190808 -0.143354 -0.774426 -0.821296 0.678759 0.865512 -0.075575 1.141871 -0.363758 0.607049 -1.239813 -0.425185 -1.745261 -0.273011 -0.909016 -1.232743 -0.813382 1.846152 -0.329225 0.136337 -0.733055 1.701756 0.211547 -1.500664 -1.840029 1.393116 0.438176 0.020414 -0.909402 -0.797007 0.789717 0.975375 0.503203 0.295509 -0.355616 0.951754 0.057728 0.364494 -0.379708 -0.140670 -0.457265 -0.685415 -0.930753 -0.230385 0.502782 0.653636 0.785391 -0.355736 -0.158071 -1.009345 -0.365176 -1.647523 2.296242 -0.483577 -0.589674 0.393296 -0.872277 0.069996 0.103305 -0.696184 0.754032 0.802243 1.154855
want|VB 1.535490 0.787883 1.312550 1.161132 -0.147826 -0.229389 -0.185031 -0.960767 -0.611607 0.325973 -0.301272 2.029464 -0.050303 -0.421059 0.870889 -0.261669 -1.205181 0.797585 1.574928 0.343989 -2.320458 0.489358 -0.760509 -0.056548 0.323518 0.958500 0.161002 -0.432525 -1.422797 -1.240722 1.915070 0.445776 -0.778798 0.351722 0.111457 -0.147859 0.616693 1.802550 -0.708147 1.675999 0.227365 0.033974 0.735346 0.681847 1.127424 2.301210 -0.994384 -0.494004 -1.070051 -0.742179 -2.079653 1.524928 -0.157310 -1.231580 0.263061 2.039909 -0.391107 0.402191 1.744342 -0.498123 -1.757972 -1.517055 -2.169203 0.791708 -1.070943 0.471252 0.364820 -0.719800 1.185614 0.381931 -1.852917 -0.179620 0.775834 -0.667646 -0.140625 -0.602537 1.237637 0.134586 -1.210541 -0.805681 -1.119585 -0.833228 1.928958 0.845585 -0.982628 0.408505 2.108879 0.283541 -0.734536 -0.292692 0.878046 -0.799340 1.850204 -1.340744 -0.364323 0.584070 1.431524 -0.008061 0.434907 0.589751
think|VB 0.183852 0.538297 0.499117 0.247078 2.036459 -0.145417 -0.141682 1.785571 0.311027 1.609989 0.362192 0.637590 -0.933259 -1.201679 0.499260 -0.336776 -0.328837 -0.128148 0.136699 0.711997 -1.414617 1.398586 -1.472137 -0.488395 -0.855244 2.750082 -1.227180 0.076498 -0.886939 -0.800497 -0.543702 -1.661301 -0.907830 0.473154 1.553777 0.150467 -0.747406 -0.307245 -1.490195 -0.591469 1.301356 0.140655 0.448472 0.531123 0.039654 1.008771 -0.230178 0.564070 0.864159 -0.148772 -2.531712 0.769211 0.466681 0.507669 0.603703 0.565995 0.150993 0.872120 0.124291 0.727883 -1.506647 0.300974 -1.580904 0.359953 -0.423875 -0.591515 1.382244 -0.743394 0.372777 -1.089032 -2.113609 0.062511 1.209839 -0.029785 -0.189283 -0.447101 1.646441 1.319931 -0.638264 -0.865307 -2.021809 -0.841083 1.299691 -0.478023 0.136839 -1.879416 1.512722 1.017693 -1.704348 -1.315792 1.034724 -0.299138 -1.770608 -1.731581 0.646801 -0.007566 -1.079224 0.383371 0.076294 -0.445891
money|NN 0.603990 2.088143 0.290655 -0.955116 -0.294204 0.549480 -1.560180 1.181421 0.247153 -0.125962 0.599317 1.667483 -0.391730 -0.257455 1.012760 1.430833 -0.464824 -1.184251 0.425054 0.375039 -0.736011 -2.270240 -2.028560 -0.594036 0.160300 0.142446 0.561241 -0.005709 1.303935 0.027557 0.292358 -0.298237 -0.268960 -1.534310 1.344255 0.380155 -1.892804 -1.738607 1.035745 -0.988582 -1.477287 0.743307 -0.263534 -1.683549 0.829004 -1.192029 -0.074917 -0.083402 -0.633808 -0.427183 -0.319983 0.676846 0.587782 0.996372 0.770641 0.156022 0.421762 0.159442 0.515621 -0.325825 -0.008555 1.628885 -0.223105 -1.463789 0.085873 0.489764 -0.666862 -0.104446 0.113845 0.325974 0.868856 -0.986526 0.825940 -1.168535 -0.252356 0.590912 0.653315 0.588506 -1.118055 1.013888 -1.058022 -0.442972 1.911655 -0.106660 -0.991505 -0.566207 -0.018068 -1.307618 -0.820988 -1.080510 -0.453461 1.131943 -1.246264 1.051373 0.587865 0.046850 1.196139 -0.640839 -0.641168 -0.546261
There|EX 0.573545 1.379312 0.110437 -0.757887 -0.593809 1.445115 -0.393666 -0.674541 -1.753044 -1.573398 1.570100 -0.051760 1.463920 1.840362 0.270696 1.054314 1.884223 -0.924365 0.613636 -1.743737 0.331321 -0.357256 -0.256648 -1.011070 -0.171825 0.269235 -1.185481 1.562455 -0.567110 -0.818582 1.299092 -1.295860 0.199892 -1.620744 0.817805 -1.208761 1.155483 -2.520820 -1.160392 -0.352789 -1.520154 -1.477120 3.201386 0.561417 0.390535 -1.213263 0.177963 -0.816083 0.732407 -0.421954 -1.033260 -1.176000 -0.209212 -0.001821 -1.309459 -0.943343 2.251567 -0.292390 2.157764 -0.145269 -1.945791 3.257189 0.320321 -0.785471 -1.822383 0.717554 1.738195 1.045276 -0.787539 0.798646 1.491096 1.104169 1.681205 1.279491 0.385835 0.426902 0.245411 -1.471712 -0.700540 -1.470384 -1.155357 1.278914 0.563778 -1.804783 -2.116767 -0.789103 -0.172277 1.398578 0.045842 -1.753280 2.739504 -1.900682 -1.099436 -0.374843 1.271571 -0.481170 1.029483 0.988882 -1.531376 -0.374193
no|DT -0.126627 -1.231655 0.333171 0.098186 1.299395 0.696266 0.694726 0.540609 -1.891965 -0.770699 -1.514096 -1.317129 0.192956 0.633131 1.163830 1.147884 0.916234 -0.981373 -0.992138 -0.969155 0.107541 -0.739909 0.613313 0.222847 -0.798586 0.399574 1.595568 0.481679 0.521294 -0.402063 1.343742 0.392322 0.122745 0.222573 -0.231081 -0.016032 0.106672 0.535980 -2.416598 -0.594160 0.534146 -0.875702 -0.544820 -1.675063 0.479246 -1.173507 0.735965 0.106176 -0.123777 0.785295 0.762156 -0.044410 0.502812 0.637668 -1.010839 -2.628269 0.584877 1.114341 0.286029 -0.506942 1.112300 0.846179 0.031819 0.511743 0.113617 -0.379217 -0.548762 -0.797661 0.008303 0.687960 0.277063 1.962285 1.259839 -0.235112 -1.610492 -0.703903 2.030737 0.822893 -1.309486 -1.658059 1.635656 1.406106 -0.848776 -0.675335 -0.823782 0.550929 -0.635160 0.038772 0.798283 0.998609 0.215652 -0.341215 0.606753 0.116865 0.733104 1.977351 0.890054 0.979679 0.863742 -0.251174
been|VBN -0.414694 -1.654802 0.724757 -1.431786 -0.055832 0.748489 0.392630 0.392120 -0.487549 -1.669262 -1.035074 -0.479738 -1.287571 -1.136075 1.188853 0.647299 -2.373530 -0.812583 -2.164053 1.855031 1.803781 1.328244 -0.234663 -1.117034 0.538743 0.392180 1.166304 1.424869 0.486307 -0.237259 -0.336566 -1.350113 0.772091 -2.349050 -1.554930 0.735732 -0.847418 -1.229645 0.108468 -3.284829 0.987926 0.528888 -1.147149 1.395121 -0.408702 -1.001910 0.421252 0.016760 0.865363 -0.100285 0.899867 -0.204569 -0.139689 -0.314020 0.300368 -0.671443 2.112853 -0.442071 -2.132529 0.089429 0.067080 1.312697 0.134952 2.253290 -0.556082 -1.934631 -1.856646 0.993350 1.508374 -1.639359 1.872072 0.953437 -0.232728 0.196891 0.641509 1.155621 2.111493 -0.378130 0.174836 0.504406 0.240652 1.217991 -2.219775 -1.153449 0.780539 -3.051102 0.592270 0.891366 -0.974559 -0.049127 -0.687522 -0.223391 -1.967074 0.421423 0.489288 -0.331878 -0.782575 -2.145384 0.402057 -1.619112
How|WRB 0.292999 0.535502 -0.792868 -1.214878 -1.344063 -0.527215 -1.012525 1.315686 -0.110240 0.221054 0.124228 3.016291 1.634107 2.082490 -0.547469 0.707853 -1.275073 0.831499 0.105151 -1.930018 -2.023485 1.033376 0.528019 1.674409 0.225167 -0.143660 -1.081447 2.987122 -0.695812 -1.681973 -0.366023 2.496154 -0.560528 1.070844 1.114408 0.860037 -1.733151 -0.271977 -1.735526 -1.147728 -0.175023 -0.593003 0.961438 -0.357001 -0.889813 1.069376 -0.596569 2.629607 0.386157 0.211409 -0.906785 1.321781 0.628148 1.678150 1.446108 1.268426 0.395277 -0.761959 0.854428 0.322163 0.387877 -0.157732 -0.022552 0.292847 -0.564984 0.705374 -0.330479 0.300806 -0.571817 -0.959557 0.016005 1.877669 0.804773 1.326529 1.239243 0.086130 0.276911 -0.042563 0.588434 -0.432922 -1.926826 -0.657866 2.320405 0.217129 0.361853 -0.043073 -0.232564 -0.062241 -0.023594 -0.328925 2.586902 -0.948385 -1.203154 0.226884 0.314745 0.146249 0.873965 -0.504683 -1.011183 -0.438315
so|RB -0.273200 0.346065 -0.967393 -1.010275 0.985419 0.475991 0.170095 -0.502165 -0.090021 0.635943 -0.120324 1.226699 1.027576 -0.519725 -1.459529 0.955400 -0.579332 -1.350251 -0.417417 -0.597256 0.480511 -1.090067 0.516025 -0.001277 0.258070 0.114356 -0.056702 1.095240 0.009920 -0.344115 0.001217 -0.101361 0.189635 0.078490 0.050728 1.703506 0.235006 -1.404252 -1.310127 -0.515621 0.682841 -0.617776 0.093474 -0.029646 -0.771065 -0.206410 -0.091256 0.287355 0.665705 0.881013 0.235379 -0.648276 0.693942 -0.243514 0.496956 0.773662 0.664550 -0.479174 0.488344 -1.154631 0.378737 -0.881002 -0.496391 -0.531889 -1.374035 0.688510 0.720215 1.007897 -0.766965 0.128043 -0.073707 -0.299220 1.347643 0.673721 -0.030157 0.327757 0.707668 0.671785 0.629116 -0.550633 -1.080583 1.965396 1.161556 0.344980 0.181103 0.019190 -1.529456 -0.364701 0.730786 -0.217473 -0.005985 -0.232131 -0.336010 0.894263 0.888295 -0.443386 0.866168 0.380493 -0.868985 0.086920
say|VB 1.000216 -0.386560 1.635085 0.012221 0.768714 0.608791 -0.741102 0.973728 -0.350142 0.828446 -1.332028 -0.378341 0.114191 0.293089 0.047891 0.779739 1.232790 -0.190503 -0.499664 0.392613 -0.601370 0.628058 -0.582869 -0.024575 -2.072585 2.915010 -0.554200 0.118224 0.416668 -2.500751 -0.642276 -3.009627 -1.172325 0.365810 1.466710 1.047419 -0.084939 -0.739990 0.255916 -0.791514 -0.420057 -0.429801 -0.544240 0.424361 0.259077 -0.111892 -0.105011 0.383960 1.012402 1.015653 -2.189812 0.631361 0.505171 -0.141593 -0.275474 0.051217 1.492553 -0.092470 1.308073 0.209512 -1.963870 -0.391298 -0.450022 0.087060 -0.903040 -0.834086 1.767025 -1.728887 0.761053 -1.233556 0.158277 1.550904 1.025571 0.077912 0.698378 -0.717568 1.630572 1.169402 1.212051 -0.661394 -1.465505 0.179845 1.034522 1.068483 0.653375 -0.514831 -0.650730 0.149975 -1.174732 -1.202522 -1.082892 -1.237847 -0.561407 -0.307394 0.382307 -1.631283 -0.649097 -0.600451 0.848522 -0.047179
with|IN 0.659355 -0.687928 -0.646578 0.028965 -1.472533 -0.864260 -0.702299 -0.868973 0.382438 0.539568 0.048573 1.682397 0.301987 -0.150400 0.132058 0.745308 1.083589 0.262240 -0.119659 -0.081771 -1.133402 1.676694 0.812011 0.486083 0.511559 0.972310 0.619969 0.612970 -0.132575 0.194911 -0.013263 0.742772 0.525000 0.912993 -0.120135 -1.614377 -0.509765 -0.254709 0.693623 1.111759 0.158335 0.483788 0.419661 0.387463 -0.854125 0.323221 -1.542054 0.299467 -1.025504 0.389651 0.157711 0.659756 -0.832783 0.346102 0.746753 -0.295703 0.475415 1.175558 0.824769 1.053964 -1.101999 -0.508195 -0.652093 0.570214 0.280823 0.455095 0.051501 1.146553 1.131197 1.095371 0.023058 -0.074207 0.220396 0.674402 -0.291252 0.255112 0.366485 -0.936516 0.517369 0.204956 0.301095 -0.153532 -0.162479 1.717544 -1.036691 0.003737 -0.273367 -0.786607 0.110526 0.489198 1.741971 -1.742886 -0.267111 -0.681627 -0.337845 -0.403093 0.018648 0.341935 -1.051233 -0.468917
day|NN 0.341847 -0.545229 0.412670 -0.858367 -1.240740 -1.439249 -1.366858 0.933845 0.132998 -0.384472 0.761340 0.828492 0.630894 -1.468413 0.042537 0.306428 -0.761461 0.903876 0.965824 0.711585 0.071190 0.436432 1.463558 -0.819452 -1.052460 -1.376548 -0.996065 -0.548481 0.908451 0.976451 -0.778759 0.570038 0.036788 -0.741704 -0.004961 -0.433980 -1.225556 -1.434631 0.825567 0.360968 -0.833428 0.664665 0.506085 0.854026 -0.554184 -0.734920 0.807003 0.153281 0.844953 -1.677447 0.468095 -1.223105 -0.603596 1.313684 0.394416 -0.176686 -0.117108 -1.122666 1.010714 -0.266456 0.909243 0.648482 -0.771474 0.047152 -0.704260 0.765615 -2.115237 -0.306708 0.252194 0.185335 -0.819790 -1.299629 0.527612 0.478413 -0.548894 0.596350 -2.099232 -0.440417 -0.262066 -1.074234 -0.170515 0.360025 1.422376 -0.783551 -0.430954 0.647709 0.524348 0.243099 -2.443535 -1.739516 -0.762065 0.095623 0.479944 -0.095142 -0.738796 0.032532 -2.317944 0.116544 1.495084 0.011592
him|PRP 0.288950 0.797224 1.079076 -0.839385 -0.079719 0.529699 0.406317 0.695864 -0.510270 -1.333887 0.197659 -0.213507 -0.545710 1.497871 -0.508826 -0.421444 -0.197236 0.484944 0.255142 0.666139 1.599212 -1.158374 -0.310988 -0.336585 -1.152964 0.311594 -1.501851 0.675941 0.195563 -0.461031 -0.121242 0.997121 -0.716473 0.190808 0.020487 0.134143 -0.498856 0.347841 -0.265016 -0.436585 -0.194541 0.747117 0.404297 -0.964007 0.038110 0.540653 0.588752 0.233179 0.072533 -0.336275 -0.734552 -0.528090 -0.265216 0.381724 -0.760908 0.913552 -1.077054 -0.028382 0.316259 -0.631471 1.296036 1.066587 -0.908149 -1.896972 0.742963 0.237533 -1.445843 1.003041 0.160048 0.732265 -1.407652 0.972566 -0.411794 -0.816339 0.170029 -0.206041 0.265374 -0.130834 0.477497 1.061654 -0.305344 -0.258078 1.113511 -0.268941 -0.275917 -0.454918 -0.023825 -0.220296 -0.719398 -1.172795 -0.436878 0.179915 -0.633579 -0.044030 0.097985 0.895263 0.114011 -0.715596 0.397312 -1.222286
how|WRB -0.305478 0.196405 -0.821795 -0.084534 -0.167061 0.399704 -0.067409 1.134068 1.008291 -0.504182 0.585172 0.783215 -0.291102 0.576376 -1.352511 0.315271 -0.029369 0.637373 0.024187 -1.723385 -1.523046 1.570653 0.930405 1.266602 -0.472361 0.093327 -0.859642 0.933558 -0.682981 -2.198739 0.534312 1.934280 -0.558101 0.924398 0.702813 1.205240 -0.779059 -0.580545 -2.493517 -1.157949 -0.774793 -0.375342 0.148805 -0.496864 0.968398 0.281638 -0.227694 1.796466 0.041774 0.576260 -1.288594 -0.426426 0.921256 0.246003 0.142141 0.586041 -0.884744 -0.234290 0.943136 -0.555038 0.459622 -0.385717 -0.165039 -0.313719 -0.465920 0.514416 0.001312 1.133329 0.298528 -1.154806 -0.667223 -0.313486 0.704964 0.445311 1.530595 0.882578 -1.199671 0.732406 0.794308 -0.334750 -1.627087 -0.042517 2.600049 0.443214 0.371619 -1.103582 0.655110 0.160852 1.176931 -1.179445 2.406845 0.266851 0.188719 0.127574 0.055696 -0.181651 1.745280 -0.844893 -0.460232 -0.406512
my|PRP$ -0.205169 0.168019 0.656997 -1.174921 -0.278054 -0.645714 1.424266 0.765740 -1.326411 0.213141 0.241343 -1.541302 0.881600 -0.516328 0.076246 -1.487058 1.534084 -0.262140 0.114085 -1.770039 0.711660 -0.040273 -0.258525 -0.143316 0.301896 -0.673083 -0.284833 -0.690087 -0.371267 -0.837646 0.744522 -0.025471 0.058570 -0.812073 -1.171532 1.236091 0.403983 0.378940 -2.276373 0.907295 0.751879 1.535009 0.593767 1.180007 0.462138 -0.196791 -0.225780 0.750485 -1.542881 1.028210 0.733352 -1.798924 -1.152822 -0.512311 -0.752600 0.449917 -0.488708 0.143004 -0.157343 1.091154 2.231370 2.101786 0.328883 -1.313717 1.281435 -0.555442 -0.966674 0.189811 -0.372730 -0.480226 -0.298225 0.404968 0.262680 0.506211 -0.234403 -0.784376 0.247101 0.037385 0.349209 1.231432 1.617663 -0.914710 -0.488593 0.376457 -0.295339 1.569430 0.505416 0.358577 0.891993 0.155208 -0.209968 0.356139 -0.192938 -0.675294 1.043238 1.664075 0.874172 1.634059 -1.040361 0.794600
never|RB 1.404928 -0.607243 -1.651966 1.183583 -0.416732 -0.181069 1.086632 0.867220 -0.136962 -0.205187 0.327014 0.240192 -1.635702 0.850381 0.706207 0.334711 0.579524 0.311040 1.801977 -1.732584 -0.064852 -0.299670 0.349345 1.400179 0.489684 1.231246 -0.429403 0.474103 -1.259911 -0.861895 -0.491888 0.481383 0.026961 0.363479 0.377824 0.934178 -0.685916 -1.361772 0.642585 -0.892096 0.146820 -0.281884 -0.827859 -0.662600 -1.371497 0.334020 0.515495 0.022769 -0.554341 0.156828 0.333179 -1.328631 0.096893 0.940912 -0.235274 -1.562673 0.403867 0.378978 0.517884 -0.613610 0.165876 0.742404 0.164882 -0.447247 0.407541 -0.064963 -1.912749 -0.841835 0.990324 0.712817 -0.584235 0.310405 0.930578 -0.091553 0.364689 0.210217 -0.245220 -0.225825 0.580853 -0.232729 -0.046144 1.054387 0.466273 -0.425772 0.784692 -0.325994 -0.338393 0.210182 -0.806607 -0.245654 -0.157116 -0.739312 -0.270793 0.653902 0.448453 0.696550 -0.382405 0.059109 0.115266 0.429310
too|RB -0.662715 -0.465829 -0.640856 -0.202341 -0.577004 -0.412708 -0.048282 0.116974 -0.244252 -1.385428 -0.133486 2.101154 0.835573 -0.060727 -1.343981 0.703801 -0.085020 -0.890661 -0.028863 -1.246997 -0.097219 -0.117021 0.033776 -0.580084 0.331741 -0.179548 -0.688243 0.831999 -0.470746 -0.434036 0.155694 0.760441 0.521184 -0.073307 0.761574 2.008829 1.144820 -1.829188 -1.652927 -0.811690 0.146635 -0.369559 -0.227985 0.233227 0.201987 -0.245230 0.100286 0.345184 0.298515 0.588858 -0.682696 0.244868 0.480887 0.609406 0.904060 0.626175 0.781879 -0.217146 0.941374 0.300589 1.490875 -0.452700 -0.197373 -0.554255 -1.182096 0.656380 0.382210 0.490674 -0.574726 0.043109 -0.295346 0.048974 1.646318 1.309272 -0.168609 0.976431 0.631337 0.073401 0.448837 -0.406725 0.339935 0.862374 1.399792 0.334064 -0.027108 0.079259 -2.115058 -0.801261 1.329259 -0.766011 -0.427823 -0.447517 -0.013545 1.630041 0.614826 0.206943 0.358435 -0.771219 -1.492070 -0.387518
should|MD 0.048989 1.750004 -1.583044 0.587883 -0.289460 0.098660 0.561272 -1.570779 -0.322425 0.600261 -1.737181 -0.047948 -0.319616 0.305423 0.477895 -0.081634 -1.538103 0.077354 1.171406 0.088758 -1.325244 -0.742078 -1.628485 -1.147452 3.163174 -1.009709 -0.863991 0.262114 0.214597 0.825163 -0.564128 2.140141 -0.318990 -0.577255 -0.328560 0.095208 -0.870859 1.527839 0.150236 1.381947 -0.624318 0.393435 0.412914 0.014811 1.338968 0.623181 0.677712 -1.095902 0.457251 0.259601 0.977289 0.237803 -0.791839 -0.877945 -0.646478 -0.333598 -0.413309 0.856719 -0.044779 -0.339905 0.758813 -1.346487 0.305667 1.095789 1.327506 0.094746 -0.771364 0.769961 0.714330 1.428261 0.922471 0.190452 -0.663443 -0.468721 0.952974 -0.097257 0.305799 -0.621394 -1.708414 0.973387 -0.964810 1.545827 0.018074 0.834407 -0.286738 -1.146514 -0.651315 -0.560240 -0.332672 1.486406 -0.224770 1.014402 0.716513 0.871483 -0.006437 -0.239411 -0.065767 0.788552 0.068824 0.771411
us|PRP 0.559565 -0.015814 0.639432 -0.941364 0.323582 0.860403 0.465312 0.698076 -1.095397 -1.271656 1.337406 0.575094 -1.193781 1.028801 -0.708314 -0.424901 0.104346 0.770923 0.372294 0.378023 1.861182 -1.949036 -0.749636 -0.114314 -1.808983 -0.144250 -1.038830 0.582577 0.852625 0.420997 0.485454 0.246910 -0.012823 -0.339193 -0.749893 0.751799 -0.792987 0.006967 0.995741 -1.385832 0.274525 1.116738 1.120232 -0.151586 0.143595 -0.020921 1.292282 0.046561 0.593273 -1.018926 -0.184865 -0.022342 0.143930 0.754942 -0.062074 0.420399 0.206773 -0.938182 -0.472109 -0.661221 0.901941 1.163173 -0.508153 -2.084114 0.393474 -0.189013 0.115720 1.015185 -0.367126 -0.703793 -1.035559 0.376919 0.034810 0.699734 -0.298317 -0.794230 0.169391 -0.020314 -0.287555 1.181197 0.467126 0.155976 1.845846 -0.725693 -1.219294 -1.179699 -0.319740 0.036930 -0.158696 -0.640418 -0.913789 -0.197474 -0.577756 0.280722 0.064817 0.458597 0.062300 -0.799409 0.161471 -0.498457
there|EX -0.147274 2.333919 -0.001265 -0.354774 0.010327 1.564638 0.334674 -1.129852 0.026590 -0.368684 0.414444 0.138756 0.293854 -0.160556 -0.291333 0.376972 1.510391 -0.947191 0.464180 -1.347952 0.167333 -1.495434 1.533619 -0.031877 -0.729727 0.060190 0.193097 1.055886 0.218285 -0.551805 0.850945 -1.697081 0.854073 -1.425358 0.009200 0.298993 1.347459 -1.687043 -0.871919 0.404582 -1.550293 -1.106258 1.920965 0.064170 0.144953 -1.268525 0.084597 -1.425170 0.468132 -0.864579 -1.038851 -1.887762 -0.116270 0.447970 -1.138712 -1.079358 1.139987 -0.712000 0.145710 -0.833908 -1.164366 1.137668 0.911810 -0.853497 -1.444696 1.345822 1.545641 -0.024441 -1.512937 0.035916 0.451284 -0.144653 0.520432 2.054482 -0.161316 0.703066 -1.101778 -0.584029 0.372508 -0.265031 -0.384896 1.742555 -0.342036 -0.899336 -1.576564 -0.258949 0.133043 0.698193 0.597507 -0.921279 1.076560 -1.501637 0.238197 0.087065 0.609001 -0.573231 0.463352 0.424021 -0.743873 0.756328
more|JJR 1.086352 -0.445968 0.018183 -0.622224 0.503895 0.740081 1.131606 0.736933 -0.423302 0.487222 0.163717 0.534755 -1.484856 0.352841 -0.678307 0.393097 0.275424 1.680625 -0.437664 -2.055902 -0.333187 -1.900185 -0.422877 1.372392 -0.506884 2.199926 0.529749 0.547812 0.639789 0.284267 -0.306480 1.853341 0.677639 -1.816258 1.053992 0.108431 -0.572916 -0.587055 0.558372 -0.467425 0.712643 0.554763 1.002083 -0.139208 -0.097951 0.382306 1.595182 -0.760117 0.329505 -1.191978 0.094354 -1.068460 0.060056 2.651078 -0.723234 0.292751 0.812100 0.827005 0.615313 -1.016137 0.791392 0.160982 0.323991 -0.102331 0.110277 0.670769 0.651374 0.233423 -0.821207 -0.104446 1.216972 0.875311 0.600639 0.118529 0.612045 0.615984 1.125311 1.936222 0.294505 0.614332 -0.127228 1.453392 0.690497 -0.687621 -1.772029 0.825487 0.390156 0.479904 0.138954 -0.059358 1.261781 -1.165678 -0.140089 0.213511 0.504500 -0.423500 -0.302059 0.154282 0.523008 -2.594749
back|RB 1.436549 0.655004 -0.375166 0.185955 -1.903876 -1.012753 0.576840 -0.102561 -1.055290 0.291598 0.320800 0.513643 -0.156660 0.823104 0.083742 1.394711 -0.653334 -0.111346 0.071932 -1.486434 -1.415979 0.560158 0.498246 2.028305 -0.670324 1.442821 0.524100 0.557379 0.676745 0.573155 0.156385 0.158940 -0.174337 0.150481 1.328040 -1.172192 1.132604 0.418590 0.776681 1.103052 0.567795 0.824962 -0.544338 -0.019025 0.977427 -1.375438 -0.762369 -0.120148 -0.330328 1.334702 0.612123 0.002379 -0.824854 -0.468812 -0.354018 -0.427694 -0.355074 0.459151 1.490930 -0.094862 -0.513418 0.298586 0.627920 -1.004485 1.408130 -0.338609 -0.782132 -1.060821 -0.527820 -0.536774 -0.398515 0.842673 -0.053525 -0.214780 0.700980 0.380049 -0.350777 -1.254524 0.723838 -0.832851 0.453899 -0.558515 0.078281 -0.359543 -1.303153 0.541502 -0.216387 0.606845 -1.199463 -0.540681 -0.768625 -1.500555 -0.153846 -0.542983 0.513721 1.285592 0.706983 0.652216 0.523383 -0.888980
game|NN -0.174442 -0.186631 -0.338644 -0.294472 -0.452548 -1.899179 -1.252958 0.249607 0.510182 -0.597119 0.902643 0.552911 1.483494 -0.617991 0.728647 -0.118042 -0.725553 -0.195866 1.851146 1.013494 1.157531 1.234547 0.741507 -0.077467 -0.349883 -1.284912 -0.269122 -1.253671 0.943297 0.954844 -0.630430 -0.338628 -0.405212 -1.111820 1.082491 0.416121 -1.610149 -0.991153 1.478608 0.006615 -1.547274 0.360812 0.969852 0.736399 -1.246708 -0.973911 0.186597 -0.059873 0.886737 -1.545550 0.188565 -0.240879 -0.001593 1.591091 -0.241687 0.603985 -0.198235 0.592618 0.209732 -0.527237 0.610103 0.947771 -0.418816 -0.383311 -0.558370 0.178224 -1.479287 0.340872 0.838717 1.224356 0.270924 -2.204410 0.337034 -0.428839 -0.117212 0.764333 -1.774405 -0.696051 -0.544785 0.089965 -0.404596 -0.064358 0.765435 -1.182778 -0.820584 -0.194849 1.399422 -0.516187 -0.586481 -0.843505 0.427541 0.840787 -0.345541 0.255945 -0.125389 0.497485 -1.338490 -1.385988 0.942719 -0.807510
has|VBZ 1.776534 0.176818 -0.564014 2.507574 -0.129996 -0.940548 0.312386 -1.620768 -1.395506 -1.409468 1.116669 0.096785 0.150126 -1.413907 -1.207715 -0.360273 0.869501 -1.044877 0.848165 -1.168407 -0.027052 -3.171136 -0.846630 -0.118521 2.685548 -0.939698 0.413454 -0.269752 -0.328727 -0.121933 1.563721 -1.158299 0.426556 -0.215004 -1.044090 -0.588866 -0.223941 1.304061 0.381824 -1.185588 -0.357038 -0.192647 0.479945 1.782509 1.156213 0.268896 1.605595 -2.245865 -1.152971 -1.499099 1.367455 -0.416005 -0.767285 -1.311716 1.541102 -0.886774 0.648154 -0.089907 1.445592 0.236965 -1.749212 -2.466224 0.928420 1.435220 1.467612 -1.612454 -0.536723 0.781250 0.631493 0.810534 0.553465 -0.969335 -0.054281 1.470821 -0.924825 0.102204 -1.583945 -0.661740 0.254675 -1.485447 0.792189 0.247830 0.823766 -0.041944 -0.897374 -0.385640 -0.351301 -0.585838 -1.315805 1.913402 -0.137307 0.271928 0.624253 0.502569 -0.289827 -0.384797 -0.365952 1.580515 -0.674687 0.215462
see|VB 0.524081 -0.429616 1.184146 0.054956 -0.572390 0.607632 0.185929 0.054385 -0.212763 0.931281 -0.768601 2.016016 0.508128 -0.543271 1.267650 0.402489 0.321608 0.595318 -0.896657 0.518700 -0.671825 1.407261 0.285597 0.448915 -0.391266 2.774322 -0.466316 -0.711911 -0.528116 0.518378 -0.324584 -1.683648 -0.648618 0.480029 1.700061 -0.795338 0.360562 0.110868 0.398509 -0.095800 0.700497 -0.606277 -0.583933 0.796087 -0.598623 -0.175977 -1.162959 -0.197992 -0.041032 1.087191 -0.600380 0.936445 0.353469 0.510236 -0.069499 0.953843 1.093939 0.546412 1.101920 0.120976 -1.314334 -1.049213 -1.108518 0.508275 -0.289722 -0.984050 1.153397 -1.161230 0.546404 -0.469446 -0.627943 0.352666 0.428290 0.279496 1.156186 -0.653765 1.594568 1.284243 0.538917 -1.765962 -0.542198 -0.649890 -0.012277 0.128441 -0.344006 0.525222 0.866208 0.840949 -0.951929 -2.015324 -0.647061 -0.387609 -0.321660 -1.001677 0.104241 -0.081781 -0.248311 -1.011037 0.787773 -0.227010
were|VBD -0.457102 -0.223096 0.177099 0.466575 0.961708 2.235888 1.087238 -1.108447 -0.848215 -1.175938 -0.319017 -0.759879 0.329222 -0.685460 2.539993 0.993073 -2.379350 1.366981 -0.422192 1.387075 0.426407 -0.863603 0.065871 0.022102 0.083201 -0.643965 -0.219953 0.548755 -0.299303 1.465830 0.610744 0.220170 1.229619 -0.466100 -1.260804 -0.468118 1.248546 -0.144462 0.917274 -0.653468 0.689822 0.401329 0.286644 -1.803042 -1.124163 -1.493671 -1.397007 0.576487 0.181345 -0.868482 -0.833111 0.976180 0.248570 -1.658926 1.848027 0.120974 0.992824 -1.417127 0.164459 1.253521 -0.441833 -1.681409 -0.194234 0.942999 -0.937626 -1.481990 0.038321 0.512007 0.145762 -1.474485 1.130265 -0.495177 0.695261 -0.537871 0.911459 -1.024021 0.014149 -0.408149 -0.829992 -1.019376 0.861136 0.217149 -0.453673 -1.566358 0.153062 0.293096 -0.591614 0.290408 0.605033 2.400118 -0.644276 2.062827 0.161947 -0.666111 -1.116160 -1.444200 -0.693154 -0.580373 0.722817 0.992760
year|NN 0.748289 0.520349 -0.386167 -0.140025 0.605277 -0.725672 -1.781511 1.394353 -0.140471 0.796961 0.038698 0.532368 0.072220 -1.022183 -0.465066 -0.011796 -0.673342 0.092295 2.056937 -0.304653 0.411368 0.897905 0.342281 -1.539554 -1.456627 -0.669105 -1.076384 0.214895 0.702154 0.886158 -0.943122 0.000609 -0.277123 -1.059027 0.481287 1.389155 -1.582340 -0.169538 0.724638 -0.389116 -0.810698 0.355593 0.475974 1.645810 -0.665193 0.328964 0.033414 -0.448439 0.818548 -1.375863 0.361480 -1.294234 -0.660831 0.903846 0.202104 -0.124777 0.951360 -1.441183 -0.426943 0.034541 0.521234 -0.194813 0.696701 -0.155686 -0.144772 0.622815 -2.014440 -0.222952 0.463299 0.071400 -0.300869 -1.158091 1.180204 1.222230 0.388825 0.358771 -1.800443 -0.557029 -0.540691 -0.150728 -0.164018 0.845513 -0.008875 -2.050240 -0.890000 0.269214 0.537662 0.728214 -1.044157 0.571494 0.474769 0.706669 -0.854573 0.118597 -0.421022 -0.049970 -2.081823 -0.302362 1.088391 -0.034674
at|IN -1.203174 -0.612619 -0.293066 -0.088448 0.460291 -1.461763 0.736095 -0.784185 -1.301943 0.987352 -0.236510 0.019361 0.118218 0.497816 -0.144288 -0.222246 0.681875 -0.099373 -0.315931 0.063182 0.327920 0.287648 -0.514079 0.239148 0.321356 -1.178969 -0.729262 0.566969 -0.098520 -0.664665 -0.970520 1.003839 -0.235429 0.882188 -0.001415 -1.891281 -0.382880 -0.094694 -0.155202 1.502416 0.141260 0.510427 -0.540748 0.756397 0.400351 -2.189200 -0.158978 -0.333869 0.003916 -1.221321 -0.137783 -0.169836 -0.568134 -0.322486 1.188801 -1.268189 -0.365612 0.373431 -1.373609 0.264419 -1.448815 1.143841 0.331511 1.454537 -0.844970 0.191196 -0.771896 0.932880 -0.668517 -0.097031 0.222441 0.377673 1.242537 0.502750 -1.254802 1.258100 0.467613 -1.214092 0.367527 -0.374153 -0.206842 -0.825446 -0.251537 -0.470421 0.051482 1.214860 -0.671058 1.247892 -0.912113 -0.627476 0.368686 0.061110 0.411099 -0.300960 -1.002744 0.715697 -0.640634 -0.359226 0.669079 0.931858
The|DT 0.841551 -2.411521 -0.853717 1.125267 0.081076 0.141956 -0.659893 0.256603 -1.913427 1.239652 0.569812 -0.311767 2.883041 0.761587 1.315795 -0.308996 1.206485 -0.214794 -1.022725 -1.448639 0.897019 0.966104 -1.054362 -1.585730 -0.497074 -0.239727 -0.648675 0.640781 -1.841791 0.556131 -0.019388 0.062214 -0.075674 -0.898969 -0.959404 -1.440466 0.243774 -0.567156 -1.866610 0.220250 0.753965 -1.894174 0.345547 0.408132 -0.282064 -0.003530 -1.194852 0.909391 -1.541262 -0.463508 0.698986 0.713549 0.388744 0.218403 -0.745167 -0.690598 1.371384 -0.283023 -0.061800 0.568787 1.699135 2.447180 0.338745 -0.343589 0.693220 0.445379 -0.256600 0.589144 -0.330603 -0.555593 0.001884 1.713760 1.047331 0.421445 -0.269294 -0.058951 -0.492947 -2.310556 -1.378084 -1.250323 0.824590 -0.710467 -1.596913 -0.688709 -0.521174 0.369170 1.620385 1.187520 0.011076 -0.320614 1.127116 -0.824800 -1.463783 -0.153026 0.277792 1.058762 0.622071 1.379092 -1.118788 0.019302
work|NN 0.246475 0.626063 1.387623 -1.583230 -0.756006 0.083440 -1.115136 1.116192 0.029264 -1.018254 0.560242 1.427410 1.401921 -1.076155 1.087166 0.021349 0.025735 -0.704695 0.168755 0.964774 0.278770 -0.958699 0.218009 -0.730791 -0.639718 -1.067460 0.984230 -0.432060 1.495156 -0.192810 0.644173 0.013876 -0.831088 0.273118 0.162336 0.304594 -0.558757 -0.308670 -0.032766 0.297751 -0.460589 -0.493028 -0.136633 -0.686725 0.419771 -0.934457 0.259303 -0.246749 -0.709964 -0.682502 -0.340107 -0.466980 0.461803 -0.452164 -0.045265 0.513716 0.876665 -1.092912 1.322336 -0.478439 0.072394 0.043020 -0.906033 -1.100088 -0.241069 -0.185869 -1.026492 -1.093333 0.777899 0.079541 0.277426 -0.680674 1.196246 -0.121804 -0.196271 0.863653 1.767064 0.717048 -0.625515 -0.169335 0.103317 -0.143992 1.125687 -0.372474 -1.312618 0.543530 0.524605 0.054605 -0.775925 -1.511922 -0.746049 0.690032 -0.312261 0.194930 1.117641 -0.349082 0.310569 -0.738265 -0.363666 -0.602097
out|RP 0.749837 1.159818 -0.718313 0.059773 -1.900388 -0.678701 0.855488 -0.182057 -0.755271 -0.160031 1.339211 0.293053 0.050252 0.666101 -0.182204 0.544886 0.316786 0.401698 -0.534997 -0.001608 -0.407425 0.461332 0.298952 1.508101 -0.080926 1.203278 -0.617419 0.302838 0.018261 0.683398 0.725345 0.745475 0.259031 -0.203941 1.380963 -1.687368 0.328766 0.440113 -0.276927 1.798846 -0.230873 0.547372 0.075143 -0.051778 -0.047544 -1.090745 -0.258422 -0.218024 1.029456 0.736262 0.491264 -0.032184 0.613057 0.171445 0.244175 0.064555 -0.627888 1.789358 0.718583 -0.204175 -0.172757 -0.469464 -0.355407 -1.008029 1.423880 0.253908 -1.782126 0.262285 0.464080 0.461462 -1.691423 0.039821 0.864488 -0.990533 1.389521 -0.070656 -0.674391 -0.150928 0.079624 -0.424367 -0.142568 -0.138618 0.714777 0.054385 -0.848828 -0.347831 -0.674730 0.206121 -1.384085 -0.871439 0.696681 -0.419235 -0.703667 0.244775 0.349526 0.970576 0.668105 -0.038701 0.087433 -0.610775
Now|RB 0.913688 -0.928608 -0.381238 0.041940 -0.080773 0.661355 -0.953761 0.302807 -0.421390 0.305432 0.509437 -0.040101 0.346098 0.833625 -0.168991 1.396147 -0.160834 0.500145 0.435986 -0.535784 -0.400403 1.841332 -0.467849 0.304128 0.311629 0.198691 -0.637247 1.354129 0.066492 0.632588 -0.436476 0.641034 -0.073359 0.422520 0.523496 -0.991449 -1.012959 -1.068124 0.006526 -1.045757 -0.188603 -0.025737 1.150162 -0.235361 -0.597368 -1.415042 -1.177414 0.211662 -0.637390 -0.328393 -0.493608 -0.939025 0.002172 1.342915 0.181253 -0.342472 0.530547 0.403455 0.015401 0.264585 0.596813 1.756408 0.048955 0.134321 -0.110308 0.444525 0.407509 -0.651849 0.003393 0.479916 0.269877 1.061126 -0.141777 0.052303 -0.392603 -0.432488 1.537263 0.127199 -0.407459 -0.236797 -1.051732 0.345959 1.706990 0.115939 -0.500648 -0.169125 0.117292 0.802085 -0.334792 -0.931118 1.623985 0.878996 -0.770456 -1.777673 1.326580 -0.167510 0.293750 -0.619512 1.162328 -0.238631
where|WRB 0.102972 0.195119 -1.190017 1.099435 -0.169119 0.545339 -1.092673 1.023685 1.122528 0.837945 0.678114 -0.755323 -0.876116 0.713956 -0.241522 0.608296 0.553660 0.684695 2.110681 -1.590940 -2.559682 1.928412 0.647351 1.632938 -1.750481 1.225732 -0.399149 0.121359 0.028501 -0.330923 0.094278 1.554097 -0.762286 1.162443 0.809285 0.389738 -1.347059 0.994984 -0.754382 0.494956 0.105056 0.576949 -0.721669 -0.617000 1.168002 -1.844209 -1.252311 0.928194 -0.046556 1.489263 -1.279568 -0.437212 1.254602 0.093462 -0.332465 -0.160069 -0.600603 0.707930 0.897212 -1.114638 -0.081212 0.914038 0.637196 -1.156884 0.145206 0.508377 -0.006997 -0.933080 0.266297 -1.320523 -0.568328 0.803100 0.230306 -0.188148 1.288757 0.197278 -2.077957 -1.277946 0.091186 0.673134 -0.860457 -0.901281 1.213549 -0.066762 -0.106513 -1.132835 0.494341 0.517157 0.343352 -0.898989 1.640807 -0.530790 0.997828 -0.649050 1.132216 -0.503766 1.353811 0.589816 -0.652607 -0.466080
