1044 100
ol -0.395607 0.081171 -0.057800 0.021478 0.094328 0.278719 0.110908 0.195532 0.151464 0.028669 0.351975 -0.220960 0.324198 -0.290597 0.149271 -0.406478 -0.077751 0.049746 -0.044754 0.021980 0.129120 0.421787 0.091854 0.118043 -0.199463 -0.216531 -0.518349 -0.000832 0.119772 0.036516 -0.273398 -0.019790 -0.183315 0.409506 0.181076 0.044596 -0.037196 0.037197 -0.309416 -0.132511 0.215847 -0.228737 -0.108415 -0.316126 0.403792 -0.263864 0.352058 0.016016 -0.026463 -0.036715 0.268631 0.019748 0.169261 0.094262 0.181327 0.365812 0.088991 0.095705 -0.311128 0.066243 -0.289752 -0.086928 -0.136399 0.324052 0.104792 0.493585 -0.032398 -0.327916 0.417499 -0.276759 -0.333731 0.256535 0.309108 0.297600 -0.244245 -0.166266 -0.336194 -0.620376 -0.003888 0.182047 0.019348 0.124906 0.148723 -0.238604 -0.337572 -0.013525 -0.136803 -0.199579 -0.328355 -0.021288 0.170377 0.245665 0.799634 0.220499 -0.106626 0.184178 -0.042947 0.030782 0.159144 -0.034878
y -0.461204 0.089666 -0.047936 0.030974 0.109575 0.317523 0.139546 0.218924 0.165214 0.032058 0.397340 -0.250329 0.360040 -0.323434 0.168332 -0.460636 -0.094498 0.057021 -0.051988 0.031133 0.135937 0.468556 0.101462 0.127722 -0.219210 -0.253742 -0.587368 0.005793 0.129660 0.050178 -0.305850 -0.013421 -0.208496 0.477085 0.203422 0.052718 -0.040570 0.044768 -0.343362 -0.133066 0.240909 -0.275098 -0.132725 -0.370034 0.451045 -0.294580 0.395739 0.021843 -0.039367 -0.039159 0.303932 0.018500 0.194408 0.098746 0.210852 0.425244 0.099340 0.110750 -0.345050 0.083437 -0.329768 -0.090486 -0.164503 0.358802 0.127201 0.552195 -0.012001 -0.365418 0.457329 -0.303049 -0.371871 0.298498 0.353455 0.328596 -0.270298 -0.191633 -0.380667 -0.691872 -0.009677 0.210601 0.025498 0.143286 0.171866 -0.265994 -0.378656 -0.008511 -0.159229 -0.222890 -0.373297 -0.023713 0.183584 0.278203 0.896344 0.247554 -0.123906 0.201114 -0.046001 0.030764 0.182870 -0.041859
daiin -0.448065 0.091129 -0.053109 0.038154 0.106285 0.313379 0.131731 0.219900 0.166752 0.027658 0.382161 -0.251859 0.354297 -0.315913 0.165909 -0.448894 -0.103308 0.062604 -0.054227 0.035382 0.138913 0.463657 0.093551 0.116999 -0.217022 -0.244926 -0.574172 0.005616 0.128642 0.055986 -0.298081 -0.015413 -0.195726 0.470679 0.200665 0.051865 -0.029813 0.044247 -0.336488 -0.129450 0.231736 -0.268985 -0.122620 -0.363394 0.441076 -0.289548 0.389728 0.019655 -0.038767 -0.034447 0.301166 0.019371 0.192511 0.093968 0.210813 0.415506 0.092039 0.115009 -0.345335 0.082596 -0.323461 -0.093683 -0.162673 0.353452 0.123548 0.542368 -0.010445 -0.352588 0.452847 -0.298793 -0.369488 0.292971 0.348246 0.317447 -0.272494 -0.195274 -0.380032 -0.681479 -0.014363 0.198171 0.020717 0.139778 0.171694 -0.271487 -0.371757 -0.015156 -0.164724 -0.217168 -0.363697 -0.030845 0.177473 0.274377 0.883547 0.237503 -0.126184 0.194715 -0.045612 0.022878 0.175199 -0.038563
ar -0.442393 0.096650 -0.060506 0.029734 0.104447 0.301299 0.124341 0.210750 0.160463 0.032939 0.379108 -0.239162 0.343872 -0.311563 0.167747 -0.448690 -0.084525 0.059005 -0.045480 0.033491 0.129536 0.453049 0.094341 0.119380 -0.212791 -0.241484 -0.566055 0.001752 0.122044 0.046042 -0.295930 -0.010614 -0.193916 0.452511 0.195410 0.057409 -0.036504 0.036740 -0.336273 -0.136597 0.222057 -0.258903 -0.123252 -0.352511 0.434242 -0.283377 0.375302 0.021370 -0.036426 -0.034130 0.294568 0.015478 0.180056 0.092708 0.200408 0.407498 0.086271 0.110684 -0.335542 0.075740 -0.317006 -0.088162 -0.158465 0.344630 0.118836 0.528372 -0.018763 -0.353248 0.447454 -0.298301 -0.360088 0.277050 0.342854 0.317667 -0.259888 -0.183550 -0.372509 -0.670275 -0.015598 0.201229 0.029258 0.130172 0.162617 -0.258115 -0.366685 -0.007489 -0.154224 -0.214336 -0.351581 -0.017627 0.170017 0.269733 0.866974 0.235157 -0.114685 0.194383 -0.040910 0.029107 0.176376 -0.034947
aiin -0.438631 0.093865 -0.050632 0.031137 0.111413 0.310749 0.133200 0.213174 0.160500 0.032261 0.379714 -0.245372 0.352275 -0.312143 0.170280 -0.447628 -0.091423 0.054136 -0.053328 0.032407 0.131286 0.448509 0.095433 0.120945 -0.218554 -0.244886 -0.569653 0.002372 0.120055 0.053370 -0.291217 -0.017185 -0.195078 0.461901 0.201756 0.052845 -0.033997 0.041699 -0.338697 -0.132674 0.228045 -0.261608 -0.119719 -0.361011 0.438222 -0.283166 0.383077 0.014698 -0.032325 -0.035377 0.295903 0.017383 0.183461 0.093150 0.206892 0.407929 0.090970 0.103707 -0.344262 0.080849 -0.319500 -0.089769 -0.164460 0.346605 0.123388 0.540963 -0.012995 -0.354063 0.448725 -0.302868 -0.364318 0.276480 0.343801 0.317149 -0.266061 -0.193608 -0.366826 -0.676522 -0.015338 0.206192 0.020300 0.133560 0.164078 -0.257558 -0.367228 -0.008528 -0.156953 -0.205722 -0.359647 -0.021766 0.171491 0.274392 0.865572 0.233582 -0.117290 0.198422 -0.046075 0.023827 0.177412 -0.042340
or -0.439246 0.093557 -0.058230 0.026727 0.105266 0.303250 0.132955 0.214562 0.162575 0.034671 0.382092 -0.238853 0.350709 -0.319534 0.167165 -0.446592 -0.086389 0.061349 -0.046426 0.031408 0.133497 0.450324 0.100979 0.116655 -0.218589 -0.245283 -0.568580 0.007333 0.122871 0.049928 -0.294544 -0.011555 -0.196595 0.450881 0.201053 0.059765 -0.041868 0.033627 -0.333921 -0.128499 0.225249 -0.256769 -0.126311 -0.355903 0.431436 -0.287024 0.381443 0.023122 -0.036797 -0.031441 0.297062 0.022153 0.184822 0.099717 0.203724 0.404538 0.087237 0.106064 -0.339448 0.082470 -0.322973 -0.088805 -0.154178 0.343441 0.118693 0.534522 -0.016401 -0.360790 0.451508 -0.293860 -0.362727 0.277581 0.337433 0.310950 -0.261240 -0.185976 -0.369975 -0.674377 -0.008564 0.199635 0.027492 0.137603 0.164148 -0.259441 -0.361549 -0.013503 -0.152052 -0.210550 -0.353585 -0.028632 0.178646 0.272542 0.865034 0.236213 -0.120000 0.198355 -0.050129 0.024402 0.176635 -0.041953
chedy -0.386035 0.083923 -0.050924 0.031122 0.089592 0.266190 0.109909 0.195794 0.144176 0.030893 0.344762 -0.226251 0.327992 -0.287675 0.151660 -0.408968 -0.077711 0.048190 -0.048271 0.017631 0.126787 0.415435 0.086614 0.111146 -0.210738 -0.211465 -0.527252 -0.000323 0.123725 0.033356 -0.269485 -0.025257 -0.186504 0.420523 0.182851 0.042292 -0.032381 0.039833 -0.319628 -0.139197 0.215911 -0.224512 -0.107316 -0.313887 0.390887 -0.273517 0.347998 0.020173 -0.020772 -0.032938 0.276117 0.030709 0.171521 0.090778 0.183571 0.360635 0.082535 0.097974 -0.299673 0.054046 -0.279370 -0.082905 -0.136311 0.325402 0.103352 0.493413 -0.037946 -0.316877 0.422233 -0.276468 -0.330854 0.259551 0.314629 0.300883 -0.236451 -0.167997 -0.342973 -0.622221 0.000386 0.188398 0.023821 0.131989 0.150885 -0.228316 -0.334606 -0.010394 -0.126806 -0.197767 -0.327735 -0.024791 0.177942 0.238906 0.793718 0.221179 -0.118107 0.177849 -0.045196 0.033294 0.151742 -0.023400
s -0.448475 0.095948 -0.047803 0.033596 0.106484 0.317264 0.131610 0.221282 0.158734 0.030023 0.391530 -0.245938 0.350451 -0.322112 0.164640 -0.455586 -0.093163 0.061262 -0.056628 0.036398 0.141440 0.464287 0.094945 0.119140 -0.217073 -0.246026 -0.577306 0.005211 0.130016 0.050867 -0.301335 -0.017202 -0.198384 0.466207 0.196492 0.057184 -0.033304 0.035851 -0.336257 -0.128836 0.231401 -0.264254 -0.130413 -0.363269 0.447174 -0.284312 0.387327 0.019036 -0.041597 -0.038012 0.295097 0.017674 0.187932 0.095952 0.202761 0.419929 0.090872 0.119020 -0.342955 0.078111 -0.327436 -0.089565 -0.165639 0.353300 0.118034 0.549568 -0.016068 -0.358375 0.453196 -0.300520 -0.365343 0.285563 0.342100 0.324010 -0.271665 -0.194250 -0.380072 -0.679387 -0.016465 0.197472 0.020887 0.134688 0.166575 -0.260884 -0.377434 -0.009579 -0.156780 -0.213077 -0.362086 -0.030717 0.174550 0.276200 0.888436 0.244834 -0.126989 0.197877 -0.050888 0.021888 0.177661 -0.041762
dy -0.457061 0.089020 -0.049143 0.032613 0.108603 0.320831 0.136240 0.225483 0.168090 0.027873 0.394909 -0.252566 0.359761 -0.327409 0.167190 -0.459713 -0.100404 0.058164 -0.055244 0.028837 0.140401 0.469162 0.095953 0.125198 -0.222943 -0.250275 -0.593830 -0.001453 0.128844 0.056057 -0.301935 -0.018811 -0.206583 0.476275 0.207084 0.055681 -0.040008 0.039862 -0.346795 -0.141620 0.232993 -0.262923 -0.129445 -0.362291 0.453598 -0.297811 0.398184 0.015182 -0.029231 -0.040813 0.304605 0.020743 0.195143 0.096333 0.214769 0.419841 0.093980 0.111058 -0.346380 0.072351 -0.331377 -0.094454 -0.169034 0.356777 0.121677 0.559870 -0.026152 -0.364075 0.462021 -0.312226 -0.378527 0.291904 0.351721 0.329185 -0.276873 -0.195562 -0.385043 -0.694875 -0.010877 0.203379 0.020388 0.147370 0.177231 -0.271839 -0.383842 -0.014746 -0.155541 -0.216905 -0.375532 -0.029791 0.189166 0.274708 0.894395 0.248798 -0.132345 0.201428 -0.047952 0.029845 0.172942 -0.041375
l -0.452696 0.095686 -0.056024 0.034146 0.102322 0.309360 0.127267 0.218722 0.158227 0.034664 0.393956 -0.252923 0.359020 -0.325050 0.168193 -0.455179 -0.098811 0.057412 -0.053209 0.035805 0.141857 0.467713 0.096924 0.132934 -0.232980 -0.250788 -0.588746 0.006114 0.134251 0.041976 -0.306941 -0.019256 -0.205175 0.470120 0.206702 0.050463 -0.036368 0.043998 -0.351366 -0.142351 0.240689 -0.264104 -0.119902 -0.362295 0.449148 -0.298170 0.385302 0.024765 -0.032681 -0.040155 0.302978 0.023469 0.197746 0.103665 0.212040 0.413162 0.092661 0.109115 -0.348157 0.073001 -0.321082 -0.094000 -0.160327 0.362748 0.118112 0.561419 -0.026528 -0.357111 0.463206 -0.307390 -0.370196 0.288295 0.347093 0.326696 -0.273823 -0.196944 -0.382892 -0.699288 -0.011070 0.199558 0.021368 0.140617 0.167613 -0.271248 -0.379650 -0.014419 -0.158674 -0.213607 -0.364506 -0.027341 0.187636 0.275874 0.897077 0.249638 -0.126057 0.192850 -0.048020 0.025238 0.178889 -0.031417
al -0.438418 0.096997 -0.055543 0.028981 0.103608 0.304906 0.130343 0.211819 0.166349 0.032508 0.385406 -0.242017 0.351251 -0.312321 0.170292 -0.455448 -0.086548 0.062534 -0.054232 0.028102 0.133105 0.451608 0.097881 0.127039 -0.214999 -0.238381 -0.570538 0.006730 0.127596 0.044202 -0.290018 -0.016631 -0.202945 0.456670 0.196563 0.058277 -0.036855 0.040840 -0.342230 -0.141896 0.230586 -0.263738 -0.120091 -0.358007 0.438203 -0.291144 0.383053 0.016732 -0.030485 -0.041118 0.298314 0.022869 0.185737 0.100466 0.199346 0.413197 0.094101 0.102836 -0.343153 0.073321 -0.317075 -0.087752 -0.164393 0.340814 0.118767 0.543220 -0.018605 -0.362303 0.453505 -0.297743 -0.367733 0.285376 0.343923 0.322131 -0.268226 -0.192195 -0.369870 -0.677012 -0.011846 0.199968 0.025132 0.139104 0.162636 -0.252967 -0.371040 -0.006906 -0.151322 -0.211334 -0.351794 -0.023148 0.179175 0.270529 0.871624 0.243373 -0.117915 0.196419 -0.044055 0.024995 0.169443 -0.035341
d -0.461837 0.090367 -0.055899 0.036476 0.106060 0.324351 0.137508 0.230773 0.170055 0.029414 0.406186 -0.254365 0.365864 -0.329518 0.170550 -0.463473 -0.102889 0.065067 -0.053959 0.039026 0.138465 0.482539 0.104110 0.122537 -0.228146 -0.258118 -0.597913 0.000054 0.134331 0.048873 -0.319253 -0.012772 -0.202718 0.488880 0.205174 0.063577 -0.039379 0.042510 -0.353408 -0.143743 0.243073 -0.278320 -0.127774 -0.373856 0.462067 -0.304611 0.409210 0.020471 -0.035037 -0.036820 0.312089 0.022357 0.197469 0.095110 0.216091 0.424646 0.102236 0.119277 -0.357814 0.079073 -0.330205 -0.101769 -0.167913 0.371400 0.123126 0.567305 -0.017524 -0.369649 0.476355 -0.316954 -0.382418 0.304588 0.352424 0.330765 -0.277815 -0.205170 -0.390793 -0.712082 -0.014825 0.211038 0.015704 0.140740 0.173120 -0.279394 -0.383823 -0.016272 -0.170227 -0.225474 -0.378126 -0.026890 0.190957 0.289043 0.917657 0.247053 -0.134609 0.199814 -0.045482 0.023925 0.176518 -0.035890
chol -0.427457 0.081879 -0.041064 0.035834 0.102100 0.302821 0.123498 0.210125 0.158571 0.021672 0.362287 -0.236295 0.333658 -0.297215 0.161389 -0.420600 -0.094590 0.060726 -0.048014 0.040366 0.129674 0.432515 0.094779 0.107508 -0.202100 -0.229253 -0.542762 0.004404 0.121778 0.052500 -0.293208 -0.013446 -0.190506 0.440801 0.180783 0.059836 -0.037317 0.037588 -0.309802 -0.116068 0.217772 -0.251235 -0.123022 -0.347105 0.414184 -0.266140 0.368518 0.012859 -0.039114 -0.027152 0.278285 0.018541 0.174368 0.083277 0.197990 0.387380 0.085034 0.113787 -0.321602 0.077398 -0.304468 -0.087446 -0.155205 0.330457 0.113437 0.511406 -0.004923 -0.336309 0.423843 -0.286136 -0.350343 0.275430 0.324700 0.300588 -0.255418 -0.185029 -0.354744 -0.638720 -0.018599 0.188522 0.013292 0.130898 0.162078 -0.258407 -0.351107 -0.020366 -0.151265 -0.204713 -0.347126 -0.026726 0.162242 0.255395 0.830154 0.222207 -0.122384 0.177338 -0.044690 0.020099 0.159928 -0.046746
shedy -0.422292 0.096361 -0.059043 0.030329 0.096964 0.291577 0.120846 0.205094 0.157958 0.030856 0.378940 -0.240896 0.350133 -0.308825 0.162309 -0.443207 -0.081788 0.047050 -0.050184 0.025232 0.128514 0.452208 0.089301 0.126826 -0.230782 -0.238594 -0.565455 0.007521 0.134411 0.046240 -0.286854 -0.025038 -0.198085 0.447480 0.199328 0.047073 -0.035686 0.049279 -0.342591 -0.139465 0.231387 -0.243058 -0.121456 -0.338084 0.426547 -0.290593 0.367023 0.021186 -0.014664 -0.038582 0.293360 0.032954 0.182661 0.092550 0.194147 0.393615 0.097763 0.100251 -0.323438 0.060610 -0.306975 -0.095163 -0.155118 0.348686 0.112540 0.532489 -0.042611 -0.338450 0.451675 -0.300782 -0.349153 0.281243 0.335714 0.323126 -0.258479 -0.181627 -0.367322 -0.663287 0.001583 0.200145 0.019056 0.148107 0.155870 -0.249287 -0.363835 -0.015234 -0.136822 -0.214722 -0.353996 -0.026187 0.187259 0.257713 0.858581 0.244223 -0.124191 0.196104 -0.041719 0.031704 0.164035 -0.022960
chey -0.408207 0.085912 -0.050523 0.025590 0.101807 0.290486 0.116079 0.196583 0.146496 0.035385 0.359213 -0.225018 0.331699 -0.299067 0.158457 -0.416940 -0.083705 0.047055 -0.048221 0.030638 0.125435 0.428321 0.093796 0.115893 -0.215301 -0.226284 -0.542622 0.007800 0.123206 0.045578 -0.282255 -0.017619 -0.192203 0.429019 0.188198 0.050157 -0.036671 0.043238 -0.318386 -0.135940 0.219308 -0.239503 -0.112945 -0.329567 0.407640 -0.273613 0.360123 0.021709 -0.033426 -0.032510 0.284292 0.017305 0.172444 0.091233 0.193984 0.385182 0.083792 0.102739 -0.323679 0.063854 -0.293918 -0.083156 -0.147944 0.331528 0.106153 0.513967 -0.028264 -0.335055 0.429521 -0.287451 -0.336634 0.267437 0.319116 0.302595 -0.246752 -0.181635 -0.349626 -0.637343 -0.006217 0.185181 0.022388 0.129172 0.158714 -0.245018 -0.341202 -0.005975 -0.144678 -0.196800 -0.331533 -0.026164 0.175418 0.255280 0.828262 0.230751 -0.111536 0.183862 -0.044467 0.030060 0.160080 -0.033341
dar -0.445842 0.098143 -0.047055 0.039139 0.107467 0.308714 0.136241 0.213818 0.161420 0.026937 0.386904 -0.247336 0.349493 -0.313933 0.163525 -0.449519 -0.096224 0.055654 -0.052153 0.028599 0.133109 0.455121 0.095377 0.126312 -0.223635 -0.243628 -0.578789 0.005918 0.131280 0.052875 -0.295423 -0.013102 -0.205518 0.465715 0.199378 0.056886 -0.035537 0.036544 -0.339005 -0.138594 0.229201 -0.265154 -0.128779 -0.356592 0.440345 -0.291706 0.383763 0.013969 -0.036167 -0.033910 0.297186 0.019550 0.190226 0.097118 0.203997 0.408597 0.097491 0.116453 -0.340794 0.077460 -0.314075 -0.093896 -0.159608 0.346318 0.123303 0.542962 -0.024197 -0.353428 0.453664 -0.301770 -0.361690 0.286976 0.347382 0.315928 -0.261148 -0.190683 -0.376290 -0.677292 -0.016550 0.205876 0.025682 0.141953 0.171240 -0.261019 -0.370746 -0.015407 -0.153293 -0.217946 -0.363853 -0.026285 0.175489 0.271603 0.876606 0.244398 -0.124667 0.188666 -0.043595 0.022899 0.173899 -0.033126
dal -0.418162 0.084062 -0.051581 0.032499 0.095780 0.292731 0.119453 0.207365 0.153719 0.030849 0.364900 -0.232493 0.338363 -0.298357 0.160768 -0.431011 -0.093910 0.055236 -0.054471 0.026715 0.131766 0.432341 0.096152 0.116488 -0.216522 -0.227931 -0.546232 -0.000338 0.126433 0.046220 -0.279374 -0.012313 -0.192599 0.433699 0.188359 0.048188 -0.028355 0.042072 -0.319764 -0.134407 0.221840 -0.240878 -0.117197 -0.339195 0.413493 -0.274672 0.368208 0.014121 -0.023034 -0.036565 0.285929 0.019039 0.175360 0.094946 0.193020 0.383628 0.095041 0.106746 -0.326036 0.073091 -0.303238 -0.092874 -0.155286 0.326741 0.112390 0.513007 -0.023505 -0.340868 0.426852 -0.287356 -0.340071 0.266798 0.321871 0.306298 -0.249369 -0.175276 -0.354591 -0.644627 -0.008856 0.193356 0.016060 0.128987 0.155722 -0.246228 -0.354643 -0.008262 -0.149009 -0.202620 -0.341667 -0.024440 0.174441 0.254270 0.837370 0.233466 -0.123565 0.181065 -0.038822 0.021877 0.160091 -0.029444
o -0.480396 0.102839 -0.054791 0.039247 0.111232 0.335047 0.142625 0.233703 0.173077 0.025111 0.411656 -0.258359 0.369497 -0.336628 0.178895 -0.482416 -0.108268 0.060455 -0.051702 0.034003 0.144739 0.482899 0.108787 0.124341 -0.239341 -0.257960 -0.613659 0.007858 0.137736 0.055279 -0.322992 -0.011042 -0.210678 0.494242 0.216194 0.062657 -0.033855 0.048496 -0.356311 -0.139265 0.243683 -0.283689 -0.137778 -0.382632 0.471397 -0.304735 0.404797 0.019996 -0.041286 -0.035378 0.319188 0.020769 0.197106 0.096546 0.217500 0.441565 0.100820 0.121883 -0.368372 0.087028 -0.336558 -0.095280 -0.170545 0.365339 0.132450 0.574414 -0.013893 -0.376097 0.480072 -0.322558 -0.388256 0.306399 0.369153 0.335202 -0.283355 -0.207910 -0.400431 -0.716894 -0.016267 0.209328 0.026047 0.150503 0.183273 -0.278657 -0.396691 -0.014426 -0.168075 -0.223434 -0.378320 -0.024861 0.189249 0.286676 0.933789 0.250727 -0.135658 0.208618 -0.051606 0.025361 0.190076 -0.045277
shey -0.419573 0.089958 -0.053520 0.028036 0.098377 0.286615 0.120521 0.204956 0.156137 0.034758 0.370621 -0.230389 0.341140 -0.307761 0.160755 -0.426828 -0.091637 0.046306 -0.052331 0.027720 0.132487 0.444749 0.091468 0.121746 -0.216850 -0.234319 -0.550220 0.004199 0.122054 0.044015 -0.288999 -0.018191 -0.192172 0.445339 0.197226 0.050184 -0.034873 0.040124 -0.325734 -0.134897 0.223522 -0.248364 -0.113210 -0.334067 0.422949 -0.279178 0.364961 0.021834 -0.028432 -0.033007 0.282800 0.026915 0.183778 0.086888 0.194847 0.388278 0.088966 0.107154 -0.328799 0.067926 -0.302949 -0.092581 -0.148527 0.339449 0.111325 0.520578 -0.021302 -0.333707 0.436137 -0.290897 -0.347693 0.269836 0.326321 0.310674 -0.251255 -0.187358 -0.361071 -0.655692 -0.002230 0.193374 0.024999 0.133098 0.161605 -0.254111 -0.350622 -0.009864 -0.143986 -0.209123 -0.343897 -0.022210 0.175726 0.253886 0.848210 0.231874 -0.123374 0.182986 -0.048739 0.033535 0.161956 -0.037432
chy -0.424245 0.089966 -0.051344 0.038153 0.097836 0.296571 0.132303 0.209603 0.152035 0.030419 0.369744 -0.233458 0.337122 -0.309017 0.158287 -0.426167 -0.095550 0.053630 -0.044404 0.032090 0.133335 0.443647 0.092481 0.110622 -0.212156 -0.236946 -0.551533 0.002092 0.123068 0.053861 -0.293670 -0.018032 -0.196244 0.451627 0.189994 0.057603 -0.038679 0.040890 -0.324133 -0.127737 0.215818 -0.254179 -0.118578 -0.346305 0.420357 -0.277366 0.369662 0.018303 -0.034549 -0.029166 0.285297 0.019229 0.178569 0.086465 0.198937 0.399864 0.088415 0.109884 -0.333522 0.075873 -0.314532 -0.089015 -0.151875 0.337168 0.117766 0.521922 -0.016068 -0.342894 0.438267 -0.288366 -0.353882 0.274849 0.326536 0.307641 -0.259875 -0.183163 -0.359355 -0.653575 -0.018555 0.197868 0.019814 0.132224 0.164180 -0.253122 -0.352902 -0.015521 -0.152351 -0.205964 -0.347183 -0.025484 0.171383 0.258149 0.849120 0.231490 -0.117957 0.186345 -0.041819 0.026666 0.167478 -0.036161
dain -0.431587 0.084844 -0.048829 0.030243 0.097595 0.301798 0.127745 0.205396 0.149020 0.028933 0.372433 -0.234263 0.339427 -0.304383 0.164756 -0.433079 -0.089916 0.059772 -0.050148 0.033806 0.134907 0.445550 0.094229 0.111644 -0.209050 -0.232631 -0.552148 0.006414 0.118886 0.046211 -0.287859 -0.014708 -0.189609 0.443404 0.191764 0.050214 -0.036704 0.042599 -0.324933 -0.123816 0.220759 -0.252560 -0.124886 -0.340199 0.417223 -0.272754 0.370465 0.017273 -0.031049 -0.039692 0.288896 0.020831 0.182671 0.094672 0.196466 0.391364 0.088909 0.107928 -0.333350 0.073873 -0.309142 -0.089079 -0.156387 0.340269 0.112028 0.525261 -0.017299 -0.340440 0.434408 -0.292324 -0.350522 0.280698 0.325395 0.304612 -0.255793 -0.180995 -0.362387 -0.651483 -0.010602 0.188390 0.022090 0.135672 0.165691 -0.252978 -0.353417 -0.016885 -0.147737 -0.202119 -0.350959 -0.028035 0.167408 0.263386 0.849857 0.234633 -0.122307 0.185258 -0.040313 0.025413 0.166270 -0.032944
cho -0.490558 0.101819 -0.051560 0.039645 0.115513 0.341054 0.145502 0.236518 0.179365 0.026559 0.416821 -0.262939 0.377928 -0.348103 0.182766 -0.490480 -0.110621 0.066150 -0.060692 0.035894 0.145752 0.503271 0.102562 0.128391 -0.242926 -0.269347 -0.627729 0.000781 0.143183 0.058384 -0.333039 -0.011849 -0.221419 0.509595 0.215252 0.064132 -0.037105 0.046601 -0.364256 -0.135251 0.252471 -0.293706 -0.134755 -0.399544 0.482015 -0.307346 0.422987 0.016305 -0.046760 -0.036944 0.322105 0.017988 0.208095 0.103919 0.224992 0.453097 0.104676 0.130167 -0.377629 0.083909 -0.344520 -0.101387 -0.172418 0.383228 0.133482 0.590355 -0.015270 -0.387010 0.489356 -0.330711 -0.398887 0.315370 0.368661 0.345592 -0.289825 -0.216397 -0.405327 -0.735788 -0.020751 0.217970 0.019390 0.146302 0.187700 -0.286397 -0.403907 -0.015763 -0.180306 -0.232982 -0.393400 -0.025287 0.186341 0.290490 0.952383 0.262413 -0.132168 0.205563 -0.043083 0.029544 0.193861 -0.040903
ch -0.445704 0.094802 -0.048477 0.039220 0.109398 0.309506 0.126470 0.213349 0.162613 0.026481 0.384978 -0.240380 0.348140 -0.315007 0.165194 -0.446550 -0.093285 0.056148 -0.052793 0.029670 0.131966 0.449997 0.099054 0.119416 -0.223558 -0.236429 -0.567261 -0.001337 0.128511 0.051557 -0.300119 -0.011794 -0.197751 0.462290 0.201418 0.054562 -0.033475 0.043870 -0.332722 -0.135646 0.228424 -0.263975 -0.126094 -0.356744 0.431647 -0.285188 0.383155 0.019397 -0.037274 -0.041100 0.299538 0.019121 0.185978 0.098742 0.201480 0.404116 0.098351 0.116081 -0.337043 0.075443 -0.311451 -0.096003 -0.165232 0.343879 0.123793 0.538937 -0.011320 -0.350771 0.448242 -0.300507 -0.363380 0.289313 0.339711 0.320565 -0.261663 -0.196194 -0.370158 -0.669967 -0.009075 0.202714 0.017589 0.133144 0.169621 -0.261254 -0.371305 -0.017872 -0.151580 -0.209610 -0.355953 -0.031219 0.181101 0.273769 0.875542 0.236426 -0.122730 0.188143 -0.040819 0.030110 0.172891 -0.043862
qokeedy -0.440177 0.095189 -0.055026 0.032044 0.105575 0.300320 0.128636 0.210279 0.158940 0.032498 0.384423 -0.250323 0.362400 -0.312964 0.168109 -0.458208 -0.091379 0.048233 -0.059856 0.030578 0.139428 0.465731 0.094200 0.130784 -0.239376 -0.239396 -0.572992 0.001028 0.138669 0.043162 -0.291402 -0.028916 -0.199693 0.465999 0.207839 0.052955 -0.038373 0.050977 -0.342039 -0.144049 0.239755 -0.245244 -0.117425 -0.344280 0.438203 -0.296763 0.382048 0.017801 -0.019294 -0.044786 0.308448 0.032773 0.185879 0.102853 0.201658 0.409499 0.097222 0.109463 -0.338761 0.069432 -0.313067 -0.100248 -0.154900 0.353885 0.116818 0.550883 -0.038642 -0.360656 0.465808 -0.301147 -0.369242 0.282244 0.341465 0.329675 -0.262406 -0.191837 -0.375913 -0.686711 -0.001510 0.201413 0.024044 0.147482 0.169925 -0.254975 -0.367777 -0.017471 -0.140800 -0.215416 -0.365850 -0.023034 0.189039 0.267765 0.885719 0.252126 -0.127130 0.199113 -0.046666 0.031249 0.165934 -0.028077
chor -0.443326 0.090871 -0.051898 0.040874 0.104230 0.310275 0.133659 0.207393 0.155031 0.028094 0.378661 -0.238546 0.338651 -0.312648 0.167609 -0.437166 -0.098426 0.053928 -0.043944 0.034868 0.134415 0.447731 0.101078 0.113651 -0.215876 -0.237682 -0.564684 0.006551 0.123371 0.048991 -0.298135 -0.014611 -0.191035 0.455288 0.196641 0.059276 -0.040299 0.037944 -0.329275 -0.127031 0.219588 -0.264134 -0.118456 -0.358053 0.428148 -0.281894 0.383127 0.011494 -0.045451 -0.032720 0.287390 0.017914 0.188529 0.088011 0.199128 0.406715 0.095686 0.112215 -0.343043 0.076826 -0.320170 -0.093285 -0.157636 0.344236 0.114023 0.531542 -0.012727 -0.354159 0.439552 -0.289053 -0.361605 0.285813 0.340893 0.300448 -0.265935 -0.190848 -0.367925 -0.652755 -0.021460 0.198471 0.021290 0.133675 0.171782 -0.265621 -0.362843 -0.017851 -0.164686 -0.205860 -0.357666 -0.025465 0.170235 0.265874 0.860498 0.232507 -0.120404 0.187123 -0.039292 0.020635 0.171327 -0.046070
sho -0.487509 0.101660 -0.054576 0.042688 0.115636 0.341557 0.140484 0.238701 0.173102 0.030833 0.409512 -0.263082 0.371543 -0.338890 0.182442 -0.483828 -0.112335 0.064524 -0.052223 0.045480 0.148314 0.497309 0.103604 0.132255 -0.233601 -0.261503 -0.614541 0.003594 0.134096 0.057315 -0.330331 -0.007125 -0.217206 0.500522 0.212379 0.058344 -0.040438 0.046031 -0.357725 -0.131793 0.247814 -0.287837 -0.133600 -0.393781 0.474069 -0.306715 0.416764 0.011874 -0.044102 -0.041080 0.316603 0.016160 0.209707 0.096072 0.225475 0.449809 0.101557 0.125100 -0.370549 0.088075 -0.345976 -0.103576 -0.178709 0.377352 0.131477 0.583562 -0.012104 -0.386443 0.483069 -0.328677 -0.393599 0.313129 0.366565 0.340107 -0.284809 -0.211016 -0.397826 -0.725631 -0.017081 0.221715 0.017447 0.142076 0.183540 -0.289102 -0.402225 -0.017652 -0.172735 -0.226007 -0.390067 -0.029120 0.188711 0.297168 0.947529 0.261449 -0.134499 0.206920 -0.046052 0.026891 0.191011 -0.049338
qokeey -0.431796 0.088090 -0.054981 0.034339 0.105064 0.291241 0.124772 0.208137 0.149868 0.029543 0.374193 -0.243369 0.348041 -0.311486 0.168681 -0.436677 -0.089969 0.051932 -0.051208 0.027409 0.134002 0.454167 0.090909 0.120953 -0.230616 -0.236119 -0.563203 0.005761 0.130530 0.042399 -0.292305 -0.021212 -0.198505 0.454327 0.201959 0.052086 -0.032893 0.047095 -0.334585 -0.146661 0.229350 -0.246439 -0.119739 -0.337469 0.425872 -0.290312 0.377742 0.016168 -0.032286 -0.044148 0.296432 0.030240 0.189428 0.098216 0.199008 0.395020 0.090399 0.097559 -0.328798 0.064342 -0.305664 -0.095396 -0.151776 0.344616 0.108313 0.528434 -0.028735 -0.349956 0.439328 -0.299175 -0.358381 0.279170 0.339348 0.317543 -0.257067 -0.182313 -0.368238 -0.665680 0.000686 0.189845 0.024715 0.138220 0.164511 -0.250106 -0.357301 -0.011104 -0.147973 -0.210395 -0.355009 -0.021943 0.184380 0.264844 0.861520 0.238114 -0.119307 0.186670 -0.041479 0.032135 0.167028 -0.026440
qokain -0.389987 0.082865 -0.053896 0.020316 0.087470 0.264580 0.115438 0.194337 0.140239 0.036334 0.338730 -0.212747 0.322068 -0.282744 0.146023 -0.399717 -0.081299 0.050055 -0.045388 0.025769 0.119676 0.409489 0.081521 0.120679 -0.198886 -0.209954 -0.514768 0.000997 0.116058 0.032096 -0.259063 -0.021152 -0.177675 0.410095 0.181467 0.041764 -0.035376 0.039220 -0.307472 -0.132950 0.210528 -0.228374 -0.104498 -0.310034 0.384268 -0.261655 0.341144 0.013345 -0.026841 -0.037268 0.267075 0.021584 0.163964 0.091838 0.183925 0.358302 0.088529 0.097012 -0.298370 0.062787 -0.284639 -0.088552 -0.144393 0.317591 0.103172 0.484406 -0.028307 -0.314883 0.407489 -0.273594 -0.326464 0.250281 0.305163 0.288750 -0.230559 -0.162016 -0.333114 -0.605089 -0.004830 0.180484 0.022664 0.132976 0.146813 -0.228295 -0.327927 -0.005904 -0.127097 -0.197456 -0.321934 -0.014212 0.163249 0.237088 0.778571 0.224388 -0.107480 0.171736 -0.044662 0.031975 0.147506 -0.022208
qokedy -0.414077 0.090345 -0.054797 0.036541 0.095054 0.292331 0.127238 0.209375 0.153857 0.032176 0.369295 -0.235240 0.345392 -0.304312 0.153994 -0.439154 -0.086706 0.049659 -0.052648 0.029564 0.133280 0.448090 0.086802 0.127604 -0.233201 -0.233452 -0.562015 0.001972 0.129996 0.041364 -0.276479 -0.029452 -0.201911 0.445045 0.191842 0.045447 -0.031840 0.044708 -0.340559 -0.146882 0.227533 -0.233818 -0.116659 -0.330575 0.427128 -0.284624 0.373343 0.016982 -0.014733 -0.039176 0.296833 0.034098 0.181106 0.099033 0.195352 0.389798 0.092079 0.108320 -0.330340 0.062095 -0.295861 -0.092104 -0.149703 0.340871 0.110021 0.531370 -0.038999 -0.344467 0.449584 -0.293976 -0.355076 0.271924 0.324736 0.321966 -0.253186 -0.179808 -0.357398 -0.661343 0.004083 0.194457 0.019478 0.140691 0.157305 -0.243267 -0.363014 -0.019668 -0.142019 -0.211029 -0.349144 -0.020526 0.186817 0.259717 0.846794 0.243922 -0.120619 0.198597 -0.038237 0.029793 0.161935 -0.026799
che -0.480305 0.098167 -0.059918 0.041886 0.112628 0.326073 0.144953 0.234559 0.173194 0.037852 0.410089 -0.256521 0.377892 -0.336036 0.184215 -0.485735 -0.103885 0.061992 -0.060710 0.038919 0.140199 0.491381 0.105513 0.128773 -0.240202 -0.258953 -0.618270 0.008669 0.132716 0.049151 -0.314369 -0.013617 -0.217349 0.493104 0.218493 0.055990 -0.038494 0.040518 -0.359936 -0.145663 0.246873 -0.281420 -0.137688 -0.380193 0.473703 -0.305984 0.410697 0.016071 -0.032100 -0.039035 0.319680 0.024263 0.197767 0.097041 0.222152 0.440827 0.103019 0.117509 -0.371878 0.076821 -0.346365 -0.101209 -0.172062 0.379452 0.125707 0.579934 -0.017347 -0.377950 0.483373 -0.325532 -0.394339 0.305542 0.372231 0.341248 -0.282617 -0.207188 -0.401853 -0.720293 -0.015093 0.216068 0.026548 0.154299 0.185330 -0.279142 -0.401314 -0.013617 -0.161927 -0.228909 -0.389240 -0.026216 0.192232 0.288232 0.945362 0.256026 -0.128931 0.206102 -0.052118 0.033076 0.181758 -0.036146
qol -0.362417 0.078918 -0.057645 0.020956 0.084810 0.247853 0.108792 0.180358 0.138533 0.028226 0.322888 -0.202833 0.308034 -0.265374 0.136418 -0.378446 -0.076017 0.038643 -0.046896 0.018122 0.121970 0.396878 0.075880 0.114646 -0.202979 -0.202866 -0.492548 0.007605 0.114877 0.035230 -0.248926 -0.028120 -0.164393 0.392169 0.171073 0.040868 -0.024959 0.038019 -0.295296 -0.131226 0.197557 -0.206694 -0.100651 -0.285321 0.376455 -0.246021 0.324738 0.021677 -0.020259 -0.037455 0.260657 0.023324 0.161760 0.086757 0.166769 0.340090 0.081405 0.084271 -0.282390 0.057970 -0.263516 -0.080879 -0.127063 0.300980 0.097954 0.467456 -0.039454 -0.294121 0.390987 -0.255162 -0.306023 0.241415 0.294637 0.281771 -0.227532 -0.157348 -0.315640 -0.578776 -0.002107 0.164677 0.014842 0.125511 0.143741 -0.220753 -0.313852 -0.010232 -0.115165 -0.186984 -0.303062 -0.016520 0.168267 0.229971 0.747947 0.212690 -0.106339 0.164020 -0.042296 0.026320 0.147007 -0.021567
shol -0.425410 0.082964 -0.042922 0.032929 0.099632 0.290561 0.129272 0.206410 0.156242 0.022628 0.362661 -0.227852 0.333871 -0.300079 0.152903 -0.418183 -0.088255 0.053177 -0.049489 0.039441 0.120438 0.437053 0.093190 0.108430 -0.201657 -0.230829 -0.543511 0.006069 0.113631 0.047536 -0.289491 -0.008570 -0.190195 0.442857 0.187214 0.054414 -0.030089 0.045002 -0.314291 -0.117107 0.218366 -0.251849 -0.121225 -0.346256 0.419955 -0.266127 0.361958 0.017007 -0.035995 -0.034620 0.278037 0.015032 0.181354 0.082680 0.189234 0.392862 0.093677 0.110737 -0.328990 0.073434 -0.298217 -0.086318 -0.156199 0.325656 0.116079 0.510704 -0.018320 -0.340654 0.425459 -0.286247 -0.347223 0.277075 0.325136 0.293982 -0.257906 -0.183167 -0.348962 -0.632301 -0.008537 0.186139 0.017770 0.131584 0.161489 -0.251730 -0.356913 -0.012963 -0.153268 -0.199061 -0.347568 -0.022820 0.168185 0.261516 0.830405 0.225779 -0.117992 0.182556 -0.039150 0.029221 0.161997 -0.038995
cheey -0.432193 0.094814 -0.050400 0.037972 0.103700 0.301797 0.127150 0.214907 0.158692 0.032249 0.381174 -0.245558 0.353883 -0.313030 0.160788 -0.441062 -0.092813 0.052077 -0.048642 0.027306 0.135177 0.457294 0.092574 0.121881 -0.221791 -0.238615 -0.566793 0.009019 0.128660 0.051627 -0.296527 -0.018035 -0.194804 0.459239 0.191919 0.053602 -0.034289 0.043787 -0.330684 -0.128809 0.233493 -0.257148 -0.120143 -0.353870 0.437270 -0.284911 0.375512 0.021851 -0.031886 -0.036984 0.297145 0.018849 0.182124 0.099678 0.204283 0.408104 0.092252 0.109618 -0.337680 0.070830 -0.310853 -0.093673 -0.157742 0.346901 0.113524 0.540782 -0.022065 -0.348936 0.446083 -0.300743 -0.358814 0.278590 0.337167 0.316207 -0.260047 -0.192286 -0.367095 -0.671458 -0.010273 0.196246 0.019275 0.142459 0.166547 -0.255006 -0.360574 -0.012415 -0.149520 -0.209402 -0.351374 -0.023186 0.182648 0.270291 0.861294 0.235044 -0.127277 0.189488 -0.045436 0.029439 0.169091 -0.033294
cheol -0.416174 0.083420 -0.049302 0.027024 0.094593 0.288245 0.124775 0.201262 0.147939 0.033057 0.356563 -0.226974 0.324740 -0.301274 0.153537 -0.422418 -0.092083 0.058805 -0.050718 0.033109 0.127924 0.430993 0.094185 0.111287 -0.206984 -0.231189 -0.531732 0.004419 0.120593 0.044839 -0.286733 -0.013025 -0.186273 0.430847 0.183979 0.053450 -0.036119 0.034391 -0.320591 -0.124201 0.222073 -0.247819 -0.119909 -0.335458 0.410224 -0.268186 0.359117 0.020483 -0.034106 -0.032351 0.278176 0.023817 0.175678 0.089326 0.190983 0.385839 0.088720 0.101785 -0.319465 0.068579 -0.293564 -0.091181 -0.146632 0.327517 0.115472 0.507699 -0.017637 -0.334206 0.418155 -0.288189 -0.343200 0.266609 0.323008 0.295681 -0.249950 -0.183444 -0.348418 -0.635473 -0.013299 0.191107 0.020203 0.129847 0.154812 -0.245282 -0.350973 -0.012984 -0.146689 -0.202678 -0.337943 -0.027818 0.172763 0.251839 0.821586 0.229728 -0.114865 0.180993 -0.042381 0.028856 0.158982 -0.030499
qo -0.494766 0.105145 -0.060868 0.044384 0.112879 0.338039 0.141793 0.232098 0.176177 0.028621 0.420277 -0.266386 0.389914 -0.348811 0.189357 -0.492841 -0.105323 0.060578 -0.052351 0.030638 0.155032 0.508950 0.107086 0.139280 -0.249661 -0.271203 -0.628633 0.000743 0.137902 0.059570 -0.326765 -0.017329 -0.221271 0.514614 0.219941 0.062975 -0.033540 0.047079 -0.367456 -0.145809 0.258283 -0.287687 -0.132176 -0.391752 0.480721 -0.315300 0.426716 0.018265 -0.044226 -0.041740 0.333245 0.024148 0.207048 0.101628 0.226533 0.454514 0.107282 0.119644 -0.373656 0.086623 -0.350034 -0.100923 -0.177980 0.379111 0.126427 0.595093 -0.018096 -0.391029 0.492877 -0.335472 -0.406247 0.314662 0.383018 0.353869 -0.296315 -0.211076 -0.405275 -0.746906 -0.016908 0.225555 0.028954 0.150760 0.184880 -0.290487 -0.402514 -0.018533 -0.166774 -0.235310 -0.396846 -0.022192 0.200117 0.299507 0.970366 0.265585 -0.132468 0.212966 -0.052064 0.033445 0.193697 -0.045787
r -0.407629 0.081321 -0.055444 0.030048 0.100089 0.279704 0.114019 0.193178 0.146790 0.029442 0.354351 -0.227097 0.326198 -0.291463 0.151593 -0.411101 -0.083805 0.045278 -0.049902 0.030817 0.128520 0.425688 0.090266 0.109834 -0.201437 -0.220448 -0.528384 0.004100 0.121451 0.039380 -0.274635 -0.014347 -0.182171 0.427877 0.183248 0.044703 -0.025648 0.037112 -0.311531 -0.131007 0.216690 -0.238617 -0.112826 -0.322519 0.400366 -0.261716 0.351330 0.011553 -0.025219 -0.038800 0.277215 0.016896 0.178012 0.091747 0.185930 0.373409 0.087940 0.096705 -0.314985 0.067046 -0.294070 -0.084582 -0.145639 0.324754 0.110288 0.500351 -0.017313 -0.329219 0.416019 -0.274073 -0.334571 0.262524 0.309148 0.291233 -0.240606 -0.172086 -0.343915 -0.622308 -0.011818 0.177439 0.023770 0.131572 0.157503 -0.241686 -0.340681 -0.013015 -0.137746 -0.200842 -0.327872 -0.017549 0.168309 0.244433 0.808098 0.225095 -0.111436 0.172477 -0.043282 0.028346 0.153883 -0.036208
qokaiin -0.427251 0.092727 -0.056190 0.025913 0.100523 0.300899 0.121520 0.205731 0.161715 0.031354 0.375599 -0.241841 0.354396 -0.315344 0.165239 -0.443621 -0.086897 0.054533 -0.052209 0.025010 0.139260 0.452167 0.090663 0.121234 -0.226198 -0.233571 -0.560594 0.003267 0.128384 0.039114 -0.292214 -0.023906 -0.199334 0.447883 0.198849 0.055148 -0.032068 0.036850 -0.329997 -0.143995 0.234940 -0.250687 -0.121212 -0.346478 0.436287 -0.289186 0.378375 0.022722 -0.031174 -0.040334 0.297975 0.026505 0.189247 0.100267 0.200731 0.405088 0.095303 0.103759 -0.333094 0.074197 -0.309404 -0.087654 -0.153999 0.343599 0.110075 0.535456 -0.032764 -0.343855 0.449691 -0.302536 -0.356724 0.277237 0.334089 0.319000 -0.263137 -0.184580 -0.371235 -0.666209 -0.002180 0.195142 0.024638 0.143813 0.169302 -0.249105 -0.363811 -0.017235 -0.141501 -0.216500 -0.347053 -0.019448 0.178300 0.263048 0.863666 0.242068 -0.123988 0.189194 -0.043177 0.027268 0.169993 -0.028682
am -0.453798 0.093242 -0.054276 0.032444 0.104859 0.316065 0.135161 0.214250 0.166757 0.030976 0.384171 -0.246861 0.353416 -0.323865 0.167304 -0.457105 -0.099263 0.055506 -0.057507 0.032751 0.132744 0.468282 0.098795 0.128411 -0.223227 -0.247482 -0.580089 0.001999 0.123785 0.050296 -0.296357 -0.012825 -0.198387 0.467892 0.204634 0.059752 -0.034169 0.039350 -0.340360 -0.141834 0.231788 -0.266148 -0.128800 -0.363978 0.446461 -0.296132 0.385578 0.018434 -0.038243 -0.037944 0.305106 0.015771 0.190569 0.093092 0.204481 0.419360 0.091090 0.107178 -0.348047 0.076367 -0.325379 -0.094171 -0.167813 0.357058 0.122920 0.547069 -0.023701 -0.364565 0.461810 -0.303193 -0.372214 0.287870 0.343797 0.321179 -0.269260 -0.195749 -0.379719 -0.686306 -0.009842 0.201959 0.027409 0.138442 0.168726 -0.264824 -0.373773 -0.007227 -0.150723 -0.212960 -0.364126 -0.020760 0.176773 0.272295 0.895071 0.244654 -0.119859 0.199236 -0.049009 0.024823 0.171504 -0.037121
qokal -0.403189 0.086515 -0.050885 0.029539 0.100179 0.284366 0.119766 0.197163 0.153932 0.030592 0.359054 -0.228161 0.336349 -0.291891 0.151041 -0.425272 -0.080687 0.054802 -0.053438 0.030752 0.124247 0.428237 0.082197 0.117122 -0.218442 -0.223029 -0.537811 0.007575 0.119331 0.039426 -0.277325 -0.019267 -0.184646 0.427353 0.189324 0.048378 -0.032136 0.035597 -0.324735 -0.136136 0.217562 -0.238211 -0.118553 -0.320803 0.404080 -0.272207 0.355424 0.016836 -0.024793 -0.039679 0.278349 0.028946 0.178251 0.086952 0.191067 0.382265 0.093949 0.100670 -0.316267 0.059958 -0.298305 -0.081079 -0.149710 0.331684 0.108053 0.510864 -0.032161 -0.329243 0.430536 -0.285425 -0.338935 0.267946 0.315935 0.302652 -0.242914 -0.169344 -0.341393 -0.636251 -0.002997 0.189551 0.014119 0.133656 0.151574 -0.239055 -0.342478 -0.014784 -0.133299 -0.204199 -0.337694 -0.021982 0.178583 0.248445 0.819297 0.233580 -0.114298 0.181935 -0.040086 0.028060 0.156931 -0.022958
okaiin -0.405491 0.083928 -0.051034 0.029466 0.093040 0.275130 0.117387 0.191425 0.144843 0.030759 0.345692 -0.219026 0.321972 -0.288985 0.156444 -0.410792 -0.080824 0.053426 -0.052104 0.030919 0.120358 0.409219 0.085374 0.114077 -0.205011 -0.216918 -0.514898 0.003754 0.109385 0.043148 -0.268200 -0.013878 -0.185327 0.413884 0.183346 0.044103 -0.029045 0.034238 -0.302518 -0.121942 0.215063 -0.238135 -0.114831 -0.322676 0.403062 -0.262240 0.345956 0.011555 -0.028529 -0.038705 0.266995 0.023431 0.165155 0.084012 0.184162 0.366755 0.088034 0.095666 -0.307657 0.065908 -0.291346 -0.078581 -0.147084 0.315165 0.102286 0.487413 -0.011904 -0.318956 0.408823 -0.269791 -0.334422 0.258714 0.313358 0.288481 -0.241406 -0.167676 -0.333445 -0.614437 -0.009199 0.185077 0.026242 0.127954 0.153329 -0.234895 -0.336616 -0.013813 -0.134099 -0.192823 -0.326062 -0.024651 0.165079 0.249325 0.797854 0.215192 -0.109887 0.177973 -0.039810 0.028090 0.160105 -0.030811
shy -0.450515 0.091905 -0.046651 0.037443 0.107763 0.316453 0.133865 0.222958 0.163550 0.032659 0.394851 -0.246039 0.358007 -0.323535 0.171428 -0.453372 -0.094508 0.058266 -0.053894 0.042028 0.134061 0.469112 0.097230 0.119872 -0.225302 -0.251418 -0.579249 0.008772 0.124369 0.050334 -0.311637 -0.016308 -0.207441 0.472425 0.198894 0.060766 -0.031349 0.042418 -0.344833 -0.133204 0.238573 -0.272010 -0.126338 -0.365018 0.448277 -0.289623 0.393853 0.013606 -0.040903 -0.037692 0.298146 0.024760 0.197375 0.094144 0.208850 0.414129 0.099412 0.120940 -0.348294 0.077681 -0.323469 -0.091255 -0.168870 0.357152 0.116888 0.555555 -0.017906 -0.360486 0.462260 -0.303580 -0.365684 0.299634 0.345426 0.321638 -0.273633 -0.198032 -0.376880 -0.690294 -0.012678 0.205807 0.015535 0.144288 0.169661 -0.274723 -0.378715 -0.013248 -0.161491 -0.221697 -0.370854 -0.031389 0.179786 0.271822 0.895821 0.238913 -0.132038 0.190832 -0.042815 0.025999 0.178130 -0.041140
chdy -0.439636 0.091452 -0.053664 0.029387 0.101705 0.307493 0.134399 0.218479 0.166623 0.034621 0.379984 -0.248193 0.356361 -0.313816 0.161863 -0.451581 -0.092148 0.055868 -0.053323 0.027780 0.129505 0.458033 0.092661 0.125414 -0.222926 -0.243373 -0.578619 0.004469 0.131294 0.044878 -0.293470 -0.016603 -0.201703 0.458136 0.197721 0.055363 -0.034335 0.044557 -0.335386 -0.136783 0.233065 -0.255494 -0.127298 -0.351349 0.444165 -0.287716 0.380982 0.017383 -0.032140 -0.036779 0.298178 0.021759 0.186155 0.092111 0.199516 0.406691 0.100119 0.110086 -0.346352 0.073117 -0.318677 -0.089157 -0.155383 0.346369 0.118233 0.544421 -0.027396 -0.353262 0.454332 -0.298755 -0.365005 0.285526 0.347017 0.320505 -0.265568 -0.190032 -0.372065 -0.676016 -0.005941 0.202809 0.020324 0.140870 0.168502 -0.257906 -0.374605 -0.017139 -0.149888 -0.209603 -0.361414 -0.028256 0.180881 0.267037 0.882556 0.247447 -0.128948 0.194900 -0.044884 0.024585 0.174369 -0.031813
sh -0.448946 0.089274 -0.054847 0.033787 0.105626 0.305317 0.131784 0.212042 0.163652 0.033266 0.387208 -0.237924 0.345690 -0.315741 0.170820 -0.452502 -0.094811 0.055256 -0.049089 0.033587 0.128612 0.452817 0.101377 0.118025 -0.218857 -0.243963 -0.574274 0.004087 0.130505 0.054297 -0.294982 -0.014470 -0.195270 0.459297 0.202347 0.053797 -0.035954 0.045722 -0.331701 -0.130712 0.224699 -0.266362 -0.120217 -0.362348 0.434243 -0.289608 0.384662 0.018671 -0.037442 -0.039748 0.291631 0.017444 0.188623 0.095826 0.207663 0.414944 0.098939 0.111723 -0.339782 0.079955 -0.315929 -0.094878 -0.157829 0.343187 0.118577 0.545075 -0.014324 -0.358871 0.450670 -0.303161 -0.367673 0.289961 0.340631 0.316268 -0.268181 -0.190741 -0.365787 -0.675910 -0.014375 0.199821 0.018358 0.138407 0.171331 -0.266785 -0.365227 -0.008441 -0.154930 -0.216562 -0.363689 -0.020039 0.177417 0.273571 0.875443 0.243248 -0.127710 0.195419 -0.043286 0.022227 0.167452 -0.034972
she -0.456643 0.100408 -0.052868 0.040680 0.109582 0.315073 0.131475 0.220258 0.168133 0.028021 0.392893 -0.255826 0.367461 -0.323687 0.173666 -0.465304 -0.094741 0.064558 -0.059871 0.037039 0.141396 0.468596 0.098792 0.119948 -0.236154 -0.248129 -0.589020 0.003522 0.129119 0.050945 -0.305819 -0.015008 -0.202531 0.476087 0.199360 0.057094 -0.037866 0.050656 -0.354582 -0.143834 0.234750 -0.268920 -0.130912 -0.363913 0.457907 -0.291928 0.399611 0.013331 -0.033092 -0.037138 0.309830 0.026559 0.192011 0.095789 0.205866 0.419410 0.096411 0.115873 -0.347211 0.078053 -0.331799 -0.097342 -0.166501 0.356681 0.123829 0.556333 -0.025911 -0.363276 0.466467 -0.311611 -0.379379 0.299002 0.351167 0.334649 -0.277699 -0.198326 -0.382997 -0.697578 -0.006990 0.206389 0.025516 0.140652 0.178331 -0.269933 -0.381922 -0.019807 -0.162598 -0.223845 -0.375985 -0.024717 0.188312 0.280983 0.913295 0.254934 -0.123665 0.196691 -0.043541 0.026993 0.173069 -0.035994
ain -0.426837 0.087998 -0.053763 0.032729 0.099921 0.302753 0.125282 0.204375 0.152507 0.033652 0.377426 -0.239912 0.348639 -0.313464 0.164959 -0.438522 -0.093144 0.052300 -0.045843 0.032040 0.131339 0.447309 0.092795 0.119450 -0.218373 -0.231726 -0.561933 0.009666 0.122798 0.050783 -0.285077 -0.015145 -0.192972 0.455981 0.198937 0.054048 -0.029597 0.039247 -0.333282 -0.132860 0.222552 -0.251557 -0.124895 -0.349293 0.428884 -0.284704 0.371735 0.022547 -0.034492 -0.042929 0.296917 0.016513 0.187161 0.099212 0.203514 0.402447 0.091545 0.109056 -0.329448 0.068801 -0.311023 -0.093423 -0.157569 0.337135 0.111491 0.527551 -0.018611 -0.350039 0.437748 -0.296756 -0.357325 0.279940 0.336030 0.306952 -0.259660 -0.185190 -0.369937 -0.665702 -0.014283 0.200945 0.027912 0.135460 0.167969 -0.256095 -0.360984 -0.014513 -0.144260 -0.208912 -0.353544 -0.021920 0.179619 0.264218 0.860290 0.235513 -0.121464 0.191828 -0.049354 0.027277 0.168691 -0.032173
cheo -0.450683 0.096344 -0.045561 0.033729 0.109322 0.312443 0.133457 0.216713 0.157251 0.024247 0.384916 -0.249035 0.344972 -0.319210 0.162999 -0.446119 -0.102221 0.056828 -0.054279 0.030814 0.131176 0.457088 0.101420 0.118722 -0.226211 -0.236089 -0.567374 0.003620 0.128838 0.046306 -0.302681 -0.017556 -0.194753 0.467179 0.194250 0.053648 -0.034536 0.044936 -0.330923 -0.133262 0.227847 -0.261459 -0.126444 -0.364605 0.441448 -0.281656 0.382954 0.019825 -0.035143 -0.037090 0.297853 0.014696 0.193309 0.096042 0.210039 0.410432 0.099677 0.113412 -0.342749 0.077539 -0.314778 -0.092704 -0.166180 0.342245 0.124801 0.539660 -0.016140 -0.353170 0.447869 -0.302434 -0.359379 0.290230 0.339864 0.318531 -0.271416 -0.196707 -0.373183 -0.676776 -0.012217 0.201957 0.023741 0.132543 0.173586 -0.260733 -0.375179 -0.009069 -0.162161 -0.215467 -0.356402 -0.027884 0.179253 0.268152 0.880993 0.239737 -0.119297 0.184760 -0.041056 0.023145 0.169614 -0.038549
okal -0.422110 0.093420 -0.049063 0.025855 0.094848 0.296052 0.124590 0.207457 0.150767 0.029627 0.368983 -0.232859 0.333106 -0.296933 0.160808 -0.432648 -0.086579 0.052766 -0.050477 0.024445 0.131283 0.436548 0.090259 0.113971 -0.215034 -0.232331 -0.541839 0.006401 0.114703 0.042502 -0.280211 -0.017736 -0.195245 0.432671 0.191298 0.048481 -0.029085 0.039005 -0.328874 -0.135620 0.222796 -0.246626 -0.122426 -0.332370 0.415359 -0.273523 0.361555 0.017034 -0.033850 -0.030487 0.286639 0.024329 0.177075 0.090300 0.193967 0.387621 0.092546 0.106051 -0.327887 0.068529 -0.304571 -0.087052 -0.151516 0.333307 0.109922 0.510956 -0.018499 -0.334666 0.431105 -0.288653 -0.350893 0.275113 0.331955 0.307863 -0.249233 -0.177669 -0.349306 -0.645958 -0.004161 0.194519 0.021340 0.135912 0.162599 -0.244929 -0.356784 -0.015555 -0.145968 -0.205715 -0.338450 -0.023787 0.168251 0.252128 0.837179 0.236477 -0.117814 0.190571 -0.041982 0.028541 0.167707 -0.031385
t -0.450045 0.086918 -0.057084 0.039774 0.105201 0.304370 0.132457 0.216139 0.160010 0.033184 0.387040 -0.244481 0.357360 -0.323231 0.170307 -0.447165 -0.101728 0.054320 -0.050338 0.031654 0.133446 0.459968 0.092634 0.122995 -0.217147 -0.239201 -0.577254 0.003347 0.121915 0.054439 -0.304104 -0.015533 -0.197817 0.458701 0.197777 0.050957 -0.039697 0.043586 -0.335424 -0.139097 0.231056 -0.259777 -0.123566 -0.359672 0.443109 -0.293313 0.390853 0.012002 -0.029533 -0.040170 0.292262 0.017918 0.187228 0.092056 0.209208 0.408211 0.091253 0.111578 -0.339333 0.076190 -0.316485 -0.094241 -0.160922 0.345477 0.115294 0.546953 -0.016252 -0.358912 0.450591 -0.298107 -0.361592 0.291702 0.344290 0.321542 -0.265559 -0.190437 -0.375256 -0.677750 -0.010429 0.205820 0.025307 0.140441 0.171897 -0.261471 -0.370480 -0.012130 -0.158526 -0.213538 -0.365809 -0.020888 0.177694 0.269275 0.876433 0.236585 -0.122568 0.190706 -0.047114 0.029144 0.170928 -0.037977
sheey -0.424205 0.086910 -0.054027 0.031623 0.105053 0.293415 0.120780 0.201912 0.154806 0.026209 0.374431 -0.235405 0.343235 -0.303286 0.160078 -0.436078 -0.089114 0.048410 -0.051815 0.027465 0.129887 0.448172 0.091029 0.123618 -0.214650 -0.228792 -0.550759 0.004190 0.120226 0.047738 -0.290020 -0.020562 -0.191998 0.442970 0.196361 0.047684 -0.039603 0.042309 -0.323906 -0.132919 0.225127 -0.251185 -0.117758 -0.348776 0.429599 -0.281675 0.367479 0.024068 -0.028412 -0.038084 0.291328 0.022520 0.180363 0.096763 0.194875 0.392803 0.096088 0.100197 -0.327968 0.072597 -0.308450 -0.084584 -0.153294 0.335182 0.108137 0.530677 -0.024717 -0.348940 0.440088 -0.287389 -0.352468 0.279710 0.337123 0.304323 -0.253178 -0.179873 -0.363075 -0.660535 -0.012515 0.190163 0.020745 0.132392 0.160363 -0.249661 -0.351730 -0.009169 -0.142879 -0.209742 -0.350421 -0.021429 0.170744 0.264712 0.851208 0.236643 -0.119428 0.191245 -0.041788 0.025774 0.168768 -0.036625
okeey -0.457534 0.094584 -0.051210 0.030291 0.109008 0.310020 0.133036 0.220004 0.158113 0.035981 0.391164 -0.249193 0.359499 -0.328939 0.173760 -0.459212 -0.099066 0.057792 -0.055831 0.027684 0.142121 0.470313 0.094744 0.131326 -0.232251 -0.246124 -0.584517 0.000459 0.128667 0.042800 -0.303365 -0.014064 -0.201378 0.473601 0.207843 0.056313 -0.031362 0.038663 -0.355137 -0.147784 0.242130 -0.259819 -0.130729 -0.367430 0.445570 -0.298792 0.388476 0.020740 -0.033520 -0.044775 0.305158 0.022178 0.189277 0.096706 0.208204 0.421990 0.092458 0.114306 -0.353645 0.069018 -0.329015 -0.098289 -0.168260 0.361299 0.118297 0.564574 -0.027512 -0.360905 0.461883 -0.311794 -0.369212 0.297710 0.351320 0.332081 -0.274874 -0.198462 -0.389471 -0.702016 -0.009051 0.203591 0.022853 0.148684 0.169657 -0.269562 -0.376613 -0.016092 -0.156558 -0.221500 -0.364147 -0.028283 0.183968 0.273862 0.904776 0.254196 -0.121293 0.196309 -0.043754 0.028055 0.177096 -0.039119
saiin -0.447681 0.100057 -0.052379 0.036690 0.108151 0.308871 0.130104 0.219580 0.162330 0.031216 0.394652 -0.251469 0.364176 -0.324809 0.165519 -0.458033 -0.091918 0.060453 -0.051475 0.036105 0.143544 0.464239 0.094115 0.123287 -0.234289 -0.243228 -0.586374 0.004226 0.136501 0.052073 -0.306129 -0.015063 -0.198921 0.472455 0.207303 0.057968 -0.033955 0.043560 -0.351260 -0.137135 0.232628 -0.265479 -0.121227 -0.363906 0.452528 -0.291754 0.392183 0.013635 -0.037482 -0.036149 0.305132 0.018988 0.195884 0.103045 0.210828 0.417636 0.100623 0.111816 -0.349268 0.075043 -0.319285 -0.095641 -0.165491 0.357173 0.116381 0.550886 -0.026721 -0.359356 0.464557 -0.303834 -0.369885 0.295053 0.346277 0.325522 -0.271816 -0.197709 -0.383521 -0.697525 -0.011417 0.202254 0.027761 0.141983 0.169243 -0.270920 -0.373643 -0.017246 -0.156328 -0.216159 -0.367817 -0.029768 0.187118 0.278685 0.902784 0.249974 -0.128015 0.198626 -0.048373 0.031730 0.176488 -0.037212
okain -0.425863 0.086111 -0.054416 0.027832 0.097618 0.289878 0.119989 0.206400 0.156373 0.033292 0.369013 -0.238251 0.341882 -0.310320 0.166882 -0.437904 -0.088421 0.050366 -0.053235 0.028377 0.134460 0.448004 0.087770 0.120940 -0.213465 -0.237886 -0.556498 0.000291 0.129511 0.041752 -0.292468 -0.013948 -0.189697 0.443312 0.192933 0.053649 -0.031300 0.041724 -0.332315 -0.136330 0.225754 -0.251483 -0.123201 -0.347685 0.424681 -0.285443 0.373131 0.020028 -0.034338 -0.036434 0.291897 0.018485 0.182687 0.092188 0.192721 0.397573 0.096121 0.108442 -0.326635 0.071940 -0.313659 -0.093072 -0.153896 0.344958 0.113874 0.532437 -0.024930 -0.344293 0.435192 -0.290233 -0.350131 0.275483 0.333072 0.316508 -0.255225 -0.178544 -0.359868 -0.663077 -0.005183 0.193612 0.024403 0.134618 0.166389 -0.256732 -0.357540 -0.008213 -0.142772 -0.211261 -0.345535 -0.021699 0.177746 0.265335 0.852699 0.232154 -0.119771 0.194350 -0.045046 0.034563 0.163857 -0.032312
otal -0.403777 0.089620 -0.046433 0.031748 0.098071 0.282739 0.120147 0.196371 0.143421 0.033737 0.350429 -0.227799 0.317533 -0.288971 0.154725 -0.405641 -0.084438 0.052997 -0.045658 0.032861 0.120568 0.419853 0.093304 0.111252 -0.205299 -0.221625 -0.517944 0.000539 0.111497 0.045270 -0.265717 -0.013533 -0.181627 0.421876 0.180588 0.052925 -0.033846 0.034997 -0.310915 -0.130078 0.214306 -0.241563 -0.109914 -0.320949 0.403379 -0.264548 0.351477 0.013959 -0.032920 -0.032284 0.267098 0.023879 0.175482 0.089085 0.178776 0.370215 0.083137 0.103591 -0.310102 0.066963 -0.290410 -0.083575 -0.151407 0.315863 0.107837 0.491894 -0.014507 -0.327219 0.412698 -0.276646 -0.328452 0.261255 0.312725 0.287512 -0.239233 -0.168835 -0.342438 -0.617116 -0.009189 0.183406 0.022554 0.121973 0.150088 -0.234997 -0.342627 -0.009586 -0.136713 -0.197542 -0.329746 -0.024521 0.159960 0.249245 0.802995 0.225387 -0.106505 0.177692 -0.038286 0.030177 0.161120 -0.027728
dol -0.434082 0.091289 -0.043543 0.038064 0.099715 0.308140 0.133139 0.217880 0.162566 0.034375 0.380883 -0.236981 0.350242 -0.305853 0.159562 -0.438317 -0.098771 0.052919 -0.054250 0.031299 0.131641 0.451201 0.097315 0.113412 -0.221655 -0.238502 -0.563205 0.001014 0.124110 0.047616 -0.298896 -0.013733 -0.195808 0.460549 0.190355 0.055121 -0.037848 0.043593 -0.337194 -0.135232 0.230035 -0.254334 -0.126202 -0.349602 0.432957 -0.286189 0.383952 0.020679 -0.025831 -0.031942 0.295337 0.026330 0.188767 0.097473 0.203239 0.399167 0.094664 0.116345 -0.334861 0.071948 -0.315922 -0.088287 -0.161171 0.344853 0.121117 0.530355 -0.017050 -0.347009 0.448925 -0.301672 -0.362578 0.282433 0.335222 0.314540 -0.265896 -0.186142 -0.365346 -0.658790 -0.008534 0.201244 0.020222 0.139014 0.164773 -0.254553 -0.362536 -0.019684 -0.150891 -0.214619 -0.351897 -0.023608 0.177555 0.261211 0.866345 0.239078 -0.127833 0.185576 -0.046177 0.029949 0.173694 -0.038289
p -0.453959 0.091331 -0.056328 0.041397 0.111593 0.316856 0.129809 0.213117 0.166308 0.028675 0.395325 -0.251265 0.361776 -0.326644 0.172695 -0.454247 -0.100363 0.058287 -0.047668 0.038984 0.138907 0.469898 0.097563 0.128569 -0.230128 -0.244608 -0.585933 -0.000062 0.124931 0.048961 -0.303670 -0.015781 -0.200532 0.468821 0.206036 0.053959 -0.038202 0.036773 -0.342765 -0.137986 0.230433 -0.262248 -0.123228 -0.367237 0.447332 -0.296552 0.389887 0.015742 -0.035111 -0.039936 0.305134 0.025240 0.195620 0.097187 0.208111 0.419101 0.092595 0.113183 -0.347575 0.078500 -0.320354 -0.092253 -0.166258 0.348943 0.120146 0.547591 -0.013818 -0.359147 0.461145 -0.304430 -0.367954 0.291714 0.353071 0.321022 -0.268147 -0.190621 -0.378209 -0.682951 -0.008513 0.199021 0.026503 0.137229 0.173256 -0.261121 -0.375651 -0.014590 -0.163306 -0.220414 -0.369188 -0.024139 0.181414 0.271604 0.892315 0.250970 -0.129141 0.192288 -0.046762 0.023458 0.173067 -0.035176
cthy -0.415576 0.085280 -0.039478 0.030867 0.103979 0.287844 0.118220 0.203053 0.145694 0.020233 0.350017 -0.225984 0.324339 -0.286609 0.148093 -0.410287 -0.093203 0.054418 -0.046373 0.031960 0.120370 0.424978 0.084947 0.105077 -0.198013 -0.228317 -0.526025 -0.000956 0.115814 0.048139 -0.275661 -0.015539 -0.182743 0.429917 0.183768 0.050019 -0.031024 0.035751 -0.309439 -0.118402 0.209128 -0.247527 -0.113109 -0.329833 0.405383 -0.257480 0.357093 0.014351 -0.033696 -0.027216 0.269496 0.012056 0.179716 0.088358 0.193503 0.379922 0.092763 0.107299 -0.317955 0.068788 -0.298790 -0.085488 -0.154381 0.318035 0.115484 0.493882 -0.007334 -0.331347 0.416686 -0.279981 -0.339637 0.272648 0.320890 0.290875 -0.246001 -0.178684 -0.345561 -0.614395 -0.018880 0.183892 0.018821 0.130526 0.155122 -0.249449 -0.341332 -0.019060 -0.155407 -0.196677 -0.328480 -0.025465 0.160656 0.249945 0.804999 0.215829 -0.119392 0.177690 -0.035924 0.021802 0.162277 -0.036364
dam -0.425229 0.094266 -0.043450 0.033668 0.100345 0.296106 0.131351 0.202063 0.155584 0.029234 0.367333 -0.238132 0.333239 -0.303276 0.155775 -0.432164 -0.089607 0.060765 -0.045825 0.032504 0.129916 0.437241 0.096304 0.112656 -0.214813 -0.230616 -0.551031 0.002480 0.124475 0.043798 -0.291293 -0.017506 -0.194820 0.442398 0.193250 0.047982 -0.030703 0.037517 -0.322994 -0.125931 0.224619 -0.251401 -0.124701 -0.341927 0.417273 -0.279383 0.372121 0.017475 -0.029734 -0.032414 0.280034 0.020184 0.178714 0.085771 0.196376 0.390968 0.089394 0.106472 -0.332909 0.075137 -0.305852 -0.092916 -0.152596 0.335249 0.115907 0.522764 -0.014363 -0.345032 0.431584 -0.286048 -0.348872 0.275326 0.329635 0.299722 -0.252431 -0.179282 -0.354626 -0.653058 -0.010986 0.197428 0.019649 0.133581 0.158294 -0.248999 -0.356761 -0.013495 -0.151532 -0.207454 -0.348975 -0.020155 0.166192 0.265110 0.847085 0.227970 -0.123179 0.182010 -0.048563 0.027671 0.168918 -0.041747
k -0.434299 0.086320 -0.049664 0.030131 0.104775 0.304885 0.131912 0.206978 0.150739 0.033498 0.369815 -0.238291 0.340457 -0.311572 0.157580 -0.427635 -0.100369 0.057563 -0.052415 0.029106 0.127493 0.444906 0.098360 0.121362 -0.213814 -0.237116 -0.551076 0.000766 0.119098 0.044230 -0.289756 -0.012071 -0.189726 0.445444 0.186682 0.058100 -0.035322 0.034210 -0.328367 -0.131987 0.222752 -0.253808 -0.122825 -0.350224 0.421525 -0.275798 0.376099 0.009964 -0.036541 -0.038105 0.286395 0.023432 0.187042 0.087090 0.196801 0.391793 0.088748 0.115370 -0.328666 0.078115 -0.312987 -0.090540 -0.161679 0.332008 0.119740 0.521370 -0.018020 -0.345572 0.429294 -0.286372 -0.353927 0.282711 0.331926 0.307980 -0.262214 -0.185471 -0.361158 -0.648002 -0.011887 0.197976 0.023053 0.136152 0.166571 -0.253583 -0.352765 -0.018517 -0.149175 -0.206266 -0.350924 -0.024381 0.174804 0.266635 0.850224 0.235399 -0.119145 0.189581 -0.044684 0.024253 0.164391 -0.036511
otar -0.430041 0.093820 -0.054955 0.031462 0.100916 0.302490 0.129696 0.205228 0.163994 0.036489 0.379438 -0.237323 0.345336 -0.313184 0.158444 -0.443867 -0.092243 0.061023 -0.050317 0.033340 0.126733 0.443854 0.098628 0.122392 -0.217572 -0.240592 -0.564625 0.001889 0.126275 0.044330 -0.285037 -0.010730 -0.201929 0.447787 0.198132 0.048555 -0.035793 0.034023 -0.333601 -0.129871 0.227826 -0.250676 -0.119152 -0.346292 0.435092 -0.284701 0.379993 0.021007 -0.026062 -0.038183 0.290488 0.015443 0.183555 0.095865 0.192926 0.396859 0.090999 0.107980 -0.329988 0.074341 -0.309121 -0.093091 -0.157344 0.345449 0.120811 0.530460 -0.023065 -0.347533 0.445936 -0.297179 -0.355757 0.281575 0.335427 0.310667 -0.255357 -0.181085 -0.369759 -0.661586 -0.013072 0.194704 0.018548 0.140625 0.165452 -0.249401 -0.365150 -0.010236 -0.146824 -0.213168 -0.354409 -0.020012 0.171574 0.270464 0.856029 0.231725 -0.117800 0.187462 -0.046093 0.028768 0.170033 -0.035642
dair -0.435005 0.086174 -0.043906 0.037136 0.108001 0.301159 0.133437 0.203048 0.161909 0.028710 0.372820 -0.239720 0.338088 -0.302760 0.165765 -0.429004 -0.096142 0.054504 -0.052374 0.029350 0.131133 0.446387 0.097543 0.113172 -0.212629 -0.236971 -0.548426 0.006360 0.115363 0.053768 -0.285689 -0.010380 -0.194690 0.445743 0.194670 0.053617 -0.034724 0.035038 -0.323945 -0.127329 0.220344 -0.256673 -0.123347 -0.351244 0.430031 -0.274970 0.367870 0.011029 -0.031577 -0.037500 0.286552 0.017316 0.183429 0.085563 0.196725 0.391503 0.092432 0.106177 -0.327735 0.073784 -0.306887 -0.090727 -0.162716 0.335386 0.113446 0.522835 -0.014345 -0.348756 0.429720 -0.290259 -0.352260 0.281261 0.331571 0.310154 -0.253069 -0.183987 -0.360067 -0.653452 -0.016779 0.194941 0.026216 0.130311 0.160321 -0.254728 -0.362721 -0.017244 -0.153358 -0.203587 -0.352476 -0.026670 0.170438 0.260730 0.852354 0.232985 -0.122294 0.182744 -0.045080 0.026361 0.164215 -0.032894
otedy -0.418043 0.090652 -0.049505 0.034529 0.094328 0.291888 0.120697 0.205473 0.150008 0.028432 0.366158 -0.238398 0.337435 -0.295315 0.155480 -0.424140 -0.085436 0.054110 -0.049213 0.030414 0.128192 0.438368 0.092167 0.116343 -0.212387 -0.226449 -0.538226 0.001958 0.121921 0.040675 -0.281964 -0.024153 -0.188415 0.436848 0.187392 0.044564 -0.030226 0.040286 -0.320285 -0.129674 0.219763 -0.243805 -0.121691 -0.335920 0.413076 -0.282020 0.364716 0.017542 -0.018939 -0.036712 0.281879 0.019605 0.179909 0.091765 0.191987 0.384428 0.092023 0.098531 -0.326762 0.069068 -0.293661 -0.094378 -0.145493 0.330901 0.111070 0.510420 -0.022480 -0.338173 0.435532 -0.282256 -0.345111 0.267864 0.322594 0.308126 -0.245764 -0.176384 -0.354975 -0.647143 -0.006389 0.188949 0.015035 0.138304 0.161884 -0.242813 -0.346353 -0.016606 -0.136867 -0.203560 -0.337565 -0.023246 0.177587 0.250307 0.831027 0.230495 -0.115606 0.192152 -0.044940 0.027889 0.158737 -0.026400
op -0.499861 0.104760 -0.059185 0.041280 0.124325 0.344882 0.154022 0.240711 0.188372 0.035969 0.437241 -0.273022 0.396767 -0.356269 0.188340 -0.507046 -0.112051 0.059778 -0.063259 0.035197 0.149506 0.509449 0.105269 0.135425 -0.248758 -0.273272 -0.644784 0.002936 0.136726 0.052094 -0.331027 -0.015241 -0.225599 0.517726 0.219475 0.057081 -0.040722 0.051008 -0.376822 -0.152517 0.261211 -0.295863 -0.134595 -0.402441 0.497868 -0.324977 0.431188 0.019471 -0.036371 -0.040342 0.337534 0.020499 0.216491 0.106914 0.233269 0.464016 0.101472 0.130543 -0.389403 0.087039 -0.353948 -0.106626 -0.181411 0.392694 0.136302 0.603708 -0.014547 -0.406323 0.505189 -0.342108 -0.412429 0.328761 0.389732 0.355805 -0.296727 -0.215227 -0.413632 -0.752406 -0.017447 0.229690 0.027479 0.153230 0.194294 -0.297998 -0.420895 -0.018664 -0.173348 -0.238797 -0.399915 -0.027171 0.195933 0.306288 0.991798 0.265732 -0.136560 0.211908 -0.048087 0.026746 0.191357 -0.048469
char -0.444437 0.097711 -0.054926 0.036791 0.103889 0.305058 0.128642 0.211428 0.157922 0.028175 0.384725 -0.238994 0.349879 -0.323898 0.171415 -0.453819 -0.092377 0.055687 -0.055589 0.031155 0.135362 0.463528 0.095670 0.126215 -0.217904 -0.238300 -0.569010 0.001125 0.127549 0.051806 -0.296494 -0.015799 -0.203647 0.467661 0.202036 0.057304 -0.037433 0.037038 -0.335408 -0.130130 0.234417 -0.267533 -0.125462 -0.360481 0.442966 -0.284868 0.386212 0.015861 -0.031308 -0.032264 0.297425 0.014645 0.194151 0.100621 0.206444 0.409366 0.094383 0.114195 -0.342292 0.081955 -0.324416 -0.089877 -0.168006 0.345578 0.116060 0.547099 -0.016164 -0.360923 0.456040 -0.303000 -0.364873 0.291279 0.348863 0.312974 -0.270571 -0.189474 -0.377078 -0.676316 -0.011329 0.201299 0.018630 0.133952 0.167683 -0.266238 -0.366686 -0.009366 -0.159170 -0.215276 -0.360286 -0.024835 0.175713 0.272431 0.879243 0.247392 -0.125863 0.198116 -0.049722 0.029869 0.177273 -0.040547
qoky -0.415093 0.091348 -0.046242 0.028191 0.099810 0.283171 0.117920 0.202893 0.156826 0.033057 0.366889 -0.236920 0.337911 -0.301206 0.158472 -0.426070 -0.088682 0.054183 -0.051001 0.027657 0.131765 0.434457 0.093106 0.113162 -0.217521 -0.232986 -0.548537 -0.000579 0.122705 0.046182 -0.280912 -0.020313 -0.185157 0.437375 0.190256 0.053693 -0.033850 0.039472 -0.319984 -0.134729 0.221713 -0.238451 -0.119059 -0.330916 0.418276 -0.274344 0.359202 0.019973 -0.024248 -0.035743 0.281308 0.018840 0.181588 0.096400 0.190493 0.380411 0.086164 0.100018 -0.322418 0.068192 -0.296241 -0.093555 -0.145192 0.338403 0.108003 0.519143 -0.030153 -0.335557 0.431036 -0.285880 -0.339471 0.274761 0.328635 0.307967 -0.250633 -0.183563 -0.348673 -0.639215 -0.011433 0.185026 0.021715 0.137668 0.156215 -0.246917 -0.354869 -0.017349 -0.143720 -0.202586 -0.346560 -0.018399 0.178467 0.252280 0.834785 0.230492 -0.123599 0.183736 -0.045242 0.025622 0.167107 -0.030344
ot -0.467965 0.098559 -0.054340 0.039918 0.117548 0.324019 0.135578 0.226925 0.174141 0.034198 0.410197 -0.257094 0.370759 -0.336856 0.175699 -0.476604 -0.103308 0.057233 -0.052513 0.031610 0.146125 0.478272 0.105691 0.132025 -0.235122 -0.254912 -0.607462 0.002628 0.131948 0.050872 -0.319876 -0.011134 -0.208125 0.487690 0.205395 0.056345 -0.038336 0.040892 -0.353447 -0.137231 0.238174 -0.277412 -0.128431 -0.378174 0.459741 -0.308265 0.408629 0.014445 -0.033892 -0.042509 0.316224 0.016237 0.200474 0.102603 0.211048 0.429668 0.098417 0.114619 -0.355885 0.080069 -0.336606 -0.092320 -0.170243 0.361578 0.125942 0.572597 -0.018075 -0.375308 0.469890 -0.311476 -0.381598 0.301928 0.363697 0.332671 -0.275980 -0.198741 -0.391307 -0.714355 -0.011330 0.216862 0.018320 0.149086 0.176842 -0.277564 -0.391043 -0.012831 -0.170234 -0.225497 -0.384041 -0.028620 0.182865 0.284569 0.926135 0.250121 -0.130308 0.200597 -0.051309 0.029970 0.180059 -0.043544
air -0.438176 0.095148 -0.050399 0.035946 0.105764 0.301254 0.134043 0.203228 0.159010 0.024744 0.372146 -0.238538 0.342478 -0.314204 0.165039 -0.438720 -0.091444 0.055781 -0.051222 0.028846 0.136420 0.442437 0.092134 0.117896 -0.216831 -0.231339 -0.553381 0.005399 0.122924 0.046387 -0.286651 -0.007373 -0.198421 0.450900 0.192976 0.052309 -0.038113 0.037569 -0.333016 -0.135021 0.219427 -0.252377 -0.122687 -0.351855 0.430785 -0.284186 0.375645 0.012481 -0.031371 -0.039087 0.287402 0.014212 0.184126 0.090040 0.198535 0.401439 0.096944 0.109127 -0.328344 0.079759 -0.306576 -0.087913 -0.160894 0.339410 0.114601 0.533476 -0.018181 -0.351095 0.434301 -0.297854 -0.357121 0.280184 0.335326 0.307212 -0.258440 -0.191707 -0.360583 -0.660220 -0.016789 0.197788 0.023415 0.132501 0.161574 -0.258181 -0.363889 -0.009798 -0.148966 -0.205175 -0.351378 -0.023564 0.176634 0.268022 0.852680 0.235067 -0.114966 0.188501 -0.045323 0.026642 0.167648 -0.041973
chody -0.446531 0.088215 -0.045656 0.037063 0.105398 0.317204 0.128715 0.218325 0.165876 0.024792 0.390074 -0.240746 0.353479 -0.317671 0.172116 -0.444625 -0.096285 0.058870 -0.055706 0.040648 0.136604 0.457596 0.096910 0.122599 -0.224058 -0.242848 -0.572597 -0.001524 0.124125 0.056575 -0.300436 -0.012611 -0.195471 0.469419 0.199140 0.052241 -0.038702 0.045501 -0.338684 -0.129954 0.229302 -0.270317 -0.129012 -0.365065 0.444790 -0.289364 0.381330 0.013283 -0.039032 -0.033590 0.296269 0.021758 0.190009 0.094893 0.205565 0.415858 0.091300 0.119221 -0.343289 0.078307 -0.314475 -0.096175 -0.164570 0.354031 0.121406 0.537142 -0.012779 -0.353364 0.449403 -0.303872 -0.369508 0.286251 0.341357 0.312940 -0.262222 -0.195893 -0.372733 -0.673488 -0.009738 0.196866 0.020096 0.135194 0.169641 -0.268095 -0.375943 -0.018907 -0.159851 -0.208952 -0.355692 -0.025290 0.176519 0.273272 0.874275 0.242133 -0.121071 0.193260 -0.041525 0.020876 0.170143 -0.044981
otaiin -0.443103 0.095426 -0.052571 0.039428 0.111078 0.307843 0.135096 0.209947 0.160509 0.025245 0.388022 -0.247512 0.351707 -0.320363 0.169796 -0.446413 -0.090533 0.056931 -0.053921 0.035971 0.136731 0.454543 0.097876 0.118040 -0.220897 -0.241600 -0.575415 0.003858 0.127947 0.049193 -0.298726 -0.017246 -0.200769 0.460176 0.200964 0.052112 -0.039568 0.043097 -0.340454 -0.131619 0.236911 -0.264171 -0.120259 -0.353201 0.443754 -0.291335 0.379097 0.016286 -0.032999 -0.038199 0.297218 0.019548 0.187113 0.094598 0.204115 0.412716 0.089429 0.109172 -0.346806 0.074011 -0.317751 -0.086434 -0.164303 0.345985 0.119877 0.546760 -0.021491 -0.353258 0.446152 -0.298577 -0.363327 0.283290 0.342078 0.321467 -0.264110 -0.192796 -0.368708 -0.676543 -0.014327 0.202011 0.022749 0.139358 0.165007 -0.260454 -0.373367 -0.013300 -0.151641 -0.208363 -0.355841 -0.028318 0.180664 0.276388 0.882530 0.239247 -0.123223 0.194142 -0.045615 0.024998 0.176397 -0.035373
chckhy -0.391502 0.084771 -0.054326 0.031667 0.091798 0.269351 0.117869 0.197265 0.145077 0.032961 0.342775 -0.216468 0.321995 -0.290371 0.149089 -0.405148 -0.086054 0.048165 -0.048932 0.025646 0.119650 0.412599 0.089139 0.107052 -0.201999 -0.216673 -0.519128 0.007121 0.115962 0.039648 -0.265104 -0.018834 -0.179406 0.409249 0.176889 0.048786 -0.034195 0.039208 -0.311807 -0.123816 0.205634 -0.236199 -0.113570 -0.319747 0.390767 -0.267710 0.342473 0.019219 -0.024841 -0.038343 0.274367 0.023073 0.166433 0.088285 0.179916 0.370804 0.090209 0.093204 -0.301191 0.069687 -0.283000 -0.083030 -0.139066 0.317552 0.102926 0.494723 -0.021533 -0.322816 0.406053 -0.267419 -0.333286 0.256219 0.310390 0.290899 -0.236384 -0.174699 -0.337319 -0.609136 -0.009004 0.181264 0.017646 0.132826 0.149631 -0.236589 -0.329262 -0.012436 -0.141190 -0.190629 -0.329814 -0.024929 0.168098 0.244918 0.794128 0.220739 -0.114561 0.175279 -0.037201 0.023646 0.147756 -0.034831
okar -0.379987 0.077279 -0.053409 0.028071 0.089891 0.271780 0.113193 0.182578 0.145032 0.032059 0.331723 -0.209998 0.311294 -0.275657 0.144212 -0.390747 -0.083331 0.051247 -0.041042 0.022437 0.112772 0.399265 0.089200 0.102804 -0.197795 -0.210473 -0.501507 -0.000027 0.108208 0.041743 -0.254443 -0.014782 -0.174362 0.394237 0.177752 0.045973 -0.028742 0.030943 -0.299324 -0.118628 0.196598 -0.221053 -0.112579 -0.309472 0.385774 -0.257165 0.338222 0.013155 -0.021861 -0.029145 0.259323 0.022728 0.163218 0.082633 0.173466 0.358278 0.085702 0.097807 -0.293480 0.068342 -0.278336 -0.079196 -0.138120 0.300302 0.101147 0.477132 -0.025724 -0.311670 0.399834 -0.259713 -0.312067 0.245808 0.296784 0.273530 -0.228120 -0.166314 -0.324590 -0.590079 -0.011340 0.176224 0.022881 0.117736 0.143240 -0.224852 -0.318120 -0.007365 -0.127882 -0.187775 -0.311537 -0.015846 0.154154 0.234610 0.766781 0.207629 -0.106110 0.175152 -0.042283 0.025881 0.150128 -0.033759
ody -0.434654 0.085032 -0.042677 0.039241 0.102027 0.295158 0.129078 0.205424 0.160025 0.024871 0.374731 -0.240949 0.342551 -0.310003 0.164546 -0.426721 -0.090831 0.060663 -0.052859 0.036504 0.133300 0.443569 0.092558 0.115349 -0.209833 -0.238036 -0.546247 0.007726 0.121259 0.052575 -0.286077 -0.011886 -0.189829 0.442976 0.188803 0.056758 -0.038135 0.043216 -0.327597 -0.126810 0.223533 -0.256480 -0.122532 -0.347580 0.421716 -0.274775 0.367862 0.017118 -0.038090 -0.032724 0.280114 0.021684 0.179237 0.092721 0.195795 0.398254 0.090312 0.114208 -0.328348 0.075672 -0.311497 -0.083911 -0.152977 0.333493 0.114790 0.524203 -0.014309 -0.346178 0.431890 -0.287052 -0.356403 0.272635 0.335879 0.308603 -0.258737 -0.181341 -0.354461 -0.647199 -0.010410 0.198776 0.023402 0.131803 0.168599 -0.256764 -0.358204 -0.010410 -0.155483 -0.208548 -0.347427 -0.028824 0.175616 0.265833 0.841730 0.228121 -0.119624 0.180802 -0.045018 0.021853 0.172863 -0.039139
kar -0.427653 0.086900 -0.057686 0.038110 0.098677 0.296773 0.130273 0.212783 0.159787 0.031111 0.376259 -0.236639 0.346309 -0.306603 0.164020 -0.440443 -0.087524 0.059907 -0.054478 0.034958 0.132064 0.448749 0.094122 0.115666 -0.211899 -0.240021 -0.552438 0.004319 0.117189 0.047349 -0.293269 -0.014449 -0.192114 0.444686 0.190776 0.048753 -0.033525 0.033898 -0.328611 -0.131721 0.226102 -0.258760 -0.116927 -0.343149 0.428356 -0.280022 0.374997 0.013130 -0.038373 -0.037375 0.288592 0.018092 0.177547 0.097983 0.192536 0.400849 0.094809 0.108044 -0.331747 0.072504 -0.306165 -0.089722 -0.153605 0.339884 0.116414 0.530721 -0.018795 -0.350562 0.442120 -0.287705 -0.355517 0.274830 0.334423 0.309377 -0.253635 -0.188250 -0.359636 -0.660807 -0.016120 0.190320 0.026235 0.137572 0.167758 -0.252115 -0.365225 -0.006818 -0.148035 -0.207209 -0.347770 -0.024020 0.171024 0.262032 0.850611 0.239704 -0.121923 0.191781 -0.049241 0.030601 0.173531 -0.035824
sheol -0.402457 0.088865 -0.050844 0.031000 0.098997 0.286885 0.113725 0.198077 0.145575 0.026505 0.352421 -0.229885 0.328579 -0.295604 0.154362 -0.415422 -0.084841 0.053184 -0.045443 0.031004 0.125309 0.427470 0.085790 0.111823 -0.211601 -0.220656 -0.535270 0.002190 0.115506 0.043529 -0.274047 -0.017314 -0.184842 0.424678 0.180719 0.045996 -0.031509 0.043569 -0.318270 -0.123404 0.214886 -0.236353 -0.114634 -0.321140 0.407645 -0.263807 0.351504 0.012244 -0.024457 -0.032916 0.273129 0.025293 0.178002 0.089019 0.189210 0.376878 0.091873 0.097815 -0.311974 0.067301 -0.289000 -0.086691 -0.145970 0.322366 0.104878 0.502285 -0.023462 -0.325921 0.414995 -0.275247 -0.332222 0.260895 0.315605 0.297593 -0.248979 -0.176231 -0.342900 -0.619749 -0.005056 0.185935 0.017518 0.132999 0.155213 -0.238552 -0.340158 -0.015754 -0.137246 -0.195854 -0.337880 -0.024476 0.171910 0.251543 0.815223 0.218897 -0.115911 0.175836 -0.044807 0.023963 0.164161 -0.028937
oty -0.442952 0.096915 -0.045436 0.032480 0.102983 0.308192 0.133121 0.212437 0.165275 0.030756 0.384568 -0.245675 0.354192 -0.318972 0.164455 -0.445963 -0.095222 0.062544 -0.056149 0.037944 0.130650 0.449954 0.098896 0.123325 -0.222798 -0.237846 -0.574468 0.004639 0.129529 0.054865 -0.298034 -0.014860 -0.200870 0.459249 0.201130 0.054577 -0.034146 0.045661 -0.335098 -0.136954 0.233166 -0.258443 -0.121917 -0.352871 0.441103 -0.286911 0.387054 0.020139 -0.036324 -0.032811 0.297417 0.021998 0.185072 0.097826 0.198785 0.404056 0.092768 0.106566 -0.341948 0.078411 -0.321168 -0.089795 -0.162030 0.346052 0.116257 0.534431 -0.017052 -0.349242 0.448693 -0.297419 -0.363668 0.290325 0.335718 0.318826 -0.261511 -0.186971 -0.368006 -0.671593 -0.014249 0.194062 0.020027 0.141904 0.164626 -0.262205 -0.362082 -0.010120 -0.150763 -0.211189 -0.359453 -0.020720 0.178334 0.274054 0.866466 0.239745 -0.126200 0.194114 -0.043453 0.026542 0.172525 -0.033663
qokar -0.394799 0.088769 -0.052809 0.026145 0.087340 0.276608 0.116600 0.190174 0.144498 0.027311 0.345373 -0.225073 0.319816 -0.284431 0.147057 -0.406404 -0.086970 0.052482 -0.048931 0.024172 0.126976 0.416578 0.083283 0.109434 -0.204830 -0.220533 -0.520652 -0.000970 0.116437 0.037205 -0.267782 -0.020896 -0.179205 0.415114 0.184552 0.045724 -0.025994 0.040984 -0.305635 -0.130999 0.214044 -0.225659 -0.108249 -0.312174 0.394446 -0.264354 0.343972 0.016880 -0.024416 -0.031843 0.267824 0.023061 0.166164 0.085009 0.183802 0.370245 0.087653 0.092079 -0.299690 0.062955 -0.289914 -0.085420 -0.143020 0.312119 0.106608 0.494378 -0.027975 -0.320382 0.413008 -0.276577 -0.323388 0.259313 0.310936 0.296661 -0.235665 -0.169054 -0.332796 -0.607569 -0.005893 0.179927 0.015551 0.132365 0.151567 -0.237501 -0.326960 -0.007701 -0.129328 -0.195268 -0.321265 -0.022437 0.166506 0.241302 0.792091 0.225704 -0.108929 0.175110 -0.045216 0.031906 0.153692 -0.027455
cheor -0.425798 0.087173 -0.045825 0.030384 0.105766 0.291480 0.120734 0.203720 0.154042 0.032039 0.365488 -0.225288 0.336358 -0.299800 0.160902 -0.421457 -0.096876 0.057398 -0.048778 0.028039 0.128356 0.430442 0.089493 0.119075 -0.205005 -0.235810 -0.540017 0.004727 0.113098 0.045179 -0.289594 -0.013668 -0.190311 0.438823 0.192001 0.054070 -0.032090 0.037367 -0.316134 -0.121054 0.223099 -0.252591 -0.117475 -0.345578 0.414209 -0.271094 0.362657 0.014693 -0.041165 -0.032218 0.282375 0.012734 0.176499 0.090896 0.190538 0.391948 0.093273 0.102354 -0.322800 0.076384 -0.304322 -0.092702 -0.152170 0.334158 0.117701 0.511753 -0.018427 -0.333290 0.422151 -0.284355 -0.349168 0.273265 0.326114 0.295539 -0.253362 -0.181747 -0.350831 -0.644729 -0.016501 0.193819 0.023407 0.127295 0.154836 -0.245569 -0.355288 -0.008901 -0.150975 -0.196332 -0.336518 -0.021247 0.165234 0.255713 0.828272 0.225824 -0.111110 0.180671 -0.045328 0.029803 0.168004 -0.036815
lchedy -0.403177 0.081402 -0.056246 0.029019 0.092878 0.271852 0.114847 0.189313 0.140617 0.035860 0.352675 -0.228928 0.327937 -0.293407 0.155836 -0.414484 -0.080682 0.048294 -0.047736 0.026604 0.121204 0.423499 0.085230 0.117658 -0.206094 -0.219026 -0.525793 0.002436 0.126113 0.044051 -0.272543 -0.016027 -0.184169 0.420813 0.186109 0.049513 -0.028804 0.043469 -0.315083 -0.132487 0.218325 -0.232208 -0.115868 -0.318533 0.397584 -0.269868 0.353491 0.017709 -0.020420 -0.033567 0.279308 0.024776 0.173873 0.094847 0.184683 0.374597 0.092261 0.096131 -0.312069 0.064951 -0.294425 -0.085148 -0.141034 0.327032 0.106552 0.503937 -0.031982 -0.328399 0.417404 -0.274207 -0.332235 0.262253 0.311833 0.302470 -0.245808 -0.178159 -0.345559 -0.628034 -0.007650 0.178263 0.016515 0.128952 0.158655 -0.235434 -0.338155 -0.008114 -0.138602 -0.195210 -0.329558 -0.027122 0.170168 0.245754 0.810194 0.230124 -0.118454 0.182283 -0.036621 0.027542 0.158813 -0.030711
ok -0.480497 0.096554 -0.056450 0.039243 0.113712 0.336957 0.136322 0.231358 0.171032 0.028515 0.412316 -0.263830 0.380037 -0.340310 0.182920 -0.481323 -0.102585 0.062928 -0.055769 0.035960 0.149826 0.491657 0.107999 0.130226 -0.231876 -0.257587 -0.608361 0.004814 0.138499 0.057800 -0.322892 -0.013366 -0.209754 0.496620 0.216376 0.060215 -0.035459 0.038937 -0.359208 -0.142114 0.240495 -0.277465 -0.129622 -0.385479 0.467887 -0.308592 0.414000 0.012149 -0.042431 -0.044607 0.311638 0.015768 0.200219 0.100527 0.215664 0.436919 0.102013 0.120675 -0.368830 0.083591 -0.343385 -0.094637 -0.168641 0.374500 0.129096 0.581779 -0.016567 -0.376956 0.484612 -0.326511 -0.385138 0.307489 0.367250 0.334104 -0.283976 -0.206329 -0.402868 -0.719885 -0.011183 0.209740 0.028443 0.153667 0.183305 -0.277663 -0.398421 -0.018942 -0.172763 -0.227772 -0.379583 -0.028147 0.185005 0.290395 0.941371 0.253082 -0.134390 0.201371 -0.048562 0.022987 0.187794 -0.041433
f -0.425490 0.082988 -0.045042 0.035615 0.100576 0.299085 0.130469 0.202579 0.152626 0.032065 0.364989 -0.225704 0.331093 -0.302602 0.155160 -0.421296 -0.091643 0.054617 -0.053077 0.039056 0.127121 0.433177 0.092336 0.114309 -0.204056 -0.230925 -0.545108 0.007598 0.112713 0.048576 -0.278980 -0.007477 -0.192255 0.438124 0.182967 0.051185 -0.027740 0.041364 -0.314224 -0.119285 0.217904 -0.245863 -0.114450 -0.342196 0.418735 -0.265884 0.365129 0.018138 -0.030188 -0.035926 0.278976 0.018987 0.175023 0.088864 0.195038 0.384946 0.092828 0.111862 -0.324595 0.075987 -0.297251 -0.090846 -0.151670 0.322470 0.111265 0.510988 -0.009121 -0.339696 0.422272 -0.287233 -0.341369 0.272988 0.326445 0.295063 -0.251595 -0.177364 -0.347756 -0.634328 -0.010644 0.193729 0.015848 0.122447 0.154025 -0.246017 -0.354261 -0.006028 -0.156443 -0.198584 -0.345673 -0.027241 0.160242 0.258611 0.830703 0.226164 -0.112848 0.182487 -0.040618 0.027922 0.164083 -0.035224
shor -0.439834 0.086669 -0.049451 0.032923 0.111620 0.304948 0.123595 0.216794 0.158792 0.021031 0.374519 -0.235080 0.344363 -0.304811 0.163047 -0.429552 -0.101257 0.055202 -0.049389 0.041347 0.127952 0.453254 0.091095 0.114931 -0.218198 -0.241050 -0.565506 0.004900 0.119611 0.049223 -0.298358 -0.012777 -0.195122 0.456932 0.190846 0.056579 -0.030565 0.042715 -0.322843 -0.121045 0.221315 -0.257327 -0.125401 -0.350810 0.430818 -0.278938 0.380615 0.019834 -0.042350 -0.037196 0.284604 0.012990 0.191294 0.090485 0.200023 0.402727 0.090633 0.110445 -0.340406 0.074339 -0.317792 -0.088457 -0.160716 0.343633 0.115296 0.525496 -0.015465 -0.346346 0.443473 -0.289881 -0.355643 0.286126 0.343334 0.302494 -0.266846 -0.186063 -0.358183 -0.654884 -0.013327 0.202094 0.020898 0.139050 0.169967 -0.260032 -0.365331 -0.013729 -0.158403 -0.204073 -0.360593 -0.028913 0.172821 0.268848 0.862626 0.230056 -0.118696 0.182069 -0.039666 0.020392 0.174755 -0.038203
okedy -0.409347 0.085760 -0.049255 0.032022 0.091497 0.287591 0.123062 0.200084 0.145931 0.031598 0.367994 -0.229001 0.333871 -0.303597 0.154084 -0.432243 -0.091076 0.058031 -0.054567 0.023341 0.127211 0.431491 0.091747 0.115856 -0.222698 -0.231953 -0.548420 -0.001480 0.120343 0.044617 -0.273904 -0.017230 -0.195067 0.430571 0.190883 0.051523 -0.026041 0.045939 -0.323513 -0.138110 0.216296 -0.235939 -0.117659 -0.328473 0.419941 -0.280384 0.359402 0.018616 -0.018449 -0.032477 0.279421 0.027235 0.174840 0.092538 0.188265 0.383737 0.097893 0.107689 -0.326485 0.060200 -0.301594 -0.095518 -0.149614 0.336267 0.114651 0.514094 -0.027456 -0.334365 0.428427 -0.291129 -0.349787 0.267549 0.317457 0.302620 -0.248735 -0.172786 -0.358652 -0.640696 -0.008599 0.190175 0.018200 0.140584 0.156709 -0.245279 -0.348505 -0.016757 -0.135175 -0.198782 -0.338733 -0.027582 0.177204 0.250532 0.835970 0.232074 -0.123537 0.193060 -0.042504 0.026271 0.162066 -0.026997
okeedy -0.412614 0.093044 -0.056240 0.026189 0.103738 0.285679 0.121450 0.205788 0.147402 0.035877 0.359969 -0.234305 0.335366 -0.304576 0.157185 -0.425577 -0.087098 0.047998 -0.049103 0.030513 0.123803 0.440205 0.092987 0.117562 -0.211844 -0.225179 -0.544362 0.002980 0.125798 0.041446 -0.277072 -0.017665 -0.186841 0.435329 0.195386 0.048085 -0.030700 0.041344 -0.321575 -0.137373 0.223228 -0.237959 -0.116715 -0.334432 0.413957 -0.274811 0.359125 0.016714 -0.022581 -0.034953 0.288366 0.025115 0.175927 0.088008 0.196732 0.385194 0.086311 0.097915 -0.325630 0.064053 -0.305390 -0.092587 -0.152928 0.339053 0.112888 0.513027 -0.033480 -0.342337 0.430130 -0.291573 -0.343860 0.268851 0.323642 0.303084 -0.247617 -0.179959 -0.358717 -0.642254 -0.002233 0.185574 0.025877 0.135719 0.159317 -0.248671 -0.349757 -0.008201 -0.142730 -0.199352 -0.339492 -0.020779 0.180105 0.257302 0.839363 0.227814 -0.122416 0.187579 -0.039718 0.028479 0.167347 -0.032664
otol -0.470143 0.100493 -0.055656 0.040269 0.117217 0.322564 0.134891 0.232179 0.171051 0.032644 0.398517 -0.261749 0.373943 -0.337437 0.175692 -0.466619 -0.103260 0.060634 -0.060316 0.038106 0.139572 0.481658 0.099632 0.129688 -0.230681 -0.259419 -0.607256 0.002903 0.129667 0.053868 -0.312964 -0.011119 -0.212082 0.491915 0.205252 0.061505 -0.037359 0.044684 -0.358200 -0.137595 0.237956 -0.272823 -0.132124 -0.382295 0.466120 -0.306066 0.402572 0.011278 -0.039054 -0.037625 0.311757 0.019032 0.202385 0.093425 0.211559 0.432920 0.101988 0.115067 -0.361123 0.083844 -0.333652 -0.100110 -0.175020 0.372125 0.130887 0.572410 -0.019076 -0.368598 0.473718 -0.317520 -0.388001 0.299877 0.358919 0.334054 -0.275125 -0.198050 -0.387634 -0.709054 -0.016985 0.215160 0.023316 0.146468 0.182317 -0.280653 -0.391828 -0.018864 -0.168287 -0.221360 -0.384108 -0.024764 0.191244 0.287267 0.923207 0.254205 -0.133788 0.195924 -0.041814 0.026935 0.175923 -0.040450
oteey -0.432331 0.092284 -0.050759 0.037771 0.106680 0.296100 0.129706 0.211265 0.148708 0.029625 0.371646 -0.240687 0.342028 -0.304662 0.161264 -0.436659 -0.092490 0.052508 -0.049068 0.027614 0.127746 0.438737 0.095178 0.118897 -0.220129 -0.233933 -0.558322 0.008836 0.127728 0.045714 -0.291779 -0.020336 -0.193004 0.443790 0.195104 0.052543 -0.031244 0.036355 -0.330942 -0.137760 0.220577 -0.251311 -0.117472 -0.340846 0.423569 -0.280704 0.365694 0.017673 -0.032101 -0.041174 0.294230 0.022303 0.187565 0.090171 0.195793 0.389803 0.088084 0.099866 -0.326929 0.070272 -0.311515 -0.086962 -0.149345 0.332807 0.115730 0.528276 -0.025494 -0.345185 0.434313 -0.289301 -0.357112 0.274397 0.333739 0.313327 -0.254178 -0.179708 -0.364182 -0.654557 -0.004946 0.197220 0.021840 0.139976 0.164832 -0.253915 -0.354315 -0.007707 -0.150762 -0.203268 -0.344532 -0.025640 0.172419 0.264557 0.855664 0.239840 -0.122536 0.184335 -0.045940 0.029757 0.172141 -0.030556
dor -0.421423 0.088804 -0.050968 0.035011 0.105105 0.293650 0.124276 0.207927 0.150119 0.023048 0.363493 -0.225217 0.328640 -0.295512 0.160830 -0.421105 -0.091255 0.052631 -0.049696 0.032015 0.124216 0.431252 0.094710 0.113156 -0.206270 -0.227926 -0.537445 0.003949 0.115684 0.044814 -0.284338 -0.017629 -0.183837 0.439762 0.186802 0.051426 -0.028189 0.036952 -0.314496 -0.128192 0.218519 -0.250871 -0.115037 -0.337292 0.415416 -0.264376 0.360277 0.016840 -0.035862 -0.032714 0.280852 0.015949 0.179365 0.083614 0.194539 0.391631 0.084297 0.109216 -0.321207 0.071875 -0.303317 -0.085245 -0.156949 0.330287 0.116554 0.510569 -0.010615 -0.339807 0.419302 -0.280102 -0.341011 0.274415 0.322343 0.292222 -0.253424 -0.184127 -0.354624 -0.631748 -0.017227 0.190434 0.023810 0.126098 0.159245 -0.248839 -0.345227 -0.017505 -0.150759 -0.201254 -0.338825 -0.024884 0.165774 0.259331 0.822704 0.222384 -0.118069 0.178520 -0.041375 0.026276 0.160451 -0.034561
sol -0.378259 0.081140 -0.048042 0.032512 0.092649 0.269771 0.115433 0.182412 0.136640 0.026898 0.332851 -0.216021 0.303808 -0.274532 0.147489 -0.390955 -0.082920 0.046536 -0.047471 0.028637 0.117788 0.399186 0.083285 0.112039 -0.193620 -0.209962 -0.500379 0.004424 0.107731 0.041443 -0.255373 -0.016503 -0.171212 0.406090 0.171383 0.047535 -0.031746 0.035251 -0.295242 -0.119472 0.198428 -0.224754 -0.106134 -0.302422 0.380911 -0.255999 0.329915 0.020247 -0.029893 -0.029920 0.258567 0.014721 0.168479 0.079827 0.176500 0.356688 0.082873 0.099244 -0.299721 0.062249 -0.274858 -0.079068 -0.143624 0.310643 0.102301 0.470525 -0.026397 -0.307241 0.397553 -0.261643 -0.314195 0.249988 0.296833 0.279612 -0.234591 -0.165578 -0.323425 -0.591257 -0.004602 0.176825 0.023317 0.118697 0.149316 -0.231684 -0.319252 -0.012791 -0.128043 -0.190641 -0.317617 -0.022312 0.163703 0.231568 0.762055 0.216322 -0.113769 0.173465 -0.042949 0.029785 0.147934 -0.026504
oky -0.417413 0.085197 -0.043101 0.034932 0.097031 0.293290 0.126976 0.205672 0.156851 0.032456 0.359130 -0.224098 0.331647 -0.301474 0.159184 -0.417472 -0.090671 0.055127 -0.045442 0.029585 0.120557 0.430395 0.086227 0.111053 -0.211420 -0.223201 -0.531805 0.000918 0.120471 0.051020 -0.283093 -0.015847 -0.190765 0.433664 0.186142 0.050923 -0.032039 0.036356 -0.318018 -0.129221 0.220476 -0.242348 -0.118964 -0.334016 0.415690 -0.268629 0.365980 0.015211 -0.033385 -0.030541 0.281499 0.017876 0.175259 0.084722 0.189612 0.387342 0.094441 0.102624 -0.325655 0.070072 -0.303079 -0.090800 -0.154295 0.330631 0.115001 0.508943 -0.016647 -0.337017 0.423150 -0.286353 -0.343633 0.269597 0.321616 0.297328 -0.247945 -0.177469 -0.347111 -0.629472 -0.014141 0.186909 0.019367 0.130015 0.156876 -0.245093 -0.349093 -0.009078 -0.145246 -0.201888 -0.334714 -0.027789 0.167030 0.252762 0.826265 0.222073 -0.120276 0.177400 -0.045378 0.023781 0.161230 -0.033322
qot -0.462080 0.088386 -0.054100 0.033801 0.111786 0.312841 0.139079 0.221312 0.167602 0.030869 0.395557 -0.247640 0.363180 -0.330342 0.175788 -0.451927 -0.100752 0.056291 -0.052027 0.032564 0.138144 0.464189 0.099940 0.120104 -0.230452 -0.253595 -0.584440 0.006784 0.135313 0.052967 -0.302566 -0.014148 -0.198639 0.471038 0.200516 0.060809 -0.037007 0.047454 -0.345159 -0.135490 0.233728 -0.267366 -0.122696 -0.367678 0.452402 -0.292357 0.396122 0.022067 -0.036423 -0.040466 0.304876 0.019034 0.191459 0.096118 0.205456 0.417855 0.093835 0.119268 -0.351981 0.083462 -0.325966 -0.095887 -0.166348 0.361382 0.126776 0.556784 -0.011024 -0.360377 0.456058 -0.303960 -0.375443 0.299319 0.357738 0.327650 -0.274764 -0.193878 -0.384298 -0.696042 -0.012786 0.200022 0.019232 0.145239 0.171597 -0.268644 -0.380397 -0.018392 -0.160868 -0.217471 -0.369604 -0.030581 0.188261 0.280593 0.898213 0.247699 -0.129401 0.190440 -0.040770 0.024165 0.182373 -0.039634
oiin -0.419517 0.082663 -0.050229 0.034128 0.100025 0.288566 0.118995 0.197515 0.144114 0.022233 0.359910 -0.227794 0.322779 -0.293536 0.160960 -0.415014 -0.089510 0.057939 -0.045421 0.030191 0.129420 0.430251 0.094254 0.118304 -0.205569 -0.232614 -0.533589 -0.001127 0.113450 0.049945 -0.283212 -0.015069 -0.188232 0.428995 0.185370 0.048808 -0.031093 0.043583 -0.310473 -0.119648 0.209611 -0.239695 -0.116416 -0.328740 0.411029 -0.263723 0.356293 0.011518 -0.029218 -0.037452 0.276304 0.015231 0.172514 0.087067 0.195439 0.381357 0.092969 0.109516 -0.319256 0.066092 -0.300654 -0.090207 -0.152118 0.329512 0.107532 0.509641 -0.019742 -0.331874 0.424714 -0.281095 -0.342431 0.271388 0.318312 0.292813 -0.244002 -0.181723 -0.351166 -0.627823 -0.005334 0.184740 0.018749 0.125837 0.154625 -0.251112 -0.341308 -0.016977 -0.150798 -0.200372 -0.336057 -0.029230 0.165564 0.255672 0.816093 0.219723 -0.118804 0.173938 -0.038231 0.023481 0.165428 -0.034669
sheedy -0.375928 0.076115 -0.042966 0.027597 0.089671 0.255606 0.113753 0.176959 0.133835 0.026755 0.328008 -0.214289 0.308072 -0.276682 0.147002 -0.385321 -0.081065 0.044643 -0.045885 0.020958 0.116413 0.389489 0.082882 0.103189 -0.198015 -0.207854 -0.491350 0.005453 0.116742 0.035376 -0.253803 -0.016057 -0.174950 0.400201 0.172430 0.043833 -0.032487 0.037577 -0.296914 -0.124155 0.199628 -0.221461 -0.102590 -0.302666 0.374750 -0.247620 0.326088 0.017204 -0.023021 -0.030586 0.255532 0.019497 0.159777 0.080022 0.176719 0.346065 0.082644 0.085915 -0.293086 0.055137 -0.267818 -0.081596 -0.130403 0.303720 0.097833 0.463612 -0.021932 -0.308440 0.389897 -0.259243 -0.312290 0.249798 0.299004 0.282386 -0.229664 -0.166299 -0.315143 -0.585245 -0.008052 0.176813 0.022910 0.123434 0.140863 -0.219986 -0.316834 -0.012413 -0.122629 -0.184480 -0.311201 -0.020495 0.163319 0.228905 0.757684 0.212548 -0.107007 0.170137 -0.037192 0.029507 0.149309 -0.032047
sar -0.375600 0.075200 -0.045090 0.029872 0.086853 0.263480 0.107651 0.183672 0.134300 0.024549 0.326052 -0.205995 0.295878 -0.266385 0.138405 -0.374653 -0.079330 0.046468 -0.046604 0.025344 0.113484 0.391103 0.080435 0.099505 -0.185380 -0.203438 -0.482077 0.006486 0.101562 0.045015 -0.246060 -0.010673 -0.170710 0.384972 0.163871 0.042730 -0.031884 0.035984 -0.288855 -0.109843 0.195924 -0.223675 -0.102359 -0.298728 0.374226 -0.239567 0.322784 0.016247 -0.033586 -0.027295 0.252848 0.013933 0.154633 0.085257 0.172780 0.346366 0.077324 0.089882 -0.288023 0.060029 -0.268671 -0.075959 -0.140355 0.297345 0.096148 0.461523 -0.011616 -0.297471 0.374800 -0.252460 -0.303180 0.235823 0.288259 0.264771 -0.226254 -0.160198 -0.314173 -0.571479 -0.013809 0.170942 0.015982 0.114784 0.145895 -0.223364 -0.308328 -0.012453 -0.127173 -0.175196 -0.299938 -0.019857 0.152967 0.229245 0.743043 0.199903 -0.099116 0.166594 -0.043203 0.021048 0.143604 -0.034310
qok -0.462198 0.100250 -0.060201 0.033970 0.112370 0.325332 0.139510 0.226936 0.171537 0.026547 0.398293 -0.251686 0.366022 -0.331278 0.169288 -0.468474 -0.097195 0.059500 -0.056386 0.030838 0.144864 0.474569 0.100692 0.127118 -0.230280 -0.253341 -0.596503 -0.000729 0.137299 0.053252 -0.305957 -0.015207 -0.204551 0.486460 0.203563 0.055615 -0.030885 0.039822 -0.348719 -0.145217 0.236477 -0.266684 -0.123478 -0.365339 0.451644 -0.301908 0.403159 0.014559 -0.031162 -0.039255 0.313751 0.020717 0.201191 0.100419 0.208073 0.426984 0.103831 0.111166 -0.353824 0.076849 -0.327634 -0.099413 -0.168326 0.361635 0.126717 0.566394 -0.023153 -0.365583 0.474080 -0.314739 -0.377308 0.296150 0.353561 0.334320 -0.276384 -0.201722 -0.387209 -0.707974 -0.010121 0.205803 0.021161 0.141481 0.173045 -0.267706 -0.383169 -0.018617 -0.164313 -0.221432 -0.373258 -0.028215 0.188558 0.287423 0.913833 0.249958 -0.132792 0.197108 -0.049841 0.027873 0.177265 -0.035386
kain -0.380577 0.081919 -0.047307 0.021689 0.083281 0.258531 0.104857 0.182534 0.133658 0.032030 0.332905 -0.204911 0.305888 -0.274966 0.142963 -0.387279 -0.083186 0.042070 -0.043834 0.022359 0.118889 0.393787 0.086472 0.110524 -0.196147 -0.208348 -0.486031 0.005553 0.113832 0.036676 -0.255763 -0.012163 -0.171115 0.387745 0.167758 0.042553 -0.028646 0.036459 -0.288518 -0.120093 0.203874 -0.225590 -0.105907 -0.302315 0.377510 -0.247559 0.321982 0.016215 -0.030742 -0.028596 0.260078 0.021933 0.165631 0.085002 0.175902 0.348433 0.079968 0.093621 -0.286128 0.065646 -0.275416 -0.081959 -0.136610 0.302966 0.101830 0.470491 -0.018940 -0.297960 0.382366 -0.252492 -0.312577 0.242272 0.294155 0.276706 -0.224623 -0.159698 -0.321037 -0.585744 -0.003720 0.171495 0.014807 0.121323 0.137156 -0.218800 -0.317696 -0.009281 -0.124797 -0.180096 -0.309826 -0.025337 0.150617 0.230716 0.755087 0.205817 -0.107951 0.168269 -0.042108 0.026857 0.143027 -0.030720
cheody -0.454069 0.089539 -0.048615 0.037525 0.114129 0.312627 0.137686 0.217224 0.165329 0.026618 0.395056 -0.252545 0.357246 -0.330678 0.173013 -0.458071 -0.104044 0.059922 -0.052772 0.037308 0.140961 0.472077 0.102061 0.124629 -0.223117 -0.245020 -0.588421 -0.000931 0.126132 0.056770 -0.305210 -0.009719 -0.200975 0.477644 0.201064 0.053999 -0.032573 0.043162 -0.341998 -0.136115 0.234115 -0.265000 -0.131694 -0.366224 0.450472 -0.297138 0.390850 0.016155 -0.032219 -0.039788 0.307682 0.023012 0.199813 0.092768 0.214467 0.425862 0.092599 0.114837 -0.353011 0.079997 -0.325241 -0.095956 -0.164102 0.357207 0.121738 0.561179 -0.015646 -0.361437 0.459326 -0.313332 -0.375285 0.291657 0.348730 0.321222 -0.276608 -0.201434 -0.386596 -0.690257 -0.010840 0.207406 0.027532 0.140522 0.168242 -0.272930 -0.375132 -0.011076 -0.163191 -0.220460 -0.373333 -0.024025 0.176529 0.282008 0.899278 0.249027 -0.124034 0.199847 -0.044621 0.022092 0.175846 -0.039683
chal -0.410322 0.080542 -0.048842 0.029696 0.095877 0.284328 0.124032 0.203727 0.152900 0.030375 0.355568 -0.225676 0.329179 -0.288692 0.158558 -0.413775 -0.085931 0.056774 -0.053236 0.032634 0.122836 0.419293 0.092358 0.115937 -0.205670 -0.228841 -0.530404 0.003085 0.121171 0.046421 -0.280632 -0.016972 -0.184435 0.429170 0.183154 0.047556 -0.031930 0.034819 -0.310937 -0.120127 0.216039 -0.241216 -0.118318 -0.326483 0.404136 -0.269901 0.358086 0.012681 -0.027897 -0.031077 0.272451 0.017698 0.178215 0.083682 0.186126 0.374513 0.090841 0.105175 -0.311409 0.073705 -0.291774 -0.081585 -0.144063 0.327842 0.105027 0.502175 -0.017643 -0.322282 0.419980 -0.273206 -0.333474 0.261923 0.312667 0.290118 -0.249324 -0.170573 -0.338932 -0.628706 -0.006275 0.186554 0.020487 0.131370 0.158269 -0.238417 -0.343317 -0.010139 -0.138602 -0.198492 -0.335025 -0.023635 0.167355 0.250407 0.813982 0.222158 -0.109588 0.174968 -0.045351 0.023833 0.160061 -0.032216
qokey -0.367292 0.076031 -0.043752 0.030412 0.090770 0.257561 0.112950 0.176168 0.133590 0.031490 0.321292 -0.205574 0.304895 -0.268832 0.138061 -0.380704 -0.076032 0.045186 -0.039875 0.021874 0.112355 0.388624 0.077936 0.109171 -0.194959 -0.200447 -0.488199 0.000322 0.117649 0.040819 -0.253780 -0.022762 -0.171226 0.389021 0.174084 0.047179 -0.029811 0.039148 -0.285261 -0.121680 0.197421 -0.211914 -0.099323 -0.297245 0.370155 -0.247238 0.322084 0.018112 -0.024656 -0.030280 0.259792 0.024666 0.155883 0.084955 0.166493 0.339846 0.080022 0.094604 -0.292352 0.056626 -0.273079 -0.075143 -0.128455 0.294377 0.096432 0.466540 -0.029727 -0.304878 0.388906 -0.254045 -0.305864 0.239417 0.288579 0.274162 -0.228029 -0.157772 -0.317497 -0.573680 -0.008549 0.165456 0.014133 0.123862 0.147104 -0.223106 -0.309391 -0.006293 -0.127631 -0.185354 -0.299010 -0.021698 0.161467 0.228846 0.746170 0.211984 -0.101158 0.165601 -0.043642 0.027872 0.145102 -0.023608
cheedy -0.431461 0.087156 -0.057622 0.034367 0.102120 0.295231 0.125992 0.205403 0.157658 0.036098 0.375791 -0.240174 0.353685 -0.312114 0.159154 -0.438769 -0.090149 0.058996 -0.049554 0.024691 0.130352 0.449833 0.097401 0.126447 -0.228840 -0.233913 -0.568695 0.000377 0.125830 0.049876 -0.287968 -0.020847 -0.199307 0.455484 0.195781 0.048085 -0.036703 0.045314 -0.334783 -0.140691 0.228288 -0.251387 -0.118177 -0.347108 0.436417 -0.287520 0.377290 0.020316 -0.033547 -0.040792 0.301186 0.016827 0.186116 0.097111 0.197317 0.401640 0.089918 0.102856 -0.337770 0.072402 -0.314584 -0.091057 -0.158938 0.341556 0.117525 0.531283 -0.019930 -0.353569 0.444556 -0.294805 -0.360529 0.284661 0.334740 0.311890 -0.266634 -0.191504 -0.362478 -0.669474 -0.007106 0.203839 0.020818 0.139084 0.167912 -0.260314 -0.360577 -0.012602 -0.152332 -0.212719 -0.352395 -0.028998 0.182067 0.261321 0.862102 0.237285 -0.125355 0.189933 -0.044435 0.032438 0.167542 -0.034424
kaiin -0.404595 0.087101 -0.051444 0.030993 0.097027 0.281639 0.122504 0.199332 0.152658 0.032202 0.349019 -0.218829 0.322398 -0.293738 0.156965 -0.407706 -0.084064 0.051690 -0.047227 0.032657 0.128573 0.417321 0.093405 0.113869 -0.204913 -0.224455 -0.530131 0.001321 0.110581 0.043306 -0.272050 -0.016116 -0.177015 0.427045 0.180682 0.046858 -0.028954 0.036584 -0.310939 -0.126514 0.215304 -0.241257 -0.109787 -0.327947 0.407141 -0.259612 0.347480 0.013343 -0.027453 -0.033177 0.268430 0.015007 0.177576 0.091227 0.187522 0.376667 0.082901 0.103830 -0.317008 0.071117 -0.290683 -0.078964 -0.150025 0.325741 0.113134 0.499438 -0.017076 -0.321811 0.411200 -0.275783 -0.332559 0.267432 0.310552 0.289427 -0.246034 -0.176797 -0.346856 -0.622217 -0.009287 0.186034 0.024691 0.125937 0.154794 -0.240770 -0.335314 -0.009821 -0.137061 -0.199282 -0.334411 -0.020543 0.168123 0.244142 0.805804 0.222833 -0.108426 0.180056 -0.041956 0.020319 0.161091 -0.037937
om -0.365452 0.077165 -0.046630 0.031108 0.090693 0.255212 0.110174 0.174615 0.129667 0.028844 0.319401 -0.199624 0.293626 -0.264796 0.136235 -0.373234 -0.078667 0.052472 -0.038859 0.030860 0.113096 0.384834 0.075322 0.095937 -0.180301 -0.204388 -0.469692 0.005397 0.106091 0.040195 -0.242443 -0.015346 -0.169746 0.378467 0.166173 0.045922 -0.031849 0.029562 -0.278342 -0.110719 0.193298 -0.218544 -0.101587 -0.298730 0.363531 -0.236641 0.316895 0.013375 -0.026666 -0.025639 0.247512 0.020520 0.157288 0.075316 0.163982 0.344371 0.079368 0.093307 -0.280901 0.064419 -0.262630 -0.075260 -0.133329 0.289470 0.096618 0.453045 -0.010839 -0.298904 0.378370 -0.251594 -0.307070 0.236835 0.281645 0.267204 -0.217099 -0.157695 -0.312489 -0.556171 -0.009192 0.162783 0.017201 0.114972 0.137264 -0.216235 -0.302211 -0.012553 -0.126373 -0.171732 -0.301899 -0.019960 0.143094 0.221254 0.723151 0.199585 -0.105697 0.156422 -0.041406 0.026536 0.147654 -0.036455
qokol -0.400244 0.080167 -0.044894 0.033920 0.092600 0.274249 0.118204 0.197523 0.143318 0.032004 0.346018 -0.220057 0.323368 -0.285043 0.145681 -0.402267 -0.090661 0.046776 -0.052453 0.029997 0.117859 0.412908 0.083620 0.112829 -0.199569 -0.214818 -0.525086 -0.000307 0.113725 0.046957 -0.272245 -0.012347 -0.178637 0.421705 0.175410 0.049103 -0.032400 0.033266 -0.310106 -0.124921 0.211793 -0.234853 -0.114410 -0.327411 0.402837 -0.267342 0.346436 0.010364 -0.025188 -0.027904 0.269939 0.017492 0.174578 0.084320 0.186199 0.372538 0.089211 0.102939 -0.314821 0.066410 -0.284343 -0.086350 -0.147059 0.314023 0.113266 0.494738 -0.020492 -0.327276 0.413971 -0.277699 -0.328982 0.265020 0.308954 0.289747 -0.247189 -0.168483 -0.339502 -0.612743 -0.014022 0.181420 0.020646 0.127914 0.150580 -0.239895 -0.338156 -0.015697 -0.139580 -0.197576 -0.328700 -0.027412 0.171615 0.249328 0.799029 0.224105 -0.115489 0.178101 -0.038875 0.026721 0.158554 -0.028846
oteedy -0.437445 0.088234 -0.053539 0.036376 0.105548 0.299842 0.133810 0.210069 0.154929 0.032486 0.377374 -0.241368 0.357723 -0.320402 0.168444 -0.447080 -0.096547 0.056952 -0.048356 0.031060 0.138836 0.457870 0.096936 0.129298 -0.226223 -0.242686 -0.570501 -0.001839 0.123502 0.050771 -0.298982 -0.024024 -0.204079 0.463260 0.202560 0.049441 -0.033546 0.039529 -0.338928 -0.137743 0.232500 -0.251471 -0.124624 -0.348114 0.434759 -0.292602 0.379773 0.017082 -0.025471 -0.036847 0.299465 0.025615 0.189767 0.099680 0.198251 0.405732 0.094542 0.105443 -0.338221 0.066427 -0.310815 -0.091110 -0.160728 0.347494 0.112412 0.538612 -0.030837 -0.354906 0.449989 -0.301333 -0.360593 0.285578 0.337646 0.317441 -0.262507 -0.186137 -0.366805 -0.678728 -0.002211 0.204077 0.025916 0.140329 0.168603 -0.253734 -0.365167 -0.018123 -0.153227 -0.213600 -0.352881 -0.020046 0.181984 0.269685 0.880140 0.247702 -0.123425 0.196536 -0.043143 0.029215 0.176348 -0.037003
otain -0.389777 0.081298 -0.050838 0.023064 0.093394 0.264231 0.107588 0.180317 0.141691 0.023388 0.330270 -0.209854 0.308670 -0.276228 0.148574 -0.392623 -0.078439 0.043872 -0.044627 0.024653 0.120931 0.394229 0.082106 0.107411 -0.195429 -0.207304 -0.500683 0.004843 0.117024 0.043489 -0.259864 -0.018557 -0.177698 0.403830 0.177219 0.049436 -0.034610 0.031945 -0.297358 -0.121784 0.207615 -0.230292 -0.110233 -0.310223 0.381060 -0.254122 0.332097 0.013772 -0.026604 -0.039122 0.256822 0.020819 0.168877 0.081129 0.171970 0.354668 0.081956 0.094675 -0.299209 0.066688 -0.273309 -0.083136 -0.138473 0.304761 0.100581 0.470391 -0.022225 -0.307335 0.394533 -0.264933 -0.317281 0.252135 0.302573 0.281249 -0.231715 -0.166510 -0.326816 -0.595110 -0.008745 0.172207 0.023702 0.122750 0.144156 -0.222083 -0.323053 -0.005038 -0.126616 -0.184241 -0.313572 -0.024516 0.156246 0.237232 0.765046 0.215236 -0.107378 0.165069 -0.042233 0.024782 0.149078 -0.035322
shdy -0.396488 0.080069 -0.048388 0.026631 0.090138 0.272241 0.112320 0.192650 0.147234 0.030581 0.342964 -0.216067 0.316432 -0.290219 0.151709 -0.406280 -0.083950 0.049724 -0.051243 0.029658 0.119759 0.415525 0.084819 0.115201 -0.207507 -0.217628 -0.522812 0.000703 0.113867 0.045077 -0.266448 -0.010117 -0.178465 0.414720 0.176687 0.043526 -0.025612 0.037948 -0.303513 -0.127997 0.204784 -0.237871 -0.109916 -0.316259 0.401627 -0.258297 0.345533 0.016874 -0.023204 -0.032807 0.273216 0.020856 0.176555 0.081581 0.188211 0.373338 0.083545 0.095575 -0.310281 0.067206 -0.289910 -0.081823 -0.148098 0.320938 0.108470 0.485421 -0.018182 -0.319352 0.407995 -0.272470 -0.331194 0.254022 0.310213 0.289694 -0.239457 -0.172584 -0.330473 -0.611388 -0.003443 0.181984 0.020106 0.122757 0.151767 -0.230436 -0.336328 -0.007431 -0.141477 -0.195016 -0.328219 -0.020461 0.163111 0.243078 0.796174 0.222339 -0.116486 0.176698 -0.035176 0.023143 0.158139 -0.034038
okol -0.403088 0.083384 -0.049014 0.031581 0.099545 0.276386 0.119238 0.192876 0.149081 0.032297 0.348237 -0.221737 0.313913 -0.286154 0.153250 -0.407037 -0.084211 0.058232 -0.048603 0.029526 0.122337 0.414457 0.083273 0.105848 -0.202992 -0.222583 -0.515237 0.000336 0.110561 0.047961 -0.274254 -0.017444 -0.174659 0.412584 0.177663 0.053201 -0.031545 0.035508 -0.301042 -0.121814 0.204799 -0.239738 -0.113490 -0.324783 0.395078 -0.259093 0.348302 0.017041 -0.027916 -0.037185 0.266435 0.019886 0.170152 0.090502 0.185372 0.372407 0.085259 0.104260 -0.309074 0.067610 -0.293000 -0.082341 -0.145793 0.317206 0.109799 0.489936 -0.015360 -0.324338 0.413269 -0.270103 -0.330526 0.263855 0.313603 0.283431 -0.243601 -0.168042 -0.338252 -0.610904 -0.005990 0.186215 0.020827 0.130493 0.152784 -0.232639 -0.339254 -0.009119 -0.142629 -0.193075 -0.324356 -0.026897 0.168323 0.243591 0.794470 0.222302 -0.117216 0.171721 -0.040707 0.026471 0.158349 -0.035824
qotedy -0.399373 0.088747 -0.053838 0.028347 0.097204 0.278342 0.114644 0.196874 0.150375 0.033334 0.353729 -0.225086 0.327677 -0.287112 0.152560 -0.410969 -0.083141 0.046731 -0.052273 0.031069 0.124589 0.420651 0.092221 0.114861 -0.213655 -0.221559 -0.529412 -0.000793 0.124286 0.038057 -0.275171 -0.019289 -0.186520 0.424938 0.185787 0.048334 -0.032569 0.043946 -0.309866 -0.126694 0.215526 -0.234170 -0.114509 -0.318874 0.407766 -0.271227 0.353399 0.021468 -0.019216 -0.030997 0.274777 0.018689 0.176978 0.087755 0.186141 0.374067 0.090135 0.106258 -0.308847 0.066510 -0.285289 -0.082234 -0.151543 0.326849 0.103476 0.494768 -0.026709 -0.321133 0.421933 -0.282219 -0.338514 0.260168 0.313075 0.295162 -0.238315 -0.172110 -0.344653 -0.622713 -0.001179 0.184148 0.015065 0.126427 0.158240 -0.236462 -0.344947 -0.008251 -0.135437 -0.192953 -0.329111 -0.025976 0.170550 0.246460 0.812256 0.229103 -0.119810 0.179932 -0.038334 0.024387 0.158128 -0.028572
